0.004591342527419329
-0.3224615454673767
-0.23481179773807526
0.04678160697221756
-0.09923741221427917
-0.2990685701370239
-0.21948885917663574
-0.4345262944698334
-0.12648333609104156
-0.08967403322458267
0.40646398067474365
-0.1851016879081726
0.003626371268182993
0.06105535104870796
-0.3252565860748291
-0.013895588926970959
0.028679898008704185
-0.08670485764741898
-0.1002216562628746
-0.05227702483534813
-0.0808740183711052
-0.021179353818297386
0.3481796681880951
-0.044256825000047684
-0.1382780373096466
0.07966244965791702
-0.13331614434719086
-0.33274558186531067
-0.28440409898757935
-0.16604317724704742
-0.15596823394298553
0.17527851462364197
-0.3394900858402252
-0.24035200476646423
-0.22220973670482635
-0.21132966876029968
-0.09112673997879028
-0.29078155755996704
-0.09143293648958206
-0.26224055886268616
-0.23171107470989227
-0.17134666442871094
-0.07901581376791
-0.06895583122968674
0.030308064073324203
-0.23302039504051208
-0.26359015703201294
0.12331788241863251
0.2504347562789917
-0.2307291179895401
-0.021226663142442703
-0.16213469207286835
-0.28389567136764526
0.04747191071510315
-0.4836415946483612
-0.16911184787750244
-0.3602078855037689
-0.5012543201446533
0.11574701219797134
0.5947257280349731
-0.4600678086280823
0.032479338347911835
-0.03162152320146561
-0.12379423528909683
-0.1351647973060608
-0.3680829107761383
-0.11636374145746231
-0.14946720004081726
-0.03987761586904526
0.04419315606355667
-0.06880722939968109
-0.19535522162914276
-0.0778198093175888
-0.11585414409637451
0.09358377754688263
-0.28815871477127075
-0.17843928933143616
-0.14552874863147736
0.13276593387126923
-0.09245544672012329
-0.1906280666589737
-0.19408352673053741
0.03233824297785759
0.015020912513136864
0.23806999623775482
-0.10256651788949966
-0.06599301099777222
-0.3152574598789215
-0.20298783481121063
0.012671190313994884
0.018357722088694572
0.09551313519477844
-0.25942328572273254
0.13509218394756317
-0.20167970657348633
-0.12453407794237137
-0.15549051761627197
-0.002236756728962064
-0.06558746099472046
-0.06122865900397301
-0.2014659196138382
-0.04267965257167816
-0.00996722187846899
-0.3749573826789856
0.0919613167643547
-0.03957444056868553
0.22629061341285706
-0.1752597987651825
-0.2652565538883209
-0.019956447184085846
-0.09310032427310944
-0.07603225857019424
-0.337068110704422
-0.06291153281927109
0.04725801199674606
-0.12774935364723206
-0.1540067344903946
-0.09087057411670685
0.01924119144678116
0.008030607365071774
-0.24808993935585022
0.1365218162536621
0.017627375200390816
-0.2550157308578491
-0.12359979003667831
-0.23276624083518982
-0.09904393553733826
-0.23735471069812775
0.14956322312355042
-0.08655159920454025
-0.0120771499350667
-0.04006766900420189
-0.1614251732826233
-0.29378604888916016
0.12520954012870789
-0.10785496234893799
-0.3995720148086548
-0.43588969111442566
-0.3173292875289917
0.09489797800779343
-0.18302100896835327
-0.11381883919239044
-0.277762234210968
0.06106606125831604
-0.22585219144821167
-0.03004118986427784
-0.16252808272838593
-0.07283039391040802
-0.18245410919189453
-0.09547226130962372
-0.1040370911359787
-0.1982937604188919
-0.16598999500274658
-0.11293493956327438
0.3555576801300049
-0.058785807341337204
-0.2472745031118393
-0.060141000896692276
-0.250622421503067
-0.21811413764953613
-0.09056401997804642
-0.2885357439517975
-0.09841178357601166
0.13093934953212738
-0.3164536952972412
-0.1573251187801361
-0.00017999488045461476
-0.18374471366405487
0.06069035083055496
-0.2526654601097107
-0.41075611114501953
-0.03808889538049698
-0.20320892333984375
-0.2091866284608841
0.047336820513010025
-0.1047174409031868
-0.22048518061637878
-0.20002515614032745
0.024783777073025703
-0.13901770114898682
-0.3791053295135498
-0.26351237297058105
0.0013937205076217651
-0.0328342542052269
0.24546992778778076
-0.14542900025844574
0.07238171994686127
-0.02219824679195881
-0.2662084996700287
-0.10364291816949844
-0.012570120394229889
-0.3718527555465698
0.1803290694952011
-0.18893814086914062
-0.49306559562683105
-0.002610408468171954
-0.2522241771221161
-0.08170702308416367
0.1806776374578476
-0.17174163460731506
-0.21044151484966278
-0.12426308542490005
0.1721772998571396
0.15883192420005798
-0.02195161208510399
-0.19154325127601624
0.12073392421007156
-0.13417097926139832
-0.3878997564315796
-0.22854211926460266
-0.09081177413463593
-0.09881000220775604
-0.14750716090202332
-0.14844268560409546
-0.19589731097221375
-0.056047163903713226
-0.09998280555009842
-0.1711881011724472
-0.06910596042871475
0.03520059585571289
-0.2817208468914032
-0.053902558982372284
-0.15335537493228912
0.3971266448497772
-0.09239590167999268
-0.18049514293670654
-0.09636241942644119
-0.230435311794281
-0.2584860622882843
-0.08067939430475235
-0.09600577503442764
-0.2483493685722351
0.22944575548171997
0.15087760984897614
-0.15023264288902283
-0.5172853469848633
-0.11047781258821487
0.09536269307136536
-0.05991620942950249
-0.16052816808223724
0.1280471384525299
-0.05428313463926315
-0.1298189014196396
-0.3586852252483368
-0.1274385005235672
-0.031105732545256615
-0.08247136324644089
-0.296468049287796
0.0346231572329998
0.0077850413508713245
-0.13015931844711304
-0.03581139072775841
-0.08616648614406586
-0.06710980087518692
-0.13630670309066772
-0.06403636932373047
