0.19991183280944824,-1.0291210412979126,0.011204639449715614,0.006561588030308485,0.24186770617961884,-0.11287479847669601,0.324235737323761,-0.16746476292610168,-0.9057204127311707,0.06172063201665878,-0.08771387487649918,-0.16980138421058655,0.0914253294467926,-0.10482572764158249,-0.3908277451992035,-0.6153820753097534,0.026913024485111237,-0.5093771815299988,-0.951073408126831,-0.4403659403324127,0.3913472592830658,-0.09377272427082062,0.08203764259815216,-0.1381136029958725,-0.1775745004415512,0.37673524022102356,0.08360054343938828,0.04589229077100754,-0.019770057871937752,-0.2732737362384796,-0.2279842346906662,-0.06181851774454117,0.41023164987564087,-0.12966690957546234,-0.19801020622253418,-0.07520550489425659,0.046455737203359604,-0.24602963030338287,0.22835905849933624,0.13816243410110474,0.41328901052474976,0.07936690002679825,0.0012822543503716588,0.01923353783786297,-0.08225139230489731,0.5909816026687622,0.23882855474948883,0.4783477783203125,-0.0331389456987381,-0.6224199533462524,-0.6161737442016602,-0.03248625621199608,-0.2348589152097702,0.3507767617702484,-0.5623895525932312,-0.05148864537477493,-0.2615983486175537,-0.009045247919857502,-0.11668675392866135,0.30413100123405457,-0.35023996233940125,-0.1537189930677414,0.19776670634746552,0.0049979472532868385,-0.15675726532936096,-0.1353617012500763,-0.16033810377120972,0.11657387018203735,-0.057098034769296646,0.050716008991003036,-0.09499315172433853,-0.1386362910270691,-0.045528799295425415,-0.05052147060632706,-0.03969685733318329,0.0784229189157486,-0.1638655960559845,-0.2638664245605469,-0.005980480927973986,0.8364540934562683,-0.06132839620113373,-0.11118726432323456,0.47080904245376587,-0.5433385968208313,-0.1103362962603569,0.28839555382728577,0.1899837702512741,-0.3150271475315094,0.27924489974975586,0.13533687591552734,-0.03160444274544716,0.034478262066841125,0.24974174797534943,-0.0457359254360199,-0.22631891071796417,-0.20898154377937317,-0.04576955735683441,-0.451459676027298,-0.17372500896453857,-0.2834884226322174,0.01603850908577442,0.18400761485099792,0.05831119045615196,-0.6712837815284729,-0.12987494468688965,-0.12684160470962524,0.3762094974517822,-0.11146005243062973,0.1381358802318573,-0.1130131408572197,0.2756567597389221,-0.3204762935638428,-0.03859763965010643,-0.030004143714904785,-0.2039078325033188,-0.19557783007621765,-0.20860736072063446,-0.27297282218933105,0.00020594761008396745,0.21997275948524475,-0.13777278363704681,-0.237481027841568,0.33410829305648804,0.2611510753631592,-0.21343795955181122,0.13745716214179993,-0.4678138196468353,-0.15421609580516815,0.051272206008434296,-0.16348686814308167,-0.0411098338663578,-0.26566416025161743,-0.2938724458217621,0.011051187291741371,0.17324332892894745,-0.02181648649275303,-0.20335090160369873,0.30357030034065247,0.28328245878219604
0.2772946357727051,0.2725602984428406,0.6970489621162415,-0.29255053400993347,-0.11691361665725708,-0.10875425487756729,0.18655389547348022,0.2124895304441452,0.007686635944992304,0.31411072611808777,-0.5252439379692078,0.027190687134861946,-0.44119933247566223,-0.06685091555118561,-0.04529828578233719,0.0002444968558847904,-0.2296171337366104,1.1323586702346802,0.6163852214813232,0.02756550721824169,-0.9914712905883789,-0.21834203600883484,-0.05236784368753433,0.32962942123413086,0.1237243264913559,-0.4653450846672058,0.26864615082740784,-0.5991320610046387,-0.48203349113464355,0.2643823027610779,0.40680238604545593,0.09511342644691467,-0.2349126636981964,-0.04846679046750069,0.05907638370990753,-0.12605497241020203,-0.059327591210603714,-0.013861785642802715,-0.14598588645458221,0.07726199924945831,-0.04653170332312584,-0.17810732126235962,-0.2320045530796051,-0.02925778366625309,-0.26307806372642517,0.31122633814811707,-0.4132119119167328,0.5682064890861511,-0.28600865602493286,0.10290509462356567,0.15372055768966675,0.41386109590530396,-0.6418091058731079,-0.2281315177679062,-0.4291922152042389,0.003861895063892007,0.24668681621551514,-0.1315726786851883,-0.21691253781318665,-0.07689683884382248,-0.02975495159626007,-0.09488143771886826,0.1713084578514099,0.05180693417787552,-0.1805645078420639,-0.010215168818831444,-0.30682259798049927,0.03627851977944374,0.36459553241729736,-0.08864369243383408,0.050770971924066544,-0.13436508178710938,-0.10075510293245316,-0.10730087012052536,0.208810955286026,0.07960023730993271,0.04589829221367836,0.20735974609851837,-0.20307983458042145,0.0260274987667799,-0.5591731667518616,0.3403189778327942,-0.26903387904167175,-0.0448368601500988,-0.10496235638856888,0.33567604422569275,-0.00765825342386961,-0.2511882185935974,0.5837976932525635,0.23410379886627197,0.3200441896915436,-0.09959285706281662,-0.19153271615505219,-0.24297216534614563,0.17332763969898224,0.29637324810028076,0.0589892715215683,0.05733361840248108,0.026727521792054176,-0.3173452913761139,0.3863513171672821,-0.097369484603405,0.33881470561027527,-0.06503790616989136,-0.3461344540119171,-0.16442745923995972,-0.0074395486153662205,0.09162013977766037,0.25523918867111206,0.11090364307165146,-0.31644636392593384,0.16191725432872772,-0.22403612732887268,-0.2104254812002182,-0.20009616017341614,0.02670179307460785,-0.04305204004049301,-0.11223282665014267,-0.09144985675811768,0.2795587480068207,0.10274559259414673,-0.073237344622612,-0.059176720678806305,-0.21250221133232117,0.11936423182487488,-0.23653718829154968,0.06237340718507767,-0.3348263204097748,-0.17650969326496124,-0.2062276005744934,0.15098287165164948,-0.09321477264165878,-0.18747054040431976,0.009344958700239658,0.3956283926963806,0.24731019139289856,-0.07216910272836685,-0.07611970603466034,-0.1909101903438568
0.7035734057426453,-0.130163311958313,0.29289132356643677,0.059589892625808716,0.17743808031082153,-0.2961893379688263,0.12075580656528473,0.13071876764297485,0.31007081270217896,0.01897699385881424,0.40408772230148315,-0.596885085105896,0.09849569946527481,-0.6124730706214905,-0.20363792777061462,0.4004010856151581,0.8919814825057983,0.6311790347099304,-0.06911425292491913,-0.1484300047159195,0.9019413590431213,0.04309241101145744,0.06178217753767967,-0.055751267820596695,0.48771095275878906,0.08888691663742065,0.061860498040914536,0.2414742112159729,0.004079637583345175,-0.2507422864437103,0.04998793825507164,0.46930721402168274,0.30176499485969543,0.15940482914447784,0.06449608504772186,0.21186195313930511,-0.15293897688388824,0.23959888517856598,0.14780791103839874,-0.1308186650276184,-0.029542148113250732,-0.010609554126858711,0.1985350251197815,-0.01224322896450758,0.1103321984410286,-0.12386704236268997,-0.10313878953456879,-0.16040579974651337,-0.15672002732753754,-1.1955134868621826,0.2633327543735504,-0.044344712048769,0.6533966660499573,0.3051314651966095,0.23889009654521942,-0.23976653814315796,-0.4430604577064514,-0.22413988411426544,-0.019513826817274094,0.09179079532623291,-0.08045019209384918,-0.19299420714378357,0.011860022321343422,-0.15690793097019196,0.14371339976787567,-0.2664819657802582,0.005483150482177734,-0.024435875937342644,0.019620202481746674,0.11749868839979172,0.06725241988897324,0.05084694176912308,0.05498911812901497,0.11571982502937317,-0.12152496725320816,-0.058319881558418274,0.1482374668121338,0.08296586573123932,-0.035173166543245316,0.5589051842689514,-0.3591594994068146,0.5448540449142456,-0.6393638253211975,-0.8748575448989868,-0.13428086042404175,0.4304804503917694,-0.4561185836791992,-0.3423619568347931,-0.8742538690567017,0.26457616686820984,-0.13034163415431976,-0.08484173566102982,0.07508458942174911,-0.32524600625038147,-0.1441541165113449,0.0029366142116487026,-0.04595833644270897,-0.16857270896434784,0.25469639897346497,-0.090287946164608,0.21136106550693512,0.4160257577896118,0.0737665444612503,0.2735084891319275,0.3060034513473511,0.3426585793495178,0.3271508812904358,0.20821096003055573,-0.20305749773979187,0.032976068556308746,0.18331970274448395,0.2762131989002228,-0.2944437563419342,-0.1955752819776535,-0.023193325847387314,-0.1634720265865326,0.24189384281635284,0.024310637265443802,-0.009180254302918911,0.004152974579483271,0.005035284906625748,-0.0783865749835968,0.2980307638645172,0.1619623750448227,-0.10602065920829773,0.05459713190793991,0.28447040915489197,-0.21225591003894806,-0.3019609749317169,-0.1210554987192154,-0.12205918878316879,0.04971203953027725,-0.024042755365371704,-0.008937147445976734,0.00512064341455698,-0.09906226396560669,-0.1782383769750595,0.14728479087352753,0.048821259289979935
0.3645755648612976,0.7521942257881165,-0.5363438725471497,0.31687232851982117,0.05475018918514252,-0.2807753384113312,-0.08344141393899918,0.1539415568113327,-0.4257954955101013,-0.3666568696498871,-0.42810606956481934,-0.26589345932006836,0.1447012722492218,-0.294185608625412,-0.13945123553276062,-0.4435091018676758,0.28840163350105286,-0.1301221251487732,0.5928927659988403,-0.11150427162647247,0.0297811608761549,-0.07139902561903,0.028249450027942657,0.0231737419962883,0.136129692196846,0.12301331758499146,-0.003460078267380595,0.23672012984752655,0.4241083562374115,-0.2355426698923111,-0.20651333034038544,-0.24107059836387634,0.04654700309038162,-0.03362468630075455,-0.1744445562362671,0.021792681887745857,-0.01757468841969967,-0.00951117742806673,0.1444890946149826,-0.11366026848554611,-0.06951474398374557,0.11517872661352158,0.4003337323665619,0.2556133568286896,0.037373125553131104,0.11438407003879547,-0.10793200880289078,0.25740233063697815,-0.3502959609031677,0.3993883430957794,-0.3765397071838379,0.5530570149421692,0.4604839086532593,-0.8682337999343872,0.043115753680467606,-0.1003093346953392,0.07103664427995682,-0.22152161598205566,0.23703353106975555,0.023496778681874275,-0.09611507505178452,-0.24470427632331848,0.12545859813690186,0.14980106055736542,0.2956492006778717,-0.08087323606014252,-0.02723459154367447,0.021736323833465576,0.023481301963329315,-0.17353639006614685,-0.010862238705158234,0.02761264704167843,0.03988303616642952,0.31466448307037354,0.16010132431983948,-0.02141941897571087,-0.09640359878540039,-0.034270890057086945,0.010206693783402443,0.11089318245649338,-0.246989443898201,-0.02101476676762104,-0.3965838551521301,0.8857289552688599,-0.5427055358886719,-0.17997291684150696,-0.0337311215698719,-0.10322976112365723,-0.21527758240699768,0.3197776973247528,-0.0465388223528862,-0.31750616431236267,0.19411389529705048,0.06320319324731827,0.02643488720059395,-0.025566374883055687,0.003017277689650655,-0.08268994092941284,-0.11678152531385422,-0.3976992964744568,-0.05645809695124626,0.0905316025018692,-0.21600379049777985,-0.07498827576637268,0.11599425971508026,0.17437240481376648,-0.025391118600964546,-0.16394023597240448,0.12442925572395325,-0.33446261286735535,-0.11613847315311432,-0.20090888440608978,-0.08326173573732376,0.09954648464918137,-0.14434105157852173,-0.1658926010131836,0.01455868873745203,0.13007251918315887,0.2109287679195404,-0.22226515412330627,-0.03951038420200348,0.2924851179122925,0.04844587296247482,-0.15772464871406555,-0.3072245717048645,-0.3262062072753906,-0.044954653829336166,-0.05973661690950394,0.009371679276227951,-0.12532156705856323,-0.05544804409146309,0.014091878198087215,0.1634053885936737,0.2834421992301941,-0.33150288462638855,-0.06178499385714531,0.2945825755596161,0.13270336389541626,-0.11027562618255615
0.05474426969885826,-0.19690009951591492,-0.056942734867334366,0.16070498526096344,-0.003859712975099683,-0.7373225688934326,-0.18640777468681335,-0.22421054542064667,0.024535026401281357,-0.4974314272403717,-0.13540904223918915,0.10630116611719131,-0.1301201730966568,0.12116187065839767,-0.34275785088539124,0.0639437884092331,-0.14627423882484436,-0.08274345099925995,-0.12129493057727814,0.4238358438014984,0.7095113396644592,-0.0857972800731659,0.11031327396631241,-0.09439372271299362,-0.10657656192779541,-0.3991788923740387,0.1985137015581131,-0.11231603473424911,-0.02743462845683098,0.4421958029270172,-0.37819817662239075,0.04419498145580292,-0.29224613308906555,0.34939736127853394,0.17555056512355804,-0.34159860014915466,0.488827109336853,-0.25268641114234924,0.7391785979270935,0.2672765552997589,0.44092467427253723,0.17427125573158264,-0.10492116957902908,-0.0430547334253788,-0.17164307832717896,0.05289015918970108,-0.37822216749191284,0.20375269651412964,0.03687812760472298,0.4164116680622101,0.6857542395591736,-0.35920900106430054,0.2676481306552887,-0.018591981381177902,0.050379425287246704,0.004767275881022215,0.3811260163784027,0.20239204168319702,0.1632845401763916,-0.0785822868347168,0.020413188263773918,0.030242450535297394,-0.08660897612571716,-0.10550369322299957,-0.018104756250977516,-0.04511325806379318,0.09131774306297302,0.03018108755350113,-0.07983395457267761,0.34969350695610046,-0.2348397970199585,-0.23580536246299744,0.21356263756752014,0.043297018855810165,0.005550690460950136,0.1885189414024353,0.41022804379463196,0.11548081040382385,-0.15736164152622223,0.6433253884315491,0.2830822467803955,-0.07387492805719376,-0.007907462306320667,-0.29318785667419434,0.031136566773056984,0.04022704437375069,0.30625754594802856,0.09951122105121613,0.17852218449115753,0.03227437660098076,-0.002621382474899292,-0.12037647515535355,-0.0010495702736079693,-0.24531613290309906,0.015852566808462143,0.2571943700313568,0.05964837595820427,-0.0065584066323935986,-0.11677588522434235,0.1451476663351059,-0.13500793278217316,-0.1116231307387352,0.18703675270080566,-0.05662868171930313,0.07497231662273407,-0.4358995258808136,0.23267048597335815,0.3210451006889343,-0.13318762183189392,-0.4225219190120697,0.14334075152873993,-0.018154818564653397,-0.182131826877594,0.08121335506439209,-0.2800229787826538,0.0388067327439785,-0.30098435282707214,-0.07512857019901276,-0.14904506504535675,-0.06943784654140472,0.31643548607826233,-0.08420983701944351,0.2197197824716568,0.03401154279708862,-0.4081774652004242,0.13933272659778595,-0.06263333559036255,-0.12899430096149445,0.07680197805166245,-0.16728006303310394,0.10508207231760025,-0.20224809646606445,-0.07680025696754456,-0.13773755729198456,0.06677358597517014,0.2218923270702362,-0.11433959007263184,0.3676411211490631,-0.02263275347650051
0.667975664138794,-1.1210616827011108,0.1790677011013031,-0.31284692883491516,0.2597706615924835,0.4079727828502655,-0.026978708803653717,-0.38604316115379333,-0.4423210918903351,-0.38064664602279663,0.21357624232769012,0.03711579740047455,-0.6389714479446411,0.08821507543325424,-0.3698064982891083,-0.12753641605377197,-0.12141423672437668,-0.3127446174621582,0.35361120104789734,-0.3809385597705841,-0.0041441116482019424,-0.18569478392601013,0.09036605805158615,-0.13501830399036407,0.015953905880451202,-0.0377037413418293,-0.14436697959899902,0.1978994607925415,0.09344924241304398,-0.1362539529800415,0.19615739583969116,-0.05522042512893677,-0.06960417330265045,0.30994096398353577,-0.12835639715194702,0.4315844178199768,-0.13401612639427185,0.3006097078323364,-0.029251834377646446,-0.2826492190361023,-0.10207399725914001,-0.32901063561439514,0.5723913311958313,0.515591025352478,0.13292737305164337,0.18083380162715912,-0.3733019232749939,0.5887519121170044,-0.30215734243392944,0.024148939177393913,-0.319271057844162,-0.39958763122558594,-1.6689565181732178,-0.024752836674451828,0.001676066778600216,-0.1129571869969368,0.05872577056288719,-0.1869378387928009,0.006298295222222805,-0.10077054798603058,0.21138331294059753,0.11002633720636368,0.027224335819482803,-0.09558159857988358,-0.058284688740968704,-0.16395702958106995,-0.014134551398456097,0.19081155955791473,-0.071949303150177,0.11901672929525375,-0.6530399322509766,-0.14404410123825073,-0.19461160898208618,0.1681077629327774,0.2787821590900421,-0.3225289285182953,-0.2741656005382538,-0.034717660397291183,-0.02501331828534603,0.5150881409645081,-0.0003749359166249633,-0.18146739900112152,0.6774391531944275,0.16385458409786224,0.10619749873876572,-0.05397241562604904,0.0992283895611763,0.1949959546327591,0.9876196980476379,0.2323407679796219,-0.006023989524692297,-0.14745929837226868,-0.1332540512084961,0.031478241086006165,0.47450920939445496,0.07848437130451202,0.17588911950588226,0.16200260818004608,-0.15347930788993835,0.1318492293357849,0.0533335842192173,0.08148003369569778,-0.07823619991540909,0.17068742215633392,-0.031365662813186646,-0.2619120180606842,0.471282035112381,-0.0534457191824913,0.09200098365545273,-0.4324898421764374,-0.11751634627580643,-0.23826180398464203,0.43900009989738464,0.5031922459602356,0.14612071216106415,-0.004364476073533297,0.2762697637081146,-0.03819892182946205,-0.13736392557621002,-0.10615327209234238,0.044337499886751175,-0.2522560954093933,-0.01563814841210842,-0.27663153409957886,-0.4239517152309418,-0.22591908276081085,-0.3480413258075714,0.3696940541267395,0.3767406642436981,0.01728123240172863,0.10277360677719116,0.09622042626142502,0.06607826799154282,-0.18553023040294647,-0.21392734348773956,0.07297950237989426,-0.2228873372077942,-0.0743250772356987,-0.3159390985965729
-0.3192433714866638,0.0913008451461792,-0.15189987421035767,0.036565061658620834,-0.021453870460391045,0.13214759528636932,-0.0149622093886137,-0.49531179666519165,-0.20309261977672577,-0.21911738812923431,-0.24201177060604095,0.045254845172166824,-0.2600761950016022,-0.0935768261551857,-0.4640445411205292,0.06164321303367615,0.25151327252388,-0.48602497577667236,-0.9732998609542847,0.5706591010093689,0.029365431517362595,-0.1651967316865921,0.1290593296289444,0.01909901574254036,0.24290786683559418,0.2106158584356308,-0.15215905010700226,-0.10297669470310211,0.10384571552276611,0.15164223313331604,-0.23366229236125946,0.16708360612392426,0.13833318650722504,0.03522689267992973,-0.21578486263751984,0.1344040483236313,0.1021696999669075,0.07010144740343094,0.24222473800182343,-0.017804404720664024,-0.0640113428235054,-0.12012544274330139,-0.03251362219452858,-0.24054484069347382,-0.23690861463546753,0.03430357202887535,-0.20941603183746338,-0.11095817387104034,-0.030909119173884392,0.5088815689086914,-0.2924943268299103,-0.8069164156913757,-0.3096368610858917,0.8091127872467041,-0.34686386585235596,0.44634634256362915,0.19520899653434753,0.12474919110536575,0.17075440287590027,-0.03890112042427063,0.15895874798297882,0.21879804134368896,0.042982954531908035,0.031216826289892197,-0.005521970801055431,-0.07106805592775345,0.0976102277636528,0.02318400703370571,-0.024103110656142235,-0.12367091327905655,-0.014451923780143261,-0.022609584033489227,0.07817159593105316,0.1450546681880951,0.13541391491889954,-0.023353543132543564,0.05209914222359657,-0.13963189721107483,-0.06812077015638351,-0.48773884773254395,0.34043189883232117,0.4638303220272064,0.5618534684181213,-0.14810320734977722,0.23240461945533752,-0.5686554908752441,0.0031053272541612387,0.1706407070159912,0.2798086106777191,0.10822945833206177,-0.09458024054765701,-0.11864730715751648,-0.1461530476808548,0.15171943604946136,-0.08548309653997421,0.17701366543769836,-0.0497746542096138,-0.014978589490056038,-0.35246405005455017,0.1330798715353012,0.026219965890049934,0.2568637728691101,0.08486181497573853,0.2393335998058319,-0.28102511167526245,0.21758034825325012,-0.18967539072036743,0.01074214093387127,0.08911842852830887,0.05737405642867088,-0.394043892621994,0.011451192200183868,0.02674407698214054,0.25177663564682007,0.1411334127187729,-0.160157710313797,0.07085789740085602,0.20180530846118927,-0.07728101313114166,0.22524768114089966,0.04330053925514221,0.08606500178575516,-0.07571269571781158,0.0831054076552391,0.09814231842756271,-0.2625560462474823,0.05712135508656502,-0.04753461852669716,0.20264028012752533,0.13206981122493744,-0.1771957278251648,0.13559480011463165,0.1877010315656662,-0.05567766726016998,0.19591224193572998,0.11169194430112839,0.12798050045967102,-0.1642998903989792,0.07063237577676773
0.08757730573415756,-0.1340891718864441,0.7932984232902527,0.08189744502305984,0.2929689586162567,0.4299027919769287,0.33115676045417786,-0.10829858481884003,-0.2655330002307892,-0.19174224138259888,0.3178306221961975,-0.8190637826919556,-0.0549091100692749,-0.7587053775787354,-0.3690061569213867,0.26745811104774475,-0.08679230511188507,0.0700608342885971,-0.19295468926429749,-0.33672481775283813,0.8532549142837524,-0.10016130656003952,0.3746877908706665,-0.25147494673728943,0.3858392536640167,0.0320504866540432,0.11625582724809647,0.0523810014128685,-0.041605956852436066,0.30185773968696594,-0.054247185587882996,-0.13216575980186462,0.055992987006902695,-0.03741660714149475,-0.1745273321866989,-0.08381461352109909,-0.11381328850984573,0.34107705950737,-0.20705446600914001,0.15432292222976685,0.008990050293505192,-0.03836618363857269,-0.018071729689836502,-0.015169775113463402,-0.28103750944137573,-0.07376215606927872,-0.4200321435928345,0.021377328783273697,-0.22362187504768372,0.5238925218582153,0.8245670795440674,-0.1682710498571396,-0.05149828642606735,0.08797422051429749,0.3312067687511444,-0.10222313553094864,0.22067685425281525,0.07464079558849335,-0.02098674885928631,-0.05472525209188461,0.11222811788320541,-0.08946115523576736,-0.09567222744226456,-0.18943679332733154,0.30887964367866516,-0.07058829814195633,0.05389009416103363,-0.12386845052242279,-0.1443270444869995,-0.02066309191286564,0.3849059045314789,-0.04842371866106987,0.0960693359375,0.11626871675252914,-0.29761838912963867,-0.30174827575683594,0.30441564321517944,-0.2964455187320709,0.12469543516635895,0.029621925204992294,0.17721690237522125,0.04267669841647148,-0.7316601872444153,0.5198776125907898,-0.5191914439201355,-0.023151064291596413,0.17971816658973694,-0.23206491768360138,-0.1985127031803131,0.2517774999141693,0.2269880324602127,0.20002712309360504,-0.004366603214293718,-0.024332376196980476,0.06059294193983078,0.34699293971061707,0.15572376549243927,-0.2884649336338043,-0.026174506172537804,0.059753816574811935,-0.18941210210323334,0.2852829396724701,-0.020909124985337257,-0.0044402554631233215,-0.5220327377319336,-0.2438046634197235,-0.03556229919195175,0.04299623519182205,0.11236507445573807,-0.02675781026482582,0.3440186679363251,-0.12236382067203522,0.12602756917476654,-0.004249949473887682,-0.1531337946653366,0.19060611724853516,-0.14665856957435608,-0.10177592933177948,-0.09201868623495102,0.2398272454738617,-0.1846279352903366,0.5500048995018005,0.03952182084321976,-0.008114100433886051,-0.158888578414917,0.2690277397632599,0.04568300396203995,0.14684844017028809,0.11733467131853104,-0.2797049880027771,0.1460566222667694,-0.16077324748039246,-0.14525435864925385,-0.04919243976473808,0.3440426290035248,-0.2171536087989807,0.4340628981590271,-0.012393507175147533,0.0058314125053584576
-0.46162059903144836,0.3804262578487396,0.38659554719924927,0.05086755380034447,0.10493823140859604,-0.03879775479435921,0.10117074102163315,0.35674330592155457,0.40534716844558716,0.028966858983039856,0.11354733258485794,-0.09506536275148392,-0.07079514861106873,-0.05970292165875435,0.2505960762500763,-0.19047804176807404,-0.95030277967453,-0.3070448040962219,1.0147271156311035,1.2662104368209839,-0.5025470852851868,-0.04058311507105827,-0.0459655225276947,-0.053889255970716476,0.15999376773834229,-0.019918393343687057,-0.023137960582971573,-0.022281689569354057,0.003326552454382181,0.0016596443019807339,0.06864406168460846,0.42956942319869995,-0.15783926844596863,-0.06636133790016174,-0.2851916551589966,-0.060837965458631516,-0.2233590930700302,-0.027690162882208824,0.3452474772930145,-0.07953085005283356,0.4473934471607208,0.09343819320201874,-0.234236478805542,0.012747998349368572,0.019193658605217934,0.44524821639060974,0.1270696371793747,0.05886484682559967,0.03083302453160286,-0.4850386679172516,0.3503160774707794,0.03034476935863495,0.6716462969779968,-0.13514049351215363,0.21935954689979553,-0.006480845622718334,0.15897215902805328,-0.01181704644113779,0.020843951031565666,-0.007135790307074785,-0.075302854180336,-0.01828000135719776,-0.10240032523870468,0.1722455620765686,-0.08793595433235168,0.2893538177013397,0.09349235147237778,0.24131834506988525,-0.12203030288219452,0.05059728026390076,0.1358579844236374,-0.04059266671538353,0.22254109382629395,0.09261944890022278,-0.040508631616830826,-0.07907629758119583,-0.02462988905608654,-0.07363741844892502,0.04052826389670372,0.046985991299152374,0.1257585883140564,-0.3112674951553345,-0.48171061277389526,-0.007413235958665609,-0.9502325057983398,-0.24998313188552856,-0.0003461645101197064,-0.08714227378368378,-0.35300731658935547,-0.08509660512208939,-0.4864288568496704,-0.1473606377840042,-0.10423052310943604,0.10483364760875702,-0.3370179533958435,0.15339772403240204,-0.11644242703914642,-0.01996900700032711,0.0862741470336914,0.028054511174559593,0.04037008434534073,0.09267407655715942,-0.057805243879556656,-0.028879929333925247,0.3691895306110382,-0.10274194926023483,0.16414037346839905,0.1092309057712555,-0.05658826604485512,-0.18132774531841278,-0.03660406544804573,-0.36184582114219666,0.15908710658550262,0.1388700306415558,0.09685765951871872,0.34901249408721924,-0.04940223693847656,0.015669841319322586,0.16918638348579407,-0.22283484041690826,0.1273754984140396,-0.08051574230194092,-0.1310814470052719,0.11775892227888107,-0.3188316822052002,-0.10416048020124435,-0.29016542434692383,0.15317963063716888,0.028662728145718575,0.13395926356315613,0.3082522749900818,-0.022546760737895966,0.07398942112922668,0.07971058040857315,-0.33345505595207214,0.11880268156528473,0.048800647258758545,-0.046366214752197266,0.04229220002889633
0.3164275288581848,0.7877746820449829,-0.15752163529396057,-0.1441529393196106,0.15663433074951172,0.21966926753520966,-0.049766361713409424,0.26697859168052673,0.35804352164268494,-0.07264985144138336,-0.32308313250541687,0.15131370723247528,-0.3783254027366638,0.019344313070178032,-0.4899953305721283,-0.46995458006858826,-1.4074784517288208,-0.24292699992656708,0.34382471442222595,-0.6712188720703125,0.28047290444374084,0.00695095444098115,0.17871633172035217,0.015962783247232437,0.26991525292396545,-0.027196580544114113,0.15631182491779327,0.03738781809806824,-0.12101001292467117,-0.06443558633327484,0.14320150017738342,-0.0729723647236824,-0.17838555574417114,0.08646444976329803,-0.17056593298912048,-0.2778715193271637,0.21108506619930267,-0.3418838679790497,0.07355951517820358,-0.304560124874115,0.3479062020778656,0.1226438507437706,-0.3503962755203247,0.059441938996315,-0.002185095101594925,0.14563967287540436,-0.5741626620292664,0.2657504677772522,-0.05962599068880081,-0.23129329085350037,0.02310384437441826,0.42793887853622437,-0.9254465699195862,0.36437171697616577,0.27083078026771545,-0.045926306396722794,-0.09673129767179489,0.21928492188453674,-0.3130694627761841,0.19860529899597168,-0.39324790239334106,-0.19423189759254456,-0.10319337248802185,0.13221310079097748,-0.07240137457847595,-0.022659819573163986,0.20614483952522278,0.07235651463270187,0.012670476920902729,-0.15654699504375458,0.03652258217334747,0.12730568647384644,-0.16287904977798462,-0.4547351598739624,0.30978599190711975,-0.11947813630104065,-0.12133652716875076,0.21289435029029846,0.030871625989675522,-0.14630775153636932,0.17720772325992584,0.3060673475265503,0.6408317685127258,0.05127820372581482,-0.24172154068946838,-0.0982973724603653,-0.22199660539627075,0.39158740639686584,0.1677142232656479,-0.3074280917644501,-0.6101059913635254,0.09228572249412537,-0.30447202920913696,0.2192167043685913,0.027703557163476944,-0.20844219624996185,-0.04745282232761383,0.5757288336753845,-0.05646330863237381,-0.231416717171669,-0.014396289363503456,-0.25900328159332275,-0.21393297612667084,-0.09112828224897385,0.13915255665779114,-0.11998207867145538,-0.08108323067426682,-0.13435260951519012,-0.12022683024406433,-0.16078706085681915,-0.5645740628242493,-0.035455383360385895,-0.10885290056467056,-0.04268746078014374,0.1038217693567276,0.07993722707033157,0.21912236511707306,-0.04861661419272423,-0.06234564259648323,0.09313566237688065,-0.15627031028270721,0.05677719786763191,0.6850293278694153,-0.07984928041696548,-0.17395946383476257,-0.6136007308959961,-0.018710695207118988,-0.08918888121843338,0.0753319039940834,0.03616878017783165,-0.0476163774728775,0.18391786515712738,-0.05676848813891411,-0.07324199378490448,-0.08225596696138382,-0.2507454752922058,0.07349979877471924,0.713649570941925,-0.05409063771367073
-0.8614939451217651,-0.48276638984680176,-1.0102641582489014,0.43402203917503357,-0.2973976731300354,-0.008537419140338898,0.09710004180669785,0.2183334082365036,0.11508067697286606,0.7139083743095398,0.32315537333488464,0.3058099150657654,0.318421334028244,0.3786700665950775,0.30924296379089355,0.09317824989557266,0.061833009123802185,0.9148312211036682,-0.13208723068237305,0.5893037915229797,-0.4716089963912964,-0.11330863833427429,0.12526223063468933,0.13244609534740448,-0.20153580605983734,0.00014821303193457425,0.20488353073596954,0.03501708433032036,0.08540728688240051,-0.04805901646614075,-0.08243752270936966,0.4001378118991852,0.254665732383728,0.39808377623558044,-0.29581135511398315,-0.18963979184627533,0.05634867399930954,0.05576695501804352,0.6504468321800232,-0.1558108776807785,0.5415419936180115,0.10708223283290863,-0.27188029885292053,0.34466248750686646,0.1571783572435379,-0.11622467637062073,0.11685092747211456,0.2205943912267685,-0.2735811471939087,-0.10351124405860901,0.2531581521034241,-0.19379879534244537,0.12095716595649719,-0.09207657724618912,0.33198726177215576,0.11882581561803818,-0.09874136745929718,0.058370720595121384,-0.08869894593954086,-0.10391708463430405,0.1967400312423706,-0.1102176234126091,0.24646541476249695,-0.23350469768047333,0.17389015853405,-0.07714027911424637,0.14065232872962952,-0.2528804838657379,0.1502910703420639,-0.19846108555793762,-0.14625079929828644,0.06366578489542007,-0.3119419515132904,0.173368901014328,0.22978392243385315,-0.0735553577542305,-0.12729530036449432,0.05624523386359215,-0.04153674095869064,0.4462922215461731,-0.08093634992837906,0.4417738616466522,0.19318655133247375,0.29008805751800537,-0.4058701992034912,0.4834972023963928,-0.354717493057251,0.3673500120639801,0.10441641509532928,-0.15477043390274048,0.1074359267950058,0.0767083540558815,-0.07375998795032501,0.32423481345176697,0.5273826122283936,0.026055358350276947,0.20244990289211273,-0.4544449746608734,-0.3612515330314636,-0.18741510808467865,-0.12278398871421814,0.02055356465280056,-0.3271339535713196,0.15474505722522736,-0.17164544761180878,-0.42646360397338867,-0.1405116617679596,-0.18060027062892914,-0.18876348435878754,-0.1809813231229782,0.08283695578575134,-0.06757079809904099,0.02095821127295494,0.10126617550849915,-0.08741634339094162,-0.3005383312702179,-0.2979549765586853,-0.08025453984737396,-0.1468786746263504,0.013098052702844143,-0.21518659591674805,0.009154124185442924,0.01224478892982006,0.09012853354215622,-0.1348779946565628,0.03804444149136543,-0.09644150733947754,0.05729728192090988,0.05820460990071297,0.019345013424754143,-0.360761821269989,-0.2878652811050415,-0.17010320723056793,-0.032121483236551285,0.004129230044782162,-0.227528378367424,-0.10285767912864685,-0.1373123675584793,-0.0003860342549160123
0.5295398235321045,-0.44813933968544006,0.46498119831085205,0.2738848924636841,-0.03513287007808685,0.4615040123462677,0.012070750817656517,0.17194898426532745,0.7147508859634399,-1.7120472192764282,0.09321190416812897,0.1932775378227234,-0.2680068612098694,0.21099057793617249,-0.21161776781082153,-0.04667867347598076,0.11376873403787613,-0.5165749192237854,-0.11082668602466583,-0.2705647945404053,-0.814557671546936,-0.0018002968281507492,-0.14273683726787567,0.18928542733192444,0.0009606901439838111,-0.05519812926650047,-0.17543160915374756,-0.14843671023845673,-0.41252490878105164,-0.1039002388715744,0.10327300429344177,-0.19853131473064423,-0.12657509744167328,-0.20454491674900055,0.016667507588863373,-0.8018534183502197,-0.33979371190071106,0.015258166939020157,-0.11552193015813828,0.1364927887916565,-0.0796414390206337,0.13284054398536682,-0.4330102801322937,0.1740805208683014,-0.2522006332874298,0.35248273611068726,0.19688530266284943,0.21987758576869965,-0.2145218402147293,0.061292923986911774,-0.023435723036527634,0.0333591103553772,0.10112770646810532,-0.28996655344963074,-0.4202611744403839,-0.1558901071548462,0.050162557512521744,-0.19139248132705688,0.08965250104665756,-0.1493380218744278,-0.00701952027156949,0.09538139402866364,-0.16686519980430603,-0.18911007046699524,0.12614655494689941,-0.3525565564632416,0.0262703076004982,-0.11619734764099121,0.12022332847118378,-0.1320001780986786,0.07969124615192413,-0.0990397185087204,-0.17020224034786224,-0.049538444727659225,0.16278809309005737,0.016964979469776154,-0.018888667225837708,-0.136500284075737,-0.29507604241371155,-0.2838606834411621,0.10319318622350693,-0.016561249271035194,-0.2818474769592285,0.07818914204835892,-0.07020724564790726,-0.2024356722831726,0.015759779140353203,0.1923326700925827,-0.15209844708442688,-0.1346987783908844,0.03900247439742088,0.1698562204837799,-0.17408986389636993,0.23585784435272217,0.021959735080599785,-0.22966858744621277,0.2293436974287033,0.07053092122077942,-0.00038275663973763585,0.028993064537644386,0.09329363703727722,-0.02687293477356434,0.06711311638355255,-0.17361336946487427,0.10584447532892227,-0.2228655368089676,0.005175796337425709,0.18048524856567383,-0.014262627810239792,-0.12322350591421127,-0.20354846119880676,-0.35490843653678894,0.10623776167631149,0.4676250219345093,0.16898268461227417,-0.24305123090744019,0.3260757327079773,-0.4260994791984558,0.09346910566091537,0.0038346615619957447,-0.22097225487232208,0.2395026981830597,0.22606725990772247,-0.0023584910668432713,-0.0725376233458519,-0.2822226583957672,-0.4071608781814575,0.019828706979751587,0.5558047890663147,0.17305245995521545,-0.23825664818286896,0.3647463917732239,-0.37473154067993164,-0.021611839532852173,-0.08280805498361588,-0.1698429137468338,0.23895595967769623,0.19052650034427643,0.003625249257311225
-0.5198817849159241,0.2894543409347534,-0.42551466822624207,0.5867345929145813,-0.03597487136721611,-0.14899547398090363,-0.6077276468276978,0.04894039407372475,-0.31788453459739685,-0.49632373452186584,0.07947485148906708,0.32910147309303284,-0.4072842299938202,0.23697447776794434,0.08618851006031036,0.13997353613376617,0.6049627661705017,-0.09202159941196442,0.2692277729511261,0.05490723252296448,-0.3378140926361084,-0.054385438561439514,-0.09960267692804337,-0.21034616231918335,0.2593095302581787,0.31647077202796936,-0.14476846158504486,-0.4296838343143463,-0.11389850825071335,0.16410672664642334,-0.259024441242218,-0.13132108747959137,-0.2861725389957428,0.049138955771923065,-0.1737128049135208,-0.12783901393413544,0.1364646703004837,-0.042113374918699265,0.14584650099277496,-0.08313905447721481,-0.014149963855743408,0.07318651676177979,-0.11607511341571808,0.3818041682243347,0.18646365404129028,0.35303565859794617,0.5297471880912781,0.10908230394124985,-0.14349913597106934,-0.415862113237381,0.017228079959750175,-0.5047734379768372,-0.6717971563339233,0.1727176159620285,-0.8579275608062744,0.10486695915460587,0.20887593924999237,-0.3397117257118225,0.13587814569473267,-0.04108315706253052,-0.4221869707107544,-0.0738586038351059,-0.10398680716753006,0.07210838794708252,-0.19418804347515106,0.16448988020420074,-0.2078537493944168,0.20587563514709473,0.10612863302230835,-0.3899725377559662,0.2318112999200821,0.2619945704936981,-0.02967006340622902,-0.23457199335098267,-0.000554514757823199,-0.17052195966243744,0.29380857944488525,-0.017427871003746986,0.061015784740448,-0.13950781524181366,0.4951446056365967,0.3711460530757904,-0.49384796619415283,0.23285454511642456,0.7206440567970276,0.40922436118125916,0.32426953315734863,0.3031943738460541,-0.15324775874614716,0.12946224212646484,0.22239553928375244,0.049462150782346725,-0.27898067235946655,0.717282772064209,-0.2568396031856537,0.24076418578624725,0.14045308530330658,0.15567970275878906,-0.312164843082428,0.17704908549785614,0.24742256104946136,0.2744869589805603,-0.10412795841693878,-0.2996034324169159,-0.43389245867729187,0.26493334770202637,0.32188257575035095,0.021099016070365906,-0.4535738527774811,-0.11919556558132172,-0.12418017536401749,-0.2823423147201538,0.23072396218776703,-0.6634216904640198,-0.10020836442708969,0.04751387983560562,-0.16839204728603363,-0.24334004521369934,0.129784494638443,-0.16965800523757935,0.09396696090698242,-0.05679986625909805,0.22081369161605835,0.02259853295981884,-0.13600382208824158,-0.03270767256617546,-0.2277115285396576,0.12515735626220703,-0.7254502773284912,0.04046482965350151,-0.05318506434559822,-0.1519128382205963,-0.23781833052635193,0.07404719293117523,-0.2965768277645111,0.12504690885543823,-0.06057102605700493,0.052328430116176605,0.10069521516561508
-0.6745368838310242,-0.14154629409313202,-0.3694642186164856,-0.03937170282006264,-0.001004882506094873,-0.0471922867000103,-0.14466139674186707,0.26808029413223267,-0.26484084129333496,0.10281084477901459,0.29752257466316223,-0.19064263999462128,0.12760306894779205,-0.09127921611070633,0.30287355184555054,0.15874269604682922,-0.504742443561554,0.3064444065093994,-0.6106055974960327,-0.3462611138820648,0.1535038948059082,-0.0454816073179245,-0.06889556348323822,0.05763804167509079,-0.5294055342674255,-0.0696219876408577,0.19982770085334778,0.06595452129840851,0.06370643526315689,-0.12648925185203552,0.0632251650094986,0.03186796233057976,0.1964890956878662,-0.11495944857597351,-0.028172176331281662,-0.00339411455206573,-0.19453352689743042,-0.0787912979722023,-0.16056551039218903,0.05482478439807892,0.040609151124954224,-0.062842458486557,-0.08310192078351974,0.1704195886850357,0.09781288355588913,0.09534118324518204,-0.05201363563537598,0.3117927014827728,-0.2591148018836975,-0.3380894362926483,0.7739230990409851,-0.1696181744337082,0.888064444065094,1.0186253786087036,-0.2068144530057907,-0.011892198584973812,-0.0746740996837616,0.040198955684900284,-0.32723984122276306,-0.006366911809891462,0.018289342522621155,-0.09493027627468109,0.023195793852210045,-0.0439046248793602,-0.10768202692270279,-0.03193308040499687,-0.013712593354284763,-0.1941499561071396,0.024565719068050385,-0.22734788060188293,-0.09021411091089249,-0.05041209235787392,0.004992196802049875,0.14778952300548553,0.010319730266928673,-0.07292859256267548,0.0986260250210762,-0.14601553976535797,-0.10530974715948105,-0.08907648175954819,-0.7651993632316589,0.25904369354248047,-0.5788538455963135,-0.5801166296005249,0.1457527130842209,-0.10201580077409744,-0.45251527428627014,0.23953081667423248,-0.3618289530277252,0.006763579323887825,-0.009408799931406975,-0.11361057311296463,0.024225063621997833,0.35866400599479675,0.22865572571754456,0.17728203535079956,-0.41372185945510864,-0.22664791345596313,0.18068239092826843,-0.08917468041181564,0.09713970869779587,0.16493386030197144,-0.282198965549469,0.3730929493904114,0.3523813486099243,0.09320957213640213,0.15429344773292542,0.02345302887260914,-0.3213002681732178,0.20899562537670135,0.22135856747627258,0.03860463201999664,0.05855715647339821,0.07336539775133133,0.10031339526176453,-0.14720648527145386,0.14434385299682617,-0.056766875088214874,0.058382146060466766,0.10413570702075958,0.11825590580701828,0.03741839900612831,0.1279902160167694,0.23167836666107178,0.19811326265335083,0.2020399272441864,-0.09487650543451309,0.08484599739313126,0.17570562660694122,0.05679323896765709,-0.1390959918498993,0.20091982185840607,-0.021116862073540688,-0.05789284408092499,0.059902794659137726,0.03582907095551491,0.044804058969020844,0.06806060671806335,0.1875847429037094
-0.0917869284749031,-0.012684032320976257,0.014014752581715584,-0.02985208109021187,-0.21192410588264465,0.09839566051959991,-0.1454530507326126,-0.16979877650737762,0.12262581288814545,-0.33253639936447144,-0.7593901753425598,-0.22287617623806,-0.45623987913131714,-0.1972149759531021,-0.017037492245435715,0.45435500144958496,0.13785257935523987,0.12823061645030975,-0.6398574709892273,-0.24332335591316223,-0.5229058265686035,0.05041798576712608,0.08982034027576447,-0.5736730098724365,-0.29666808247566223,0.04025694727897644,0.10074210166931152,0.09044763445854187,0.012108908966183662,0.15787962079048157,-0.2390037328004837,0.0798599123954773,-0.06464440375566483,0.018868079409003258,0.15441863238811493,-0.13533399999141693,-0.18653704226016998,-0.15445345640182495,-0.0795850157737732,0.06617970764636993,0.0550367534160614,0.19023466110229492,0.028171813115477562,-0.17219755053520203,-0.1665685623884201,-0.1860329508781433,0.12761487066745758,-0.09255288541316986,0.17076432704925537,0.3988424241542816,0.947714626789093,-0.06673765182495117,0.9043353796005249,-0.18803246319293976,1.3241533041000366,-0.03499584272503853,-0.17543406784534454,0.1688973307609558,0.11570487916469574,0.02553701214492321,-0.2754743695259094,-0.009002559818327427,0.01765839196741581,-0.15939536690711975,-0.05005139112472534,0.23746003210544586,-0.052912287414073944,-0.1856687068939209,0.08374056220054626,0.018909772858023643,0.011246105656027794,0.09512844681739807,-0.08316942304372787,-0.05959932133555412,-0.004791018553078175,-0.029082240536808968,-0.019353272393345833,-0.0431155189871788,-0.27794015407562256,-0.0815495103597641,-0.889079213142395,0.24061234295368195,-0.6126877069473267,-0.19097892940044403,-0.6108631491661072,0.12848590314388275,-0.1747826337814331,0.4511929154396057,0.013058863580226898,-0.22548826038837433,-0.36072230339050293,-0.02420053258538246,0.1731005311012268,0.11693114042282104,0.03616723418235779,0.06540016084909439,-0.07526034116744995,-0.0922737866640091,0.15725062787532806,-0.13425017893314362,-0.12955453991889954,-0.026549501344561577,0.3254966735839844,0.3157123327255249,0.0793890729546547,-0.4211675822734833,-0.02445957623422146,-0.09876619279384613,-0.02605697326362133,-0.47225746512413025,-0.1773909330368042,-0.0289556123316288,0.24645473062992096,0.0108078857883811,0.20556223392486572,0.20534177124500275,-0.13552401959896088,0.13054315745830536,0.102058045566082,0.11085263639688492,-0.042247094213962555,0.009421342983841896,0.3102799952030182,-0.008083081804215908,-0.45831072330474854,0.021924838423728943,-0.08045582473278046,0.24008168280124664,0.12701526284217834,0.19052696228027344,0.17066214978694916,0.049780964851379395,0.13305743038654327,0.07186980545520782,0.05971642583608627,-0.12767498195171356,0.038491204380989075,0.3828025162220001,0.0012844507582485676
-0.02789621241390705,0.6541363000869751,0.10626431554555893,0.28515514731407166,0.027307869866490364,0.04539460316300392,-0.055696841329336166,0.43177059292793274,-0.09671927243471146,0.24100102484226227,-0.2840457260608673,-0.3117935359477997,0.03394715487957001,-0.19397933781147003,-0.19930723309516907,0.1145978718996048,0.23462742567062378,0.41326260566711426,-0.2798502445220947,-0.21265210211277008,-0.2470380961894989,-0.11332108825445175,-0.13534794747829437,0.16250450909137726,-0.11635032296180725,-0.0498107448220253,0.33034732937812805,0.20640723407268524,-0.040410879999399185,0.3636031746864319,-0.3348175585269928,0.41468346118927,0.10891260951757431,0.5466774106025696,0.17904894053936005,0.05029342696070671,0.03680483251810074,0.009973157197237015,-0.12414436042308807,-0.07419431209564209,0.12796080112457275,0.2719460427761078,-0.08952832967042923,-0.308181494474411,-0.32495591044425964,-0.26012077927589417,-0.0667598694562912,-0.20751772820949554,0.493222713470459,-0.687542736530304,-0.46670830249786377,-0.4001275599002838,-0.06991525739431381,-0.5012556910514832,0.7092517018318176,-0.07258448749780655,-0.15820330381393433,0.19462457299232483,0.08543852716684341,-0.11506491154432297,0.21411354839801788,-0.14188750088214874,-0.04094735160470009,-0.15036119520664215,0.19411903619766235,0.1818813532590866,-0.07414436340332031,-0.16098378598690033,0.14703282713890076,0.034529056400060654,0.23985010385513306,0.10797113925218582,0.21388621628284454,-0.19653895497322083,-0.011667816899716854,0.021263577044010162,0.4813525676727295,0.05801058188080788,-0.09830228984355927,0.05562285706400871,0.27162590622901917,0.1349748820066452,0.09116030484437943,0.25271278619766235,-0.01348500419408083,0.17885087430477142,0.26196804642677307,0.5304781198501587,-0.38808515667915344,-0.13413891196250916,0.0825028270483017,0.21509256958961487,-0.025657763704657555,0.2564150393009186,-0.28805285692214966,-0.11392912268638611,-0.01544337160885334,0.25689178705215454,0.1944306492805481,0.22961711883544922,-0.056233134120702744,-0.0261679757386446,0.08216816186904907,0.3875516653060913,0.013250167481601238,0.11005216091871262,0.1550164669752121,0.1394316554069519,-0.09393825381994247,-0.10460782796144485,0.23588399589061737,0.030055586248636246,-0.18399079144001007,-0.29839271306991577,-0.11423526704311371,0.047111447900533676,-0.04552173987030983,0.1559235155582428,-0.2712971568107605,0.11645281314849854,0.09427510201931,0.06070805341005325,-0.2017727494239807,0.16578730940818787,-0.08279521018266678,0.24177104234695435,-0.036996375769376755,-0.16452206671237946,-0.209255188703537,-0.1616906076669693,0.0706271156668663,-0.0391717292368412,0.012768207117915154,-0.19346508383750916,0.17437823116779327,-0.010177684016525745,0.053883325308561325,-0.09711717814207077,0.15327803790569305
0.36620619893074036,-0.11980276554822922,0.21471649408340454,-0.07495927065610886,0.16225272417068481,-0.018413111567497253,0.5598593950271606,-0.3031105697154999,0.39985591173171997,-0.02660747990012169,0.1518074870109558,0.07267666608095169,0.008235787972807884,-0.02864702418446541,-0.3573662042617798,0.581756591796875,-0.05129792168736458,-0.1997561752796173,-0.6824138760566711,-0.15969201922416687,0.17928338050842285,-0.3227337598800659,0.042804766446352005,-0.04277284815907478,-0.11500812321901321,-0.15836508572101593,0.027171624824404716,-0.040528178215026855,0.061275627464056015,0.07816635072231293,-0.10209061205387115,0.13762526214122772,0.07991866022348404,0.23204545676708221,0.11930269002914429,-0.00022111581347417086,-0.045669637620449066,0.04840957373380661,0.2062472403049469,0.00074732955545187,0.1213022917509079,0.05236145481467247,-0.09806177765130997,-0.41299179196357727,-0.2994614243507385,0.36216598749160767,0.15390242636203766,-0.0912216305732727,0.40956100821495056,0.20936636626720428,-0.7407090067863464,1.1104365587234497,0.35362204909324646,-0.18952976167201996,0.28159523010253906,0.24116824567317963,-0.3558374047279358,0.1865077018737793,0.04947196692228317,0.21710439026355743,0.038750819861888885,0.26211002469062805,-0.018343394622206688,-0.075596384704113,-0.18468277156352997,0.10712453722953796,-0.03053472936153412,-0.054336611181497574,0.05132628232240677,-0.04313432797789574,-0.12091469019651413,-0.02161981910467148,-0.12410235404968262,0.15917594730854034,0.11251021921634674,0.03558924049139023,0.08627381175756454,0.14687757194042206,0.03658682852983475,-0.23536144196987152,0.06581321358680725,-0.7342324256896973,0.06771798431873322,0.3405907154083252,-0.2375636100769043,0.37678810954093933,0.031000537797808647,-0.23470009863376617,0.18027541041374207,-0.05036444216966629,-0.027074050158262253,0.22252339124679565,0.19930993020534515,-0.2996346652507782,-0.2316180169582367,-0.08982892334461212,0.09348355233669281,-0.26293519139289856,0.021574044600129128,-0.03070726804435253,-0.04061393439769745,-0.24327461421489716,-0.005213476717472076,-0.1358107477426529,-0.019091790542006493,-0.12435747683048248,-0.08876786381006241,-0.23127146065235138,0.04915723204612732,0.3470092713832855,-0.29977521300315857,0.008381920866668224,-0.4318249523639679,0.06718649715185165,0.0233139768242836,0.014950864017009735,-0.2634917199611664,0.13661600649356842,-0.1524309664964676,-0.03647170960903168,0.12356273829936981,-0.21542294323444366,0.2039874643087387,0.18911631405353546,0.4106164276599884,-0.2100965529680252,-0.13620683550834656,-0.3560282588005066,0.010601500980556011,0.01585240662097931,0.15059731900691986,-0.13258758187294006,0.09098752588033676,-0.15470413863658905,-0.06905318051576614,0.07511202245950699,-0.042636629194021225,0.1106746718287468,0.062491558492183685
0.18288026750087738,-0.8426129817962646,-0.1958404928445816,-0.30000531673431396,0.039818670600652695,0.9005061388015747,0.16508805751800537,-0.6147274374961853,0.2556511461734772,-0.060667235404253006,-0.4055425822734833,-0.33787626028060913,-0.01909826137125492,-0.35325250029563904,-0.23155736923217773,0.029247228056192398,0.05379575490951538,-0.0781363770365715,0.15178708732128143,-0.07943034172058105,-0.361122727394104,-0.23037588596343994,0.1439850926399231,0.04668683931231499,0.1434146910905838,0.16105449199676514,-0.24855586886405945,-0.39153701066970825,-0.278226375579834,0.012653921730816364,-0.01071762666106224,0.07121150940656662,-0.09874743968248367,0.1818438321352005,-0.34016484022140503,-0.08797790110111237,-0.07033133506774902,-0.22065240144729614,0.2980314791202545,-0.16081778705120087,0.2952013909816742,-0.0933016985654831,-0.18548645079135895,-0.35094645619392395,-0.04109663888812065,0.1719268262386322,0.6721855401992798,-0.20106473565101624,-0.12722419202327728,-0.8515481352806091,0.10909555852413177,0.5531564950942993,0.03228817507624626,-0.555938720703125,0.5612753629684448,-0.042730435729026794,-0.01571352407336235,-0.1579246073961258,0.40372321009635925,-0.27031224966049194,-0.019468525424599648,0.2636910080909729,-0.214841827750206,-0.059752415865659714,0.11908040195703506,-0.29275983572006226,-0.08099567145109177,0.16357950866222382,-0.05418485030531883,0.10762269049882889,0.01111797709017992,0.096841961145401,-0.017810719087719917,0.08151407539844513,-0.1094760075211525,-0.05663758143782616,0.16479791700839996,-0.21432872116565704,-0.1145755872130394,0.29272890090942383,-0.14910267293453217,-0.35877054929733276,0.11333660036325455,0.11833222210407257,0.0209379680454731,0.1313856840133667,0.23204125463962555,-0.3547697365283966,0.30853569507598877,0.2586061954498291,-0.09408032149076462,0.1995999664068222,-0.17072026431560516,-0.28712931275367737,-0.1905493140220642,0.26289865374565125,-0.08067801594734192,-0.012676404789090157,-0.1018560603260994,0.10618235915899277,-0.05030056834220886,0.24551750719547272,-0.07300116121768951,-0.5710593461990356,-0.18589480221271515,0.313731849193573,0.11109541356563568,-0.009753952734172344,-0.24229742586612701,-0.13374175131320953,-0.2007274627685547,-0.3449447453022003,0.11945764720439911,0.20675978064537048,0.04349764436483383,0.12634243071079254,0.022386427968740463,0.15407121181488037,0.08893848210573196,0.021209390833973885,0.10776449739933014,-0.05555730685591698,-0.42885449528694153,-0.21255363523960114,-0.15216222405433655,-0.19018439948558807,-0.3790121376514435,0.16918544471263885,0.3027951121330261,-0.004653575364500284,0.07673037052154541,-0.031186271458864212,0.055062681436538696,0.20942901074886322,-0.03960771858692169,0.032202355563640594,-0.04236915707588196,-0.41651520133018494,-0.13547834753990173
0.23961564898490906,-0.8149391412734985,-0.14116987586021423,0.256716787815094,0.01676196977496147,0.013411469757556915,0.4258005619049072,0.19177256524562836,-0.07501742988824844,0.19905459880828857,-0.26520705223083496,0.14014366269111633,-0.25387170910835266,0.020498735830187798,-0.09340325742959976,-0.06102029234170914,0.38107505440711975,-0.2542330026626587,0.6077720522880554,1.1750624179840088,-0.9619956016540527,0.0013970264699310064,-0.06430704891681671,0.24761590361595154,0.00021323941473383456,0.24748913943767548,-0.035538215190172195,0.12527930736541748,-0.23720410466194153,0.17558816075325012,0.047198109328746796,0.0796438530087471,-0.29201966524124146,-0.1854570209980011,0.2804315388202667,-0.2949783504009247,-0.1331491470336914,-0.0206002127379179,0.09955838322639465,0.7787561416625977,-0.25399523973464966,0.576949417591095,0.07621689140796661,0.025865482166409492,-0.1183476373553276,0.052902933210134506,0.47695645689964294,0.19357241690158844,0.4267573058605194,-0.5799741148948669,-0.043644506484270096,0.30844834446907043,-0.12123532593250275,-0.11237070709466934,-0.18170715868473053,0.07083314657211304,-0.002538440516218543,-0.024385737255215645,-0.055073678493499756,-0.11723386496305466,-0.2904864549636841,-0.3076009750366211,0.12207788974046707,0.0937865823507309,0.1995450109243393,0.10972116887569427,0.040174826979637146,-0.003105119103565812,0.20391210913658142,-0.04192250594496727,0.06365630775690079,0.047489017248153687,0.16130727529525757,0.04665239155292511,-0.005975585430860519,-0.12087845802307129,0.0060136448591947556,0.08960740268230438,0.18451815843582153,0.0849483385682106,0.6935931444168091,-0.3121699094772339,-0.011616718955338001,-0.07770921289920807,-0.4783279597759247,0.3825729191303253,0.16579318046569824,-0.1776004433631897,-0.07811497896909714,-0.028600391000509262,-0.2086065113544464,-0.04373374208807945,0.18342673778533936,-0.13207919895648956,0.26946136355400085,0.032613616436719894,-0.04847593978047371,0.24501512944698334,-0.11321156471967697,-0.21465028822422028,0.09936124831438065,-0.2916666567325592,0.12769445776939392,0.05984874069690704,-0.152685284614563,-0.1517903208732605,0.00630866177380085,-0.065898098051548,0.05238084867596626,0.13266165554523468,0.4802376627922058,-0.1581876277923584,-0.22812864184379578,-0.05939827859401703,0.227693110704422,0.18023303151130676,-0.04144836962223053,-0.05633930861949921,0.28148549795150757,-0.39490780234336853,0.007264391984790564,0.22571389377117157,0.13822181522846222,-0.15672039985656738,0.2617027461528778,0.46846404671669006,-0.13352636992931366,-0.2602318823337555,-0.15456323325634003,0.17820267379283905,0.19914497435092926,-0.04635150730609894,-0.02510843425989151,0.17333906888961792,-0.23387350142002106,0.01711941510438919,0.28091010451316833,0.07692514359951019,-0.17093075811862946
0.11910071969032288,0.5659663677215576,-0.24504388868808746,0.12726251780986786,0.29447200894355774,0.3122175931930542,-0.3531271815299988,-0.22712011635303497,0.2929476499557495,-0.49899882078170776,0.17149785161018372,0.010125355795025826,0.010239084251224995,0.0018860244890674949,-0.2644089162349701,0.349943071603775,-0.5466763377189636,-0.20915602147579193,-0.42136135697364807,0.08696890622377396,0.24215444922447205,-0.3000484108924866,0.24381579458713531,0.09783722460269928,-0.36928749084472656,-0.2173878252506256,-0.05525203049182892,0.39285728335380554,-0.3911903500556946,0.21463808417320251,-0.4217611253261566,0.007058481685817242,-0.8597493171691895,0.012932132929563522,-0.3910468518733978,-0.38299527764320374,0.15883375704288483,-0.08780543506145477,-0.22671322524547577,-0.0037014198023825884,-0.2530127465724945,-0.18209855258464813,-0.27880367636680603,0.3279460072517395,0.1689911186695099,-0.38359472155570984,-0.4512072205543518,-0.4048784077167511,-0.33830851316452026,-0.0477934256196022,0.29655322432518005,-0.3618612587451935,-0.5015906691551208,0.040603507310152054,0.5154684782028198,-0.29919347167015076,-0.017806120216846466,0.05008455365896225,-0.3293153941631317,0.13568028807640076,0.332742303609848,-0.07926283031702042,0.12764890491962433,0.030009513720870018,-0.16649849712848663,0.16753584146499634,-0.11643525213003159,0.015955328941345215,0.24318528175354004,-0.04424271360039711,0.21141770482063293,0.012058495543897152,0.23842018842697144,0.1352580040693283,-0.1139051616191864,0.04841343313455582,-0.3258962631225586,-0.007996698841452599,0.06755077838897705,-0.25837334990501404,-0.27713343501091003,0.0503142774105072,0.21753354370594025,-0.3356713056564331,-0.3854179382324219,-0.5360113382339478,-0.056910596787929535,0.2836339771747589,0.3684133291244507,0.08398064225912094,-0.21819566190242767,-0.19864700734615326,-0.00374634750187397,0.15046995878219604,0.16566793620586395,0.0380399227142334,-0.4035571217536926,0.5305675268173218,-0.07292833924293518,0.0122427549213171,0.17121563851833344,-0.06108959764242172,0.2194238007068634,0.3059779107570648,-0.34423860907554626,-0.23670193552970886,-0.7079996466636658,0.10794313997030258,0.27027103304862976,-0.14116089046001434,-0.45918378233909607,-0.09291386604309082,0.020088018849492073,0.24327191710472107,0.0692133754491806,-0.06295402348041534,-0.2758627235889435,0.03661561757326126,-0.08424648642539978,-0.2263534516096115,-0.27002400159835815,0.15754957497119904,0.14055532217025757,-0.23207242786884308,-0.11874114722013474,-0.2889370620250702,-0.08323577791452408,-0.03177529573440552,0.42594653367996216,0.09857449680566788,-0.04642486944794655,-0.37524715065956116,0.03869852051138878,0.01385946199297905,-0.19302427768707275,-0.18752992153167725,0.17472127079963684,0.09036064147949219,-0.19749708473682404
-0.6481953859329224,0.35709062218666077,0.2846488952636719,-0.4138966202735901,-0.12529809772968292,0.5583754777908325,0.3122937083244324,-0.2646065950393677,-0.12031687051057816,-0.12674911320209503,-0.2838424742221832,0.04281303286552429,-0.3310137689113617,0.17637714743614197,0.022654792293906212,0.7682772874832153,-0.6754541397094727,-0.3129623532295227,0.7331382632255554,-0.3342750668525696,-0.08282306045293808,-0.4138558506965637,0.31522464752197266,0.055797796696424484,0.3271191120147705,0.3915930986404419,0.21381676197052002,0.611290454864502,-0.12772347033023834,-0.09387637674808502,-0.03524966537952423,-0.1402577906847,0.2812463641166687,-0.12355171144008636,-0.0859285518527031,0.14080114662647247,-0.10207756608724594,-0.1022845134139061,0.009577807039022446,-0.20462408661842346,-0.12433274835348129,-0.3353160619735718,0.06884461641311646,-0.14238737523555756,0.20651763677597046,-0.13109254837036133,-0.19450366497039795,-0.18093879520893097,-0.2450721114873886,-0.25762179493904114,-0.2523149251937866,-0.08264773339033127,-0.5984047055244446,0.49387431144714355,0.24026447534561157,0.03108048439025879,-0.1468040645122528,-0.0021127560175955296,0.05022985860705376,0.014639508910477161,-0.1289720982313156,0.1763918399810791,-0.012466950342059135,0.14662325382232666,0.0021877174731343985,-0.10333282500505447,0.0049872188828885555,-0.015324934385716915,0.03854553401470184,0.060736723244190216,0.1020326167345047,-0.39259833097457886,0.04437872767448425,-0.07778630405664444,-0.13200639188289642,-0.04906969144940376,-0.21975943446159363,0.015212517231702805,0.1630062758922577,-0.11563443392515182,0.7796705961227417,0.06120189279317856,0.29511111974716187,0.07965736091136932,0.15574494004249573,-0.20341002941131592,0.008342995308339596,0.07184699177742004,0.16159655153751373,0.15689031779766083,-0.25365766882896423,0.37525659799575806,-0.08736259490251541,0.08063343912363052,0.03162810206413269,0.3293733596801758,-0.17226293683052063,0.27596479654312134,0.12957046926021576,0.08066180348396301,0.08175762742757797,-0.0427313931286335,0.1945817619562149,0.03120935894548893,0.03138035535812378,-0.12882556021213531,-0.3445472717285156,0.33862727880477905,0.27245602011680603,0.013728620484471321,-0.39536067843437195,0.0716983750462532,-0.07356865704059601,-0.21190211176872253,0.07309185713529587,-0.08691485971212387,-0.054239917546510696,0.13286139070987701,0.11508852243423462,-0.32084694504737854,-0.027794277295470238,0.4379015266895294,-0.37720146775245667,0.06044509634375572,-0.10409827530384064,-0.48822134733200073,0.014933624304831028,-0.06562664359807968,-0.3316679894924164,-0.03637195751070976,-0.071917325258255,-0.16354559361934662,0.0913274958729744,0.11933263391256332,-0.43070492148399353,-0.008585593663156033,0.5229929685592651,-0.4138507544994354,0.07984218746423721
0.2737393379211426,-0.8166533708572388,-0.1311543583869934,0.04629965499043465,-0.03727409243583679,-0.056433532387018204,0.47176581621170044,-0.3398585319519043,0.3127809762954712,0.137239009141922,0.4912536144256592,-0.03320695832371712,0.14346487820148468,-0.0578986331820488,-0.674035906791687,0.16953136026859283,0.00981466006487608,0.18435736000537872,-0.4795635938644409,0.17792260646820068,0.42560645937919617,-0.03685396537184715,-0.12289169430732727,-0.40386050939559937,-0.2466583102941513,0.24952879548072815,-0.4197162687778473,-0.2631559371948242,0.2161710113286972,-0.2624698579311371,-0.297905296087265,-0.02427590638399124,-0.4146346151828766,0.1716291308403015,-0.32672086358070374,-0.3734752833843231,-0.13039399683475494,0.40423381328582764,0.19894982874393463,0.30593833327293396,0.08498432487249374,0.11800120770931244,0.053248416632413864,-0.22146493196487427,0.1122017651796341,0.26852768659591675,0.05335891246795654,0.1396145075559616,-0.29497984051704407,-0.19037701189517975,0.3837619423866272,0.11323397606611252,-0.059036921709775925,0.06158087030053139,0.42064252495765686,-0.3470042943954468,0.2235080599784851,0.18059539794921875,-0.15676474571228027,0.012912830337882042,-0.3046017289161682,-0.3806006908416748,-0.0657542422413826,-0.1584026962518692,-0.010889860801398754,0.18420329689979553,-0.22673538327217102,-0.4133008122444153,0.04440311715006828,0.24041403830051422,0.08892031013965607,-0.12204810976982117,-0.618868350982666,-0.48412683606147766,0.36527207493782043,0.21571661531925201,0.06673362106084824,-0.0511820912361145,-0.1243983656167984,0.41535893082618713,0.02442385070025921,-0.3981603980064392,-0.42990875244140625,-0.03462665528059006,0.4839751422405243,0.21395495533943176,0.25602662563323975,0.17490942776203156,-0.20470678806304932,-0.023434912785887718,-0.07105360180139542,0.19120775163173676,-0.3635435998439789,-0.10593622177839279,-0.2900039553642273,0.16463445127010345,0.03966519609093666,0.3056964874267578,-0.2857886552810669,0.17096759378910065,-0.2031705528497696,-0.477256178855896,-0.31883642077445984,0.0664660632610321,0.20374037325382233,-0.08374493569135666,0.026255449280142784,-0.3382001221179962,0.13609080016613007,0.40920689702033997,0.10921289771795273,0.014508605003356934,0.14908075332641602,0.04664419963955879,-0.08110100775957108,-0.23036864399909973,0.427655428647995,-0.23823969066143036,-0.5942795872688293,-0.3404848277568817,-0.2175964117050171,-0.42988717555999756,0.13041993975639343,0.08928101509809494,0.3513525724411011,0.08389957249164581,0.07155481725931168,0.09258168190717697,-0.008078460581600666,-0.19316700100898743,-0.23113612830638885,0.4581630229949951,-0.20744292438030243,-0.5553035736083984,-0.3217857778072357,-0.19539934396743774,-0.4896277189254761,0.23164112865924835,0.092400461435318
-0.49485766887664795,-0.6887598633766174,-1.2161848545074463,-0.48794424533843994,-0.22286534309387207,0.42828959226608276,-0.653885543346405,-0.7464760541915894,-0.04984043911099434,0.179716557264328,-0.05565448850393295,0.23415102064609528,0.3283625543117523,0.2363782823085785,-0.026138626039028168,0.43774062395095825,0.3004075884819031,-0.14120200276374817,-0.5612789392471313,-0.03311871364712715,0.15364094078540802,-0.2995814383029938,0.29890385270118713,-0.2693016827106476,0.40368276834487915,-0.18986524641513824,0.5744078755378723,0.13530559837818146,-0.1633773297071457,0.009641241282224655,-0.19551341235637665,0.29568690061569214,0.8478527069091797,0.5709089636802673,0.24489594995975494,0.05321788415312767,0.09337657690048218,-0.5205399394035339,0.13157832622528076,0.46974891424179077,0.47094711661338806,-0.5114060044288635,0.13616301119327545,0.15647336840629578,-0.5575519800186157,0.07323974370956421,0.8068572282791138,0.8759879469871521,-0.24300488829612732,0.004264782182872295,0.12130506336688995,0.026933705434203148,0.3487286865711212,-0.31709760427474976,0.1605473756790161,0.22334091365337372,-0.21930542588233948,0.212558776140213,-0.03985588625073433,0.06947138905525208,-0.10330892354249954,0.08296682685613632,0.017721211537718773,0.18608251214027405,0.31306758522987366,0.03259054571390152,-0.3609124720096588,-0.36294201016426086,0.27891963720321655,-0.10152532905340195,-0.2657952308654785,-0.4671531021595001,-0.1930834949016571,-0.15578696131706238,-0.1777358204126358,-0.11764580756425858,0.33242684602737427,-0.35548344254493713,-0.3552916347980499,-0.1681954711675644,0.20856525003910065,0.4146605134010315,-0.11561527103185654,-0.12301603704690933,0.08016237616539001,-0.45811301469802856,-0.2750595211982727,-0.18371601402759552,-0.3719228506088257,0.4083096385002136,-0.29307615756988525,-0.15594562888145447,-0.16371744871139526,0.08687207847833633,0.3292640447616577,0.43762803077697754,-0.08043354004621506,-0.16946254670619965,-0.07234695553779602,0.12099716067314148,-0.010825105011463165,-0.03484625741839409,0.034128542989492416,0.1760442852973938,-0.19940504431724548,-0.29864299297332764,0.6168206334114075,-0.15179318189620972,0.23369531333446503,-0.013050447218120098,-0.09881766885519028,-0.16181287169456482,-0.3990740180015564,-0.04167867451906204,-0.20509889721870422,-0.014401542954146862,-0.1064491868019104,-0.17118434607982635,-0.30131372809410095,-0.39374926686286926,-0.18045248091220856,-0.5215136408805847,0.19595597684383392,-0.1921609342098236,0.03167553246021271,0.03587857261300087,-0.17968668043613434,-0.2477090209722519,0.12126433104276657,-0.19254669547080994,0.010864455252885818,-0.09349854290485382,-0.18862833082675934,-0.25427091121673584,-0.25951263308525085,-0.2469845861196518,-0.5807676911354065,0.12937141954898834,-0.18263643980026245
-0.32720425724983215,-0.6445444822311401,-0.33960869908332825,0.11174694448709488,-0.19044892489910126,0.6576738953590393,0.5597800016403198,-0.40034717321395874,0.34408074617385864,0.16448462009429932,0.39453592896461487,0.2551189661026001,-0.2528814971446991,0.1986810564994812,-0.38634514808654785,0.49289533495903015,-0.4240015745162964,-0.21053235232830048,0.01875319518148899,0.16959337890148163,0.4948253333568573,-0.38748592138290405,0.13426075875759125,0.166327103972435,-0.09391994774341583,0.33818963170051575,-0.22212812304496765,0.353397011756897,-0.006836557760834694,0.07276341319084167,-0.18439163267612457,-0.22129592299461365,0.2566847503185272,-0.24222128093242645,0.1209721788764,0.04533689469099045,0.07263517379760742,0.3627828359603882,0.24213211238384247,-0.17682303488254547,0.3294382393360138,0.28338325023651123,0.10170238465070724,0.1695510894060135,0.2159935086965561,-0.0031819355208426714,-0.6226692199707031,0.35283365845680237,-0.4354002773761749,0.1405230313539505,0.6826218962669373,0.6090098023414612,-0.4270246624946594,0.018674196675419807,-0.4045460820198059,-0.1074269711971283,0.5459648370742798,0.23330916464328766,-0.3081913888454437,-0.012385367415845394,-0.10177655518054962,-0.19312331080436707,0.38309717178344727,-0.0019745733588933945,0.04528792202472687,-0.17165353894233704,0.19998228549957275,-0.22572723031044006,0.22230735421180725,-0.026302162557840347,0.18421496450901031,0.1813446283340454,0.06760347634553909,0.13600556552410126,0.19098356366157532,0.021241027861833572,0.01448665838688612,-0.20780619978904724,0.24710506200790405,0.38143232464790344,-0.19749778509140015,-0.15870916843414307,0.10120484977960587,0.476010262966156,0.2493744194507599,0.18177306652069092,-0.09991984069347382,0.3498179316520691,-0.3989391028881073,0.13525311648845673,0.07941969484090805,0.015332991257309914,0.1545848250389099,0.09626208245754242,-0.1731298863887787,0.06387051939964294,0.266672819852829,0.04686436429619789,-0.11443354189395905,0.1095106303691864,-0.24299336969852448,0.3251274824142456,0.07647376507520676,0.4155445992946625,-0.29936569929122925,-0.11344900727272034,0.016078470274806023,0.17547675967216492,0.18169350922107697,0.047194063663482666,-0.5959335565567017,-0.05002123489975929,0.14252439141273499,-0.03912666067481041,-0.05566873773932457,0.22667759656906128,0.3298868238925934,0.012579335831105709,-0.07643117010593414,0.3671096861362457,-0.023535562679171562,-0.7150768637657166,0.19763880968093872,-0.040043894201517105,-0.015506074763834476,-0.35582858324050903,-0.03160698711872101,0.10249754786491394,0.10941071808338165,-0.17766018211841583,0.10079879313707352,0.3451313078403473,-0.12790833413600922,-0.24781504273414612,0.3056265115737915,-0.07405129820108414,-0.6675314903259277,0.191523477435112,-0.04702010750770569
-0.11101771891117096,-0.16404087841510773,-0.37143826484680176,0.16805052757263184,-0.09541137516498566,-0.6440896391868591,-0.2593390643596649,-0.020961720496416092,-0.7959749698638916,0.7357195019721985,0.4155882000923157,-0.02311292476952076,-0.24062472581863403,-0.0009905312908813357,0.23729650676250458,-0.007041817530989647,0.4878285825252533,0.5056439638137817,0.17463448643684387,-0.3998716473579407,0.25441643595695496,-0.0581386499106884,0.3356872797012329,0.004263489041477442,0.15093636512756348,0.4331163167953491,-0.4146786034107208,0.17154867947101593,-0.09299594163894653,0.05648866295814514,0.5162908434867859,-0.05751427263021469,0.4426622688770294,-0.09040701389312744,0.3890356123447418,0.2951371669769287,0.294227659702301,0.4471718370914459,0.3113918900489807,0.13536971807479858,0.0064905560575425625,0.520592212677002,0.5146965384483337,0.4734499454498291,0.6541405320167542,0.22985993325710297,-0.038104649633169174,0.2622499465942383,0.12095677107572556,-0.045217715203762054,-0.19787247478961945,-0.07321447134017944,0.5001373887062073,0.7235676646232605,-0.2240714579820633,0.05358833447098732,-0.0619983933866024,-0.08263227343559265,0.01233030203729868,0.09063607454299927,0.07123377919197083,0.4046359062194824,-0.2276640683412552,0.11654246598482132,0.26557502150535583,-0.2951425313949585,0.13097578287124634,-0.034321676939725876,0.10656034201383591,-0.05828063562512398,0.21082405745983124,0.21796025335788727,0.25912463665008545,-0.27531543374061584,-0.15871833264827728,-0.18052378296852112,-0.23149317502975464,0.08737812936306,0.02641223929822445,-0.17801040410995483,0.056413933634757996,0.3474767804145813,0.4665696918964386,0.2965293824672699,-0.049372389912605286,-0.026020430028438568,-0.10006339848041534,0.25589245557785034,-0.19489169120788574,0.03688541427254677,-0.5257842540740967,0.5764893889427185,-0.4191220700740814,0.06086627021431923,-0.15974019467830658,-0.3036910891532898,-0.26081061363220215,0.3165278434753418,0.23421813547611237,0.2260754555463791,-0.04931579530239105,-0.18580742180347443,-0.038421086966991425,-0.19201965630054474,0.26179349422454834,0.12049493938684464,-0.35270532965660095,-0.12226489931344986,-0.233414426445961,-0.4253501892089844,0.13766852021217346,-0.468522310256958,0.035018280148506165,-0.2783542275428772,-0.1586650162935257,-0.37184834480285645,-0.4162444472312927,-0.0642046108841896,-0.054662611335515976,-0.4728941023349762,0.045478302985429764,-0.1329497992992401,-0.2602483034133911,-0.1451238989830017,-0.4377780854701996,0.1850806325674057,-0.4476126730442047,0.14079636335372925,-0.1919431835412979,-0.08382146805524826,-0.43729448318481445,-0.2584422826766968,-0.020754339173436165,0.045451704412698746,-0.4044067859649658,0.05876413732767105,-0.06967384368181229,-0.12177801132202148,-0.1403176635503769
-0.5615642070770264,-0.6967902183532715,-0.20862552523612976,0.11690184473991394,-0.3752846419811249,0.6320090889930725,0.28711792826652527,-0.024155698716640472,0.1867045760154724,-0.05066253989934921,-0.12163937836885452,0.06805803626775742,-0.1315516233444214,0.17831937968730927,-0.5242555737495422,-0.3864685893058777,0.5185134410858154,0.8742536306381226,0.6902618408203125,-0.2882007360458374,0.4829542636871338,0.2031053751707077,-0.2248050719499588,0.3742748200893402,0.3465346693992615,-0.15685872733592987,0.4449737071990967,-0.4019036889076233,-0.33103814721107483,-0.47701114416122437,0.08972299098968506,0.0237980205565691,0.01473111193627119,0.026186224073171616,-0.04109799489378929,0.08557730913162231,-0.28788238763809204,-0.20191964507102966,0.15963466465473175,-0.2707405090332031,0.12084909528493881,-0.36393842101097107,0.10931327193975449,-0.2879219055175781,-0.1393141895532608,-0.1340692788362503,-0.35423770546913147,-0.18776799738407135,-0.4407227337360382,-0.2771548926830292,-0.047583434730768204,-0.6801518201828003,-0.056870054453611374,0.03663821890950203,0.3617985248565674,-0.04848339036107063,-0.1603599339723587,-0.345489501953125,-0.1772414892911911,0.07194573432207108,-0.0674092173576355,-0.01841048337519169,-0.08875106275081635,-0.03738372400403023,-0.008357763290405273,-0.12318352609872818,-0.057081129401922226,-0.050225429236888885,0.00910516083240509,-0.02706339582800865,-0.13550642132759094,-0.008140112273395061,0.06549190729856491,-0.11695113778114319,0.08168545365333557,0.09956690669059753,-0.03131938353180885,0.1575365960597992,0.1418573558330536,0.7633582949638367,-0.3076079189777374,0.2608211636543274,0.6059098243713379,-0.25152748823165894,-0.23285813629627228,0.2908920347690582,0.1262761801481247,-0.04664408415555954,0.13187353312969208,0.1521197110414505,0.008223158307373524,0.0911751240491867,0.12224811315536499,0.1260557323694229,0.05344294384121895,0.11935408413410187,-0.07247839123010635,0.2233680933713913,-0.0020233069080859423,-0.20726598799228668,-0.2575666308403015,0.17858554422855377,0.16146981716156006,-0.10577012598514557,0.040602877736091614,-0.12842896580696106,-0.1363736093044281,0.45167168974876404,-0.13576865196228027,-0.036627013236284256,-0.03256727755069733,-0.00703975697979331,0.02408733405172825,0.3839268088340759,-0.21373654901981354,0.06125888600945473,0.042731449007987976,-0.15501566231250763,0.13113702833652496,0.059763144701719284,-0.06119101867079735,-0.07979607582092285,-0.07278434932231903,-0.1891864389181137,0.12042504549026489,-0.011198299936950207,0.08358758687973022,0.04747443646192551,0.3131347596645355,-0.16158245503902435,0.1317984014749527,-0.09889146685600281,-0.11159056425094604,0.09095625579357147,0.012977111153304577,-0.08573555201292038,-0.032109327614307404,-0.14372962713241577,-0.28718456625938416
-0.02079540304839611,0.05898217484354973,-0.1155235767364502,0.19550643861293793,-0.04315944388508797,-0.03368498757481575,-0.2052852362394333,-0.23090192675590515,0.40663862228393555,0.3954707384109497,0.26340600848197937,-0.1213168054819107,-0.02760114148259163,-0.05294205620884895,0.015439994633197784,-0.017381364479660988,-0.3674750328063965,-0.16495060920715332,0.8244163990020752,0.3766322433948517,-0.06207922846078873,0.11296047270298004,-0.08485772460699081,0.5629506707191467,0.3184771239757538,-0.23508866131305695,-0.22284820675849915,-0.4095197021961212,0.06878919899463654,-0.26423379778862,0.037248946726322174,-0.07610653340816498,-0.26739248633384705,0.09882893413305283,-0.06782419979572296,-0.08562461286783218,0.0009873842354863882,-0.23811385035514832,-0.06192176043987274,-0.11979510635137558,0.08416121453046799,0.030430788174271584,0.28468358516693115,0.22300472855567932,0.30815333127975464,0.06900641322135925,-0.13626736402511597,-0.1562400758266449,-0.03692760318517685,-0.3986819386482239,0.5623622536659241,-0.6537391543388367,-0.4711705446243286,0.4933590292930603,0.6460621953010559,-0.044037114828825,-0.33192798495292664,0.03331523388624191,-0.2178410440683365,0.14226019382476807,-0.012635205872356892,0.0964549109339714,-0.15980158746242523,0.1280965507030487,0.10879673808813095,-0.12259192019701004,0.07665063440799713,-0.10700928419828415,-0.12167133390903473,0.03542954847216606,0.09108369797468185,0.047418564558029175,-0.04274306818842888,0.13694420456886292,0.1160401999950409,0.04740743711590767,0.11962514370679855,0.03393436223268509,0.1143149882555008,0.10643540322780609,-0.5062429904937744,0.10543863475322723,-0.2231397032737732,-0.39695799350738525,-0.08263423293828964,0.21591044962406158,-0.2830401062965393,-0.3418540954589844,0.22654478251934052,0.0464889332652092,-0.5276262164115906,0.03741588816046715,0.07345300167798996,-0.1368199735879898,0.37771788239479065,-0.13146132230758667,-0.18630295991897583,7.013924914645031e-05,0.19952194392681122,-0.16880379617214203,0.2743166983127594,-0.02041611261665821,-0.3787298798561096,0.04555400460958481,-0.0017859874060377479,-0.5124174356460571,-0.16527336835861206,0.048396822065114975,-0.005064643453806639,-0.17722761631011963,-0.16641856729984283,-0.01914806477725506,-0.23828601837158203,0.14075125753879547,0.10777855664491653,-0.1463126540184021,-0.03061412274837494,0.06518691033124924,0.0581505224108696,0.18254895508289337,-0.06730753183364868,0.11829032748937607,0.1530546396970749,-0.0893111526966095,-0.12977848947048187,-0.33084893226623535,0.010812602937221527,-0.2766415774822235,0.0392499715089798,0.11269333958625793,-0.09703825414180756,-0.029345186427235603,0.09823600202798843,0.14875422418117523,0.14703607559204102,-0.11842720210552216,0.06958816200494766,0.11250284314155579,-0.043616510927677155
-0.3020578622817993,0.28857868909835815,0.42124098539352417,-0.1805892139673233,-0.057124748826026917,0.14551618695259094,-0.24546664953231812,-0.3702701926231384,-0.3376433253288269,-0.28005266189575195,-0.14356844127178192,-0.11370415985584259,-0.2812403440475464,-0.12476241588592529,-0.46241500973701477,0.07343820482492447,-0.2670377790927887,0.09019958972930908,0.28916212916374207,0.5173643231391907,-0.19614450633525848,-0.3805900812149048,-0.13434916734695435,0.008653164841234684,0.14279375970363617,0.2649366855621338,0.09976118057966232,0.21903319656848907,-0.5336166024208069,0.2578043043613434,0.10306423157453537,0.10609925538301468,-0.10173284262418747,-0.063408263027668,-0.03998969495296478,-0.13394726812839508,0.08505798876285553,-0.07878145575523376,-0.198958158493042,-0.33655473589897156,-0.10647951066493988,-0.11578164249658585,0.07832576334476471,0.3134323060512543,-0.274323970079422,-0.7847688794136047,0.10126104950904846,-0.11285185813903809,-0.07358184456825256,-0.49689626693725586,0.09637682884931564,-0.6360450983047485,0.4944673776626587,0.5891796946525574,-0.13517287373542786,0.031015105545520782,-0.14927013218402863,-0.16189341247081757,0.2651868462562561,0.0608767531812191,-0.20882894098758698,-0.37233075499534607,0.15931862592697144,-0.27924513816833496,0.1430145502090454,-0.12367471307516098,0.30110490322113037,-0.14016468822956085,0.051018133759498596,-0.08460941910743713,0.035777878016233444,0.11553024500608444,0.1096687987446785,0.10815269500017166,0.00684976065531373,-0.04808057099580765,0.2749288082122803,-0.23187869787216187,-0.37914010882377625,0.17792610824108124,-0.021568110212683678,0.6286302804946899,0.183872252702713,-0.47109898924827576,-0.32725831866264343,-0.09809560328722,0.015063101425766945,0.42564237117767334,0.054653942584991455,-0.2688005268573761,-0.3311876654624939,-0.2442503571510315,0.5711284279823303,-0.34484216570854187,0.13050991296768188,-0.06865484267473221,0.37535175681114197,-0.07379867136478424,0.21887561678886414,-0.2717898190021515,-0.16664692759513855,0.1785612404346466,0.4083440899848938,0.2178444266319275,-0.0797637477517128,-0.5988495349884033,-0.1640169620513916,-0.04535609111189842,0.27091312408447266,-0.017728012055158615,-0.3153779208660126,-0.043147820979356766,-0.046733930706977844,-0.0763683170080185,0.19386978447437286,-0.21076560020446777,-0.07297594845294952,-0.18592897057533264,0.021602602675557137,-0.215131938457489,-0.07109860330820084,0.34828516840934753,-0.31297919154167175,-0.07874909043312073,0.055508796125650406,-0.41107049584388733,0.021592479199171066,0.051508963108062744,-0.027897536754608154,0.1191820278763771,-0.0807737186551094,-0.08760452270507812,-0.15441250801086426,-0.02544320374727249,-0.15230050683021545,-0.15775272250175476,0.3183438777923584,-0.32846972346305847,-0.12482994049787521
-0.674298882484436,1.165329933166504,1.1414499282836914,-0.30564719438552856,-0.20780260860919952,-0.2991681396961212,-0.025381065905094147,0.2718140780925751,0.144515722990036,0.4283100664615631,0.058989498764276505,-0.2640625238418579,-0.2682977020740509,-0.21464841067790985,0.20439185202121735,0.35577380657196045,0.3749672472476959,0.11230269819498062,-0.5009087920188904,-0.5285607576370239,0.7906262874603271,0.41005268692970276,0.30100440979003906,-0.24039651453495026,-0.22278670966625214,-0.05802331864833832,-0.45515522360801697,0.1123720034956932,0.1704435795545578,0.3287090063095093,0.2754092812538147,-0.2012132704257965,-0.4742295742034912,-0.11431266367435455,0.07224203646183014,0.3734028935432434,0.09300494939088821,-0.28761550784111023,-0.09084229171276093,-0.20843389630317688,-0.25525394082069397,0.23787705600261688,0.2342519909143448,0.07919038087129593,0.15299640595912933,0.0016231919871643186,-0.3516031801700592,0.1520475447177887,-0.15054427087306976,0.28519073128700256,0.2103319764137268,0.26367995142936707,0.33658602833747864,-0.4383681118488312,0.26499295234680176,0.13442401587963104,0.07947336137294769,0.2973547577857971,0.351595401763916,0.015219430439174175,-0.036610960960388184,-0.41228151321411133,-0.2836661636829376,0.13752470910549164,-0.24458378553390503,0.24427054822444916,0.03700713813304901,0.10046839714050293,-0.06815765053033829,0.10632818192243576,-0.007861174643039703,-0.09599687159061432,-0.11414366960525513,0.1768677681684494,-0.05086208134889603,0.0275911632925272,0.1288338452577591,-0.0860377624630928,-0.013270968571305275,-0.04699399322271347,0.1800640970468521,-0.0862024649977684,-0.19492875039577484,-0.22457630932331085,0.10326921194791794,0.14527861773967743,0.0608556792140007,-0.28726035356521606,0.10411883145570755,0.15098604559898376,-0.18177345395088196,-0.48231732845306396,-0.04423148185014725,-0.2564929127693176,0.011373093351721764,0.5029041767120361,-0.16903096437454224,0.08067165315151215,0.24023106694221497,-0.011832334101200104,0.036702051758766174,0.024021632969379425,-0.13950468599796295,0.16675400733947754,-0.06016644462943077,0.023503266274929047,-0.12172624468803406,0.0028888569213449955,-0.19511142373085022,-0.2545695900917053,-0.5752667784690857,-0.3057200014591217,-0.07051783055067062,-0.09400545805692673,-0.1728154420852661,-0.019180353730916977,0.24976308643817902,-0.04760095477104187,-0.1649400144815445,0.13379551470279694,-0.1334729790687561,-0.10581635683774948,-0.19411861896514893,-0.1429578959941864,-0.19354616105556488,-0.5514111518859863,-0.4392593204975128,-0.03576444089412689,0.016285113990306854,-0.20675073564052582,-0.0005532015929929912,0.21523313224315643,-0.051958516240119934,-0.10586679726839066,0.03077997826039791,-0.13981546461582184,-0.18644103407859802,-0.10022673010826111,-0.06653472036123276
-0.5144615769386292,-0.01609009876847267,0.13019777834415436,0.22217153012752533,-0.06674238294363022,0.2528771162033081,-0.1364147812128067,-0.02031882107257843,-0.4124927520751953,0.12311381101608276,0.3606325387954712,-0.06120386719703674,-0.15227095782756805,0.00357844983227551,-0.281262069940567,0.30453309416770935,0.12345081567764282,-0.08430485427379608,-0.31965842843055725,0.1982107013463974,0.6690466403961182,0.07185491174459457,-0.10871641337871552,-0.12120010703802109,0.22461625933647156,-0.16650018095970154,0.15329624712467194,-0.04993823543190956,0.2290918231010437,0.08941489458084106,-0.05126238986849785,0.14868676662445068,0.008291967213153839,-0.08060235530138016,-0.24688288569450378,0.16691946983337402,-0.03281617537140846,-0.12074915319681168,-0.10290831327438354,-0.14082637429237366,-0.15234309434890747,0.20293377339839935,0.07966815680265427,0.059545498341321945,0.004556331783533096,0.1110789030790329,0.3166612684726715,-0.08345898985862732,0.2606933116912842,0.05631888285279274,-0.23198509216308594,0.44117873907089233,0.6014738082885742,0.1258872002363205,0.06180927902460098,0.09874944388866425,0.2942490875720978,-0.00030231563141569495,0.26584646105766296,0.1486613005399704,-0.21894259750843048,-0.034039679914712906,-0.1512482613325119,-0.11855576187372208,0.14222164452075958,-0.13140247762203217,0.03690013661980629,0.13729138672351837,-0.014509829692542553,-0.12729507684707642,-0.109602190554142,-0.280634343624115,-0.15147727727890015,0.14073123037815094,-0.007631433662027121,-0.17183364927768707,0.04903706908226013,-0.34206923842430115,-0.2667223811149597,-0.3400624394416809,-0.15202480554580688,-0.23100614547729492,-0.6639757752418518,0.1518021523952484,0.35308218002319336,-0.2209014892578125,0.23948213458061218,0.004776851274073124,-0.026953835040330887,0.27946820855140686,0.14261062443256378,-0.10169699043035507,-0.5081367492675781,0.30747270584106445,0.20884490013122559,0.030438710004091263,0.17240449786186218,0.3162783682346344,0.045303549617528915,0.14747734367847443,-0.16455140709877014,-0.13482819497585297,0.04380693659186363,0.2087186574935913,-0.1992647796869278,0.08570718765258789,-0.19370076060295105,-0.07245887815952301,-0.13716045022010803,-0.008899661712348461,0.394043505191803,-0.07946984469890594,0.0011943691642954946,0.5082926750183105,0.08641365170478821,-0.12454177439212799,0.1543806791305542,-0.08436496555805206,0.021849803626537323,-0.058588311076164246,0.014708932489156723,-0.3021198809146881,-0.012425290420651436,0.023426469415426254,-0.09888698905706406,0.5031325817108154,-0.02905252017080784,0.03679065778851509,0.4893406629562378,0.10106263309717178,-0.06691384315490723,0.1235470399260521,-0.12124238163232803,-0.05703054368495941,-0.1733686923980713,0.0301100704818964,-0.276510626077652,0.0008986436878331006,-0.0008165310136973858
-0.28166571259498596,0.6825615763664246,-0.08940090984106064,0.21678704023361206,-0.04428795725107193,-0.3436587452888489,0.0724329948425293,-0.5732876658439636,0.10586252063512802,0.2699366807937622,0.3210301399230957,-0.05929196998476982,-0.3603056073188782,-0.03016061522066593,0.1277466118335724,0.12153031677007675,0.17287088930606842,0.0788893774151802,-0.6629758477210999,0.24587920308113098,0.7040301561355591,0.01217436883598566,0.19674800336360931,-0.0038216598331928253,-0.09602321684360504,-0.1925177127122879,0.2435988336801529,0.04023905470967293,0.1820758432149887,-0.04086058586835861,0.128866046667099,-0.2575330138206482,0.015469522215425968,-0.06303951144218445,0.0018386999145150185,0.1099947914481163,-0.04082786664366722,0.31985294818878174,-0.0963013768196106,0.2433672994375229,-0.1341966837644577,-0.18457718193531036,0.11317193508148193,-0.017041847109794617,0.32125750184059143,-0.19516341388225555,-0.021568642929196358,-0.09471693634986877,-0.18698780238628387,-0.28356194496154785,0.5087060332298279,-0.06512166559696198,-0.044827621430158615,0.6967887282371521,0.596185564994812,0.17038656771183014,0.10930696129798889,-0.16526760160923004,-0.06604750454425812,0.00405339477583766,0.21887721121311188,0.030286861583590508,0.057431284338235855,0.07263396680355072,0.27023088932037354,-0.04814270883798599,-0.07626470178365707,0.021972080692648888,0.03229854255914688,-0.03261367231607437,0.042801398783922195,-0.03609085455536842,-0.03504485264420509,0.13809481263160706,0.016951870173215866,0.2757604122161865,-0.01257073413580656,-0.041167449206113815,0.10676261782646179,0.3453068435192108,-0.37490999698638916,-0.19672031700611115,-0.326075941324234,-0.23048943281173706,-0.27664339542388916,-0.06189901754260063,-0.0545203723013401,-0.30228421092033386,-0.03647236526012421,-0.30608662962913513,-0.040412500500679016,-0.3400280475616455,-0.04347115010023117,-0.1763584315776825,0.014949826523661613,-0.11919013410806656,-0.012875569984316826,-0.11956997215747833,-0.04397714138031006,0.11688306927680969,0.10306276381015778,-0.13549846410751343,0.1527954638004303,-0.08044672012329102,0.08408631384372711,0.2991320788860321,0.31380945444107056,-0.28727397322654724,0.24081535637378693,-0.09067525714635849,0.1560669243335724,-0.16633340716362,0.08013321459293365,-0.15010949969291687,-0.12896811962127686,0.1695854812860489,0.032419148832559586,0.05333820730447769,0.15025384724140167,0.02805173024535179,0.03099784627556801,0.015032267197966576,0.043548643589019775,-0.2577735185623169,-0.11403109133243561,0.20676495134830475,-0.3050059974193573,0.03747038170695305,-0.24055202305316925,-0.13505025207996368,0.20890094339847565,-0.03858514130115509,0.02210722304880619,0.15715759992599487,0.032961148768663406,0.06994205713272095,0.07170356065034866,0.012330356054008007,-0.3088337182998657
-0.8224143981933594,-1.558310627937317,0.03856462612748146,-0.37601014971733093,0.13669779896736145,-0.21414224803447723,-0.2384713590145111,0.3872218430042267,0.011162039823830128,0.12466006726026535,0.0638452097773552,0.32860055565834045,-0.18548879027366638,0.3208927810192108,0.1810895949602127,-0.01942315325140953,0.0727132260799408,0.2671588659286499,-0.12913699448108673,0.8095663785934448,-0.6575754284858704,0.11321543157100677,0.1608739048242569,0.1164618730545044,-0.11749177426099777,0.21018920838832855,-0.17109090089797974,-0.14266179502010345,-0.03886580094695091,0.00025653874035924673,0.3734422028064728,-0.11140056699514389,-0.004707861226052046,-0.2754773795604706,-0.006053701043128967,-0.1925228089094162,-0.2079090178012848,0.005152564030140638,0.4547713100910187,-0.031558603048324585,0.2156563550233841,0.16781429946422577,0.21971216797828674,-0.37777063250541687,-0.18705056607723236,0.3537297248840332,-0.14705513417720795,0.052282851189374924,0.12379229813814163,-1.4591425657272339,0.2190474271774292,-0.31630489230155945,-0.8821004033088684,0.14057554304599762,0.2958253026008606,-0.3332423269748688,-0.1683124452829361,0.050197046250104904,0.004939447157084942,-0.08115433156490326,-0.07445938140153885,0.21992386877536774,0.05778034031391144,-0.0756072998046875,0.260436475276947,-0.06872942298650742,0.017786236479878426,-0.18444904685020447,-0.12275152653455734,-0.1040116474032402,0.19792570173740387,-0.03767929598689079,-0.07280927151441574,0.03255152329802513,0.005575258284807205,-0.04472798854112625,0.15471582114696503,0.10535886883735657,-0.06050075590610504,0.7769882082939148,-0.030925754457712173,0.1569109857082367,0.49115774035453796,-0.45867353677749634,-0.41093194484710693,0.22041481733322144,-0.17271439731121063,0.07813867181539536,0.10829058289527893,-0.00794575922191143,-0.29760804772377014,0.5502458810806274,0.2781963050365448,-0.2854555547237396,0.010471630841493607,0.014659467153251171,0.15909065306186676,0.016129953786730766,-0.015719659626483917,-0.029089029878377914,-0.36288687586784363,-0.09414247423410416,-0.00464731315150857,-0.15692831575870514,0.08941072225570679,0.024646034464240074,-0.30769214034080505,0.018027860671281815,0.16396865248680115,0.41115087270736694,0.07365670055150986,-0.27038076519966125,0.1374037116765976,0.15091826021671295,-0.2944030165672302,0.04280537739396095,0.21758422255516052,0.13360098004341125,-0.4660264253616333,0.14206837117671967,-0.061804287135601044,-0.048303984105587006,0.11746976524591446,0.03405149281024933,0.31311720609664917,0.08421124517917633,-0.3233247399330139,0.1796196699142456,0.15418091416358948,-0.13921508193016052,-0.13145016133785248,0.3832772374153137,0.1391320377588272,-0.37367960810661316,0.2595565915107727,-0.13674478232860565,-0.05896793678402901,0.24005991220474243,0.013529673218727112
0.05420332029461861,-0.6331934332847595,0.717350423336029,0.17511941492557526,0.03431202098727226,-0.018363598734140396,0.049644507467746735,-0.22131404280662537,0.43487706780433655,0.037389591336250305,-0.16342848539352417,-0.2729315459728241,-0.38411688804626465,-0.27762794494628906,-0.06561493128538132,0.26071760058403015,0.3751464784145355,3.1262266635894775,0.06448739767074585,-0.2472291737794876,0.47275489568710327,-0.1013447716832161,-0.12912648916244507,0.3442455530166626,0.1840868443250656,0.030512895435094833,0.3557341396808624,0.0993756502866745,0.18425415456295013,-0.22988636791706085,-0.037975724786520004,-0.09869655221700668,0.08115975558757782,0.08146724849939346,0.2731335163116455,-0.09419833868741989,-0.09017861634492874,-0.24430428445339203,-0.16048958897590637,0.2882084250450134,0.07681963592767715,0.607205331325531,-0.16881485283374786,-0.06373847275972366,-0.03155205771327019,-0.051078617572784424,0.23546381294727325,-0.02108079381287098,0.29381629824638367,0.10299362987279892,-0.3127307593822479,0.14169058203697205,-0.31726664304733276,0.5628669857978821,0.4833263158798218,0.09717362374067307,-0.02902703732252121,-0.31332170963287354,0.1036614254117012,0.17650198936462402,0.034278515726327896,0.10400763899087906,-0.12011750787496567,-0.24231566488742828,0.31408488750457764,0.047180626541376114,0.0187943447381258,0.2130829393863678,0.00784552376717329,-0.034269168972969055,-0.02173878252506256,-0.11779177933931351,0.003927320707589388,-0.08198411017656326,-0.08203039318323135,-0.11235955357551575,0.1858932375907898,0.02230808325111866,0.12761162221431732,-0.20091944932937622,-0.3604487478733063,-0.020317740738391876,-0.1388297826051712,-0.2279129922389984,-0.1909109354019165,0.04462747648358345,0.1270088404417038,-0.13564613461494446,-0.10807601362466812,-0.36911800503730774,-0.30321836471557617,0.04191848263144493,-0.0390024371445179,0.018649980425834656,0.17558720707893372,-0.07200340926647186,-0.21481025218963623,0.18868261575698853,0.02096959389746189,0.07638983428478241,-0.08969442546367645,-0.058267708867788315,-0.2589734196662903,-0.39064455032348633,0.16882196068763733,0.11733901500701904,-0.3879193961620331,0.019984418526291847,-0.016551798209547997,-0.07511873543262482,-0.1818920373916626,0.34105679392814636,-0.23634584248065948,0.0038632655050605536,-0.10512072592973709,-0.1752728521823883,0.12965430319309235,-0.028573650866746902,0.11369849741458893,0.31603875756263733,-0.14294429123401642,0.4696316123008728,0.2110275775194168,-0.08576695621013641,-0.07445311546325684,-0.2790676951408386,0.2204723060131073,-0.2045624852180481,0.15446823835372925,0.008968203328549862,-0.15164236724376678,0.155176043510437,-0.12499198317527771,0.10849690437316895,0.40851491689682007,-0.18341770768165588,0.44671544432640076,0.09213921427726746,-0.06771285831928253
0.25679510831832886,-0.29958921670913696,-0.403412401676178,0.4574352502822876,-0.21927881240844727,-0.1516766995191574,-0.07319195568561554,0.12530437111854553,0.06076556444168091,0.34418532252311707,0.13361164927482605,0.05411473661661148,-0.41912853717803955,0.060620781034231186,0.43317481875419617,-0.2953476011753082,0.55545973777771,-0.19879131019115448,0.10245201736688614,-0.44365862011909485,0.08470801264047623,0.3729585111141205,0.056406352669000626,0.2773319482803345,-0.3490440845489502,0.3000572919845581,0.3226085603237152,0.23610439896583557,0.2709566354751587,0.11042463779449463,-0.10424947738647461,0.159849151968956,-0.07190582901239395,0.14167506992816925,-0.12573963403701782,0.28863319754600525,0.01861397549510002,0.026844946667551994,-0.10542283207178116,-0.08442547172307968,0.06711322069168091,0.1411590278148651,0.22790564596652985,-0.18917667865753174,-0.058580007404088974,0.41500189900398254,0.19707392156124115,-0.15724433958530426,-0.1944463849067688,0.32639989256858826,0.3424525558948517,0.27832528948783875,-0.16647642850875854,-0.9287589192390442,0.4231313169002533,0.1761493980884552,0.07975733280181885,0.022678744047880173,-0.14550089836120605,0.0690048560500145,-0.04244844987988472,-0.028618603944778442,0.16041666269302368,0.0959010124206543,-0.0669064149260521,-0.11637017130851746,0.2334931641817093,0.19191433489322662,0.25011321902275085,-0.037616610527038574,0.012903453782200813,-0.022794175893068314,-0.010304163210093975,-0.1723344475030899,0.03377017751336098,0.11189790815114975,-0.001590132713317871,-0.2191275954246521,-0.027291059494018555,-0.2643764913082123,-0.5991436243057251,0.00798676535487175,0.11570922285318375,0.6641144752502441,-0.6610254049301147,-0.1474018096923828,-0.31985095143318176,-0.22912068665027618,0.20435605943202972,0.5250846147537231,-0.11989989876747131,-0.28811612725257874,-0.05962993577122688,0.22149911522865295,-0.041205450892448425,-0.025655999779701233,0.0228279996663332,0.006622482091188431,-0.06789316982030869,0.14477720856666565,-0.25070303678512573,-0.2508871853351593,-0.0687720999121666,-0.012601085938513279,-0.3604700565338135,0.2926689088344574,-0.03170430287718773,-0.5052567720413208,-0.07783479243516922,-0.14427754282951355,0.24639414250850677,-0.16290344297885895,-0.03176555410027504,0.17103953659534454,-0.0865350067615509,-0.012934171594679356,-0.07231277972459793,-0.22730116546154022,-0.17598973214626312,0.1059347540140152,0.08975780755281448,0.01860099285840988,-0.157888263463974,0.002778441645205021,-0.14889298379421234,0.10663869976997375,-0.11992088705301285,-0.08948107808828354,0.03416045010089874,-0.18920552730560303,0.1324578821659088,-0.013378419913351536,-0.1198660358786583,-0.11962315440177917,0.18413974344730377,-0.0026965418364852667,-0.06383150070905685,-0.1632789820432663,-0.011254768818616867
0.18774427473545074,0.5860878825187683,-0.33543917536735535,-0.22502461075782776,-0.015587111003696918,-0.1857103556394577,-0.5347926616668701,0.10467471182346344,-0.35532933473587036,-0.02707120217382908,-0.1938735842704773,0.012156795710325241,-0.049856748431921005,-0.004613181110471487,-0.18221423029899597,0.3017357885837555,0.2758219838142395,0.08128755539655685,-0.4076939523220062,0.18488895893096924,0.7493415474891663,-0.02255331724882126,0.07029282301664352,-0.35119885206222534,0.5032126903533936,-0.06718236207962036,-0.09294810146093369,0.18200883269309998,-0.08681199699640274,0.22330714762210846,-0.06320124864578247,0.11692541837692261,0.16015011072158813,-0.1124928742647171,0.2759951651096344,-0.05133078992366791,-0.1754465252161026,-0.091610386967659,-0.0019493376603350043,-0.11230306327342987,0.05953853949904442,0.20450632274150848,-0.07635433226823807,-0.038230154663324356,-0.21941080689430237,0.028834883123636246,-0.2594493627548218,-0.1618645191192627,-0.28558632731437683,-0.3923577070236206,0.6631203293800354,-0.7288877367973328,0.22152800858020782,0.9436575770378113,-0.22378554940223694,-0.02223755232989788,0.17143654823303223,0.365217387676239,0.24496644735336304,-0.25636738538742065,0.16211573779582977,-0.18777000904083252,0.007493734825402498,0.004434485454112291,0.14158077538013458,0.09855292737483978,-0.056742358952760696,0.04444284737110138,-0.00800255499780178,0.051904331892728806,0.05504076927900314,0.12648342549800873,-0.014615815132856369,-0.12553049623966217,0.008691981434822083,-0.02218392677605152,-0.21421287953853607,0.01830029860138893,0.06507167965173721,0.5175552368164062,0.23228804767131805,0.45488420128822327,0.028574660420417786,-0.015985772013664246,-0.08748218417167664,-0.026939310133457184,0.20644457638263702,0.6127102971076965,0.09412091970443726,-0.2468346804380417,-0.0784343034029007,0.11719248443841934,-0.01032228022813797,0.09847146272659302,0.016891514882445335,-0.15409554541110992,-0.33285248279571533,0.1995476335287094,-0.06751608848571777,0.21179114282131195,-0.18546923995018005,0.018343200907111168,-0.037011753767728806,-0.07117029279470444,0.03019074723124504,-0.08263625204563141,-0.42467883229255676,-0.047390468418598175,0.06480114907026291,-0.3155719041824341,-0.28983548283576965,-0.020772535353899002,-0.17057622969150543,0.057152342051267624,0.08763126283884048,-0.1344546526670456,0.14929288625717163,-0.1826055347919464,-0.16837778687477112,0.243616983294487,-0.04855188727378845,0.16011403501033783,0.17107108235359192,0.17540021240711212,-0.16775274276733398,-0.1481829136610031,6.15691824350506e-05,-0.24211467802524567,0.17170052230358124,0.030456900596618652,-0.18526966869831085,0.2911490201950073,-0.12189053744077682,-0.1986345797777176,0.29171812534332275,-0.09188103675842285,0.08837133646011353,0.20006000995635986,0.026892967522144318
