-0.5599331259727478,0.4751902222633362,-0.34136027097702026,0.4942610263824463,-0.15577946603298187,-0.5388432145118713,-0.17249898612499237,-0.10229723155498505,-0.15438109636306763,-0.054131437093019485,-0.18136438727378845,-0.4590550363063812,-0.21772366762161255,0.4930800199508667,-0.2586486339569092,0.12694579362869263,-0.1399715095758438,-0.1274372637271881,0.28189051151275635,-0.12749533355236053,-0.13982261717319489,0.23794615268707275,0.3203584849834442,-0.03689057007431984,0.26309603452682495,-0.3544585406780243,-0.06809580326080322,-0.052319858223199844,0.1033693328499794,-0.12438970804214478,-0.01932891458272934,0.412804514169693,-0.0706622302532196,-0.16418835520744324,0.004115314222872257,-0.8140594363212585,-0.3096325695514679,0.3159726560115814,0.12125073373317719,0.2772177755832672,0.3423154056072235,-0.6372040510177612,-0.033549029380083084,-0.1867145150899887,0.27920910716056824,0.29043930768966675,-0.29803669452667236,-0.02930150367319584,-0.04881994426250458,0.11150920391082764,0.06976879388093948,0.07096714526414871,0.08676730841398239,-0.1549820899963379,-0.26626795530319214,0.21246464550495148,-0.23799583315849304,0.21479812264442444,0.23866945505142212,0.17314667999744415,-0.7467256188392639,-0.1029694676399231,-0.6369239091873169,0.12848910689353943,0.12582793831825256,-0.1565055251121521,-0.2694588899612427,-0.3242751955986023,-0.08186262100934982,-0.1562933474779129,0.11509750038385391,0.13686373829841614,-0.011174589395523071,-0.12273934483528137,0.6134253144264221,-0.09251098334789276,0.08653717488050461,0.1345258206129074,0.20477381348609924,0.23908838629722595,-0.0048858472146093845,0.33467891812324524,0.18683399260044098,-0.10303845256567001,-0.15065491199493408,0.17778973281383514,0.4689696729183197,0.12365125864744186,0.22532333433628082,-0.14694973826408386,-0.1667238175868988,-0.6095594763755798,-0.3831650912761688,-0.4253281354904175,-0.0009435738320462406,0.20320238173007965,0.23121614754199982,-0.13069681823253632,0.06646238267421722,-0.35804158449172974,-0.002305151429027319,-0.33156442642211914,-0.35125109553337097,-0.12754814326763153,-0.1327461451292038,-0.12907618284225464,0.3063914179801941,-0.10829577594995499,-0.05167599394917488,-0.700165867805481,0.3706403076648712,0.5286760926246643,0.27643775939941406,-0.1065615564584732,0.06604724377393723,0.41122967004776,-0.0869908258318901,0.5916234850883484,0.3405957520008087,-0.2600328326225281,-0.04501383379101753,0.03222678229212761,-0.05060257017612457,-0.24001207947731018,0.2595710754394531,0.24183985590934753,-0.10694534331560135,0.04031038656830788,-0.11807374656200409,-0.5524514317512512,-0.2541380822658539,-0.2787785530090332,0.1694001406431198,0.1481245458126068,-0.11684906482696533,0.2587825357913971,-0.2343396246433258,0.46236762404441833,0.00929784495383501,0.2188759744167328,0.10289575904607773,0.08245152235031128,-0.1761145293712616,-0.21708203852176666,-0.2874675691127777,-0.6864166259765625,0.22114379703998566,0.11569239944219589,0.14275425672531128,-0.33745381236076355,-0.002525758696720004,-0.4820285737514496,-0.01115500833839178,-0.17055583000183105,-0.001076470478437841,-0.26766493916511536,0.3877710700035095,-0.00021704887330997735,0.37242019176483154,0.2019362598657608,0.22176067531108856,0.24631373584270477,0.48969730734825134,0.26204055547714233,0.21107833087444305,0.17188742756843567,0.24837617576122284,0.1260930299758911,0.14742645621299744,-0.14544735848903656,-0.2155856043100357,-0.882306694984436,0.1610315442085266,0.2088155597448349,-0.3046967685222626,0.06673751026391983,-0.054456520825624466,-0.38558217883110046,-0.6738429069519043,-0.24715842306613922,-0.5664961338043213,0.15167909860610962,0.05693154036998749,0.3718312978744507,0.20705601572990417,0.22544202208518982,-0.3916440010070801,-0.48693573474884033,-0.29678308963775635,-0.31608060002326965,0.10672920942306519,0.04085805267095566,0.39176926016807556,-0.6381365060806274,-0.3848344087600708,0.5240474939346313,-0.3249134123325348,-0.3744156062602997,-0.6035301685333252,0.49830517172813416,-0.07825534045696259,-0.19651538133621216,-0.2810670733451843,-0.053249552845954895,-0.4123915731906891,0.12826557457447052,-0.21865098178386688,-0.13698917627334595,0.1967800408601761,-0.0984116867184639,-0.437090128660202,-0.015692375600337982,-0.24028752744197845,0.24347232282161713,-0.271432101726532,-0.03176189586520195,0.020231088623404503,0.12183181196451187,0.1663292795419693,-0.03580217808485031,0.12262982130050659,-0.009782974608242512,0.18438585102558136,0.2825489044189453,0.1662486046552658,-0.16389594972133636,0.3178975582122803,0.2523774802684784,0.16886042058467865,-0.010613862425088882,-0.19989408552646637,-0.31163299083709717,0.3046530783176422,-0.11083943396806717,0.009847176261246204,-0.3218141198158264,-0.1066884696483612,-0.3282015323638916,-0.5373959541320801,0.46667489409446716,0.03453758358955383,0.19899539649486542,-0.42881011962890625,-0.2762666642665863,-0.6129074096679688,0.11164378374814987,-0.104500412940979,0.2166958749294281,-0.023087352514266968,0.20656827092170715,-0.1456453502178192,0.12460671365261078,-0.039020758122205734,-0.6172894835472107,-0.40067213773727417,0.24021168053150177
-0.385635107755661,0.523222029209137,0.12845110893249512,-0.13623008131980896,-0.01688190922141075,0.052726395428180695,-0.45327436923980713,-0.5181971192359924,0.10176882147789001,-0.2198861539363861,-0.02126232348382473,0.09624036401510239,0.5790780782699585,-0.2793104648590088,-0.2139958292245865,-0.17304177582263947,0.273232638835907,0.3027125895023346,-0.3551056683063507,0.11990214884281158,0.2722401022911072,0.1502111703157425,0.0978572815656662,0.4261184632778168,-0.40658512711524963,0.0005658751470036805,-0.05732925981283188,-0.3111612796783447,0.5518086552619934,0.031846705824136734,-0.16020792722702026,0.27034512162208557,0.17200128734111786,-0.12898658215999603,-0.5850458145141602,-0.18342073261737823,0.22451481223106384,-0.3513014018535614,0.35230553150177,-0.3363706171512604,-0.15661728382110596,-0.15699470043182373,-0.09824627637863159,0.010729976929724216,0.6000630259513855,-0.4611995220184326,-0.2150041162967682,0.00606618681922555,0.1668015718460083,0.08679759502410889,-0.08592639863491058,0.20556539297103882,0.32181647419929504,-0.44675928354263306,-0.39776280522346497,0.4301079511642456,0.2627369165420532,0.10708068311214447,-0.3954840898513794,-0.3328298330307007,0.15829017758369446,0.7325316071510315,-0.2584032416343689,-0.31668955087661743,0.40266644954681396,-0.6037330031394958,-0.07830996811389923,0.4205523133277893,0.19790363311767578,0.16316324472427368,0.26048633456230164,-0.2960640788078308,-0.048581384122371674,0.021677637472748756,-0.016157247126102448,0.11203380674123764,0.4783741533756256,0.4152253568172455,-0.3742022216320038,0.062320392578840256,0.07492983341217041,-0.10530557483434677,-0.18307842314243317,0.2403322011232376,-0.31425440311431885,-0.0362660214304924,-0.19226233661174774,0.1686437577009201,-0.528831958770752,-0.12962917983531952,0.15129372477531433,0.03739163652062416,-0.17951177060604095,-0.3466542065143585,-0.6437025666236877,0.3442167639732361,-0.0074357097037136555,-0.18196234107017517,-0.36246350407600403,-0.25357893109321594,0.07479184120893478,-0.13120025396347046,-0.2412695586681366,0.2664053440093994,-0.5125322341918945,-0.07532379776239395,0.28986939787864685,-0.7385157942771912,-0.3642430603504181,-0.34611478447914124,-0.14916417002677917,0.010205777361989021,-0.2443845272064209,0.3917120695114136,0.18946443498134613,0.17473068833351135,-0.03299848735332489,-1.1604552268981934,-0.4512653648853302,-0.0015724095283076167,0.32649868726730347,-0.19884096086025238,-0.10201463103294373,-0.11736792325973511,-0.02938220091164112,0.3401447832584381,-0.2861925959587097,0.24541127681732178,0.49378126859664917,-0.25194764137268066,-0.15202878415584564,0.46651333570480347,-0.30576372146606445,-0.03407342731952667,0.09329443424940109,-0.329776406288147,-0.04185188561677933,-0.32786205410957336,0.1736052930355072,-0.19549347460269928,0.24141091108322144,-0.08176317065954208,0.48100611567497253,0.0022425733041018248,0.054527830332517624,-0.15856321156024933,-0.22943328320980072,0.15037304162979126,0.36004236340522766,0.21580061316490173,-0.21674765646457672,0.1408383697271347,0.2724778950214386,0.15526056289672852,0.18347805738449097,-0.018913187086582184,0.23961548507213593,0.06446021795272827,0.383857399225235,-0.2743980884552002,-0.27074626088142395,-0.01814311370253563,-0.031098173931241035,-0.002168016042560339,0.1395910084247589,-0.031451985239982605,0.34266793727874756,-0.10481196641921997,-0.36647361516952515,-0.11754640191793442,0.3721711337566376,-0.07611905038356781,-0.034648697823286057,-0.188233882188797,0.07583966106176376,-0.17120106518268585,-0.01445248257368803,-0.27348729968070984,-0.7366306781768799,0.1689593344926834,0.04906109720468521,0.26679980754852295,-0.13923172652721405,0.3403761088848114,0.15219540894031525,0.43366149067878723,-0.554421603679657,0.08723338693380356,0.7251241207122803,-0.043594133108854294,0.06013737991452217,0.233629047870636,-0.17427757382392883,0.08314390480518341,0.39277783036231995,0.2997531294822693,0.10243456810712814,0.1172376498579979,-0.4459403157234192,0.2020721435546875,-0.013424643315374851,-0.7035132050514221,-0.2348497360944748,0.22944651544094086,0.06262556463479996,-0.2774956226348877,0.341063529253006,0.19568413496017456,-0.1689596325159073,0.14918269217014313,0.0016606280114501715,0.25805598497390747,-0.04632873833179474,-0.05784199386835098,0.16536405682563782,-0.2396632581949234,0.010188400745391846,0.06007487326860428,0.12209800630807877,-0.031751397997140884,-0.2066471427679062,0.28048214316368103,0.05365293100476265,0.100001759827137,-0.06897830218076706,-0.12298621237277985,0.2149389237165451,-0.16510015726089478,-0.576272189617157,-0.5152872204780579,0.16378375887870789,-0.4984053671360016,-0.01633443310856819,0.13234053552150726,0.006908268667757511,0.2551003694534302,0.20151777565479279,-0.32019901275634766,-0.15020081400871277,-0.005946895107626915,0.32323193550109863,0.03939857706427574,-0.23637455701828003,0.119771309196949,-0.40518462657928467,0.028282389044761658,0.36998388171195984,0.07091812789440155,-0.4065292775630951,0.266112744808197,-0.5683541297912598,-0.2509883940219879,-0.5992550253868103,-0.32674840092658997,-0.042154062539339066,0.31226983666419983
-0.29533058404922485,-0.05354325473308563,-0.4392184317111969,-0.1035035103559494,-0.07179528474807739,-0.16591978073120117,0.11892207711935043,-0.3013191223144531,-0.35320383310317993,-0.09513163566589355,-0.355912983417511,-0.13398151099681854,0.535345733165741,0.023927908390760422,0.06970430910587311,0.09408550709486008,-0.26582127809524536,-0.008783424273133278,-0.010765490122139454,-0.02720792591571808,0.3864598870277405,0.29852983355522156,0.32226064801216125,0.08225478231906891,0.2756396532058716,0.10631845146417618,-0.1850135326385498,-0.07253251224756241,-0.15473993122577667,-0.3742765784263611,0.1707141399383545,0.024829192087054253,-0.267372727394104,-0.14462657272815704,0.26733532547950745,0.43456512689590454,-0.7882900834083557,0.24862784147262573,-0.26202431321144104,-0.44426795840263367,0.017914723604917526,-0.3033367991447449,0.5585426092147827,-0.062016285955905914,0.444225937128067,-0.3969072699546814,0.3949744701385498,-0.0879439190030098,0.09490758925676346,0.388181209564209,-0.13004401326179504,0.33099502325057983,0.28122228384017944,-0.250356525182724,-0.3597578704357147,0.051578812301158905,-0.02543749287724495,0.13069802522659302,0.32176145911216736,0.15489961206912994,0.11434418708086014,-0.20897777378559113,-0.20110970735549927,-0.20345932245254517,0.23295210301876068,0.143808051943779,0.027666211128234863,-0.3486906886100769,-0.0007275089155882597,0.1653968095779419,0.19689010083675385,-0.27579668164253235,-0.2671652138233185,-0.42237716913223267,-0.12805551290512085,-0.03244457766413689,0.001858686562627554,-0.010230056010186672,0.1500876545906067,0.14859481155872345,-0.18269823491573334,0.05409550294280052,-0.16235390305519104,0.15530283749103546,0.11078914254903793,-0.04746384546160698,-0.16314482688903809,0.11932764202356339,-0.3145073652267456,0.44209539890289307,0.01320035569369793,0.010426691733300686,-0.19506967067718506,-0.9921111464500427,0.4324491024017334,0.062003109604120255,0.021728115156292915,0.311779648065567,0.35454919934272766,-0.1894126683473587,0.4393453001976013,-0.15814664959907532,0.20517778396606445,0.2867501974105835,-0.49644172191619873,0.36969906091690063,-0.09510420262813568,0.18802912533283234,0.03993530943989754,0.08778392523527145,0.37625205516815186,0.056758470833301544,-0.42470160126686096,0.30268940329551697,-0.14273299276828766,-0.04682493582367897,-0.10412228852510452,-0.48109644651412964,-0.18371960520744324,-0.10032612085342407,0.13847628235816956,0.3098311126232147,0.33625924587249756,0.45132976770401,0.4896155595779419,-0.148143470287323,-0.02443368174135685,0.3448299765586853,0.34698599576950073,0.23396599292755127,-0.26432350277900696,-0.21042703092098236,-0.3856029808521271,0.17708992958068848,0.24270187318325043,0.07520082592964172,0.03717377781867981,-0.12457677721977234,-0.09093056619167328,-0.04733654111623764,0.28728893399238586,-0.3534742295742035,0.017170315608382225,-0.0522589273750782,0.2407391220331192,-0.09876429289579391,-0.403734028339386,-0.5531973242759705,0.36996063590049744,0.33218270540237427,0.22394244372844696,-0.5470158457756042,0.09528939425945282,-0.11037774384021759,0.15735334157943726,-0.2196395844221115,0.10411819070577621,0.2870432436466217,-0.28489720821380615,-0.18841734528541565,0.03687061369419098,0.30911901593208313,0.06889458745718002,-0.05127895250916481,-0.32806307077407837,-0.5561048984527588,-0.41549667716026306,0.01645047590136528,0.177269846200943,0.24812136590480804,-0.12356166541576385,-0.36140450835227966,0.10004745423793793,0.08025217056274414,0.06760434061288834,-0.009246768429875374,-0.3488143980503082,0.008371573872864246,0.41789692640304565,0.09973614662885666,0.45188814401626587,0.00565152196213603,-0.004387350287288427,0.0924418494105339,-0.02139674685895443,0.199834942817688,0.103960320353508,-0.16209310293197632,-0.2254566252231598,0.18728476762771606,0.0374058336019516,-0.3970790505409241,0.023663679137825966,-0.058337777853012085,0.38531574606895447,0.009553669020533562,0.38826632499694824,-0.15559254586696625,-0.8772846460342407,0.37321728467941284,0.11382081359624863,-0.2894844710826874,0.09019064903259277,0.48897644877433777,0.15497276186943054,0.05111546814441681,0.046654317528009415,-0.2116333693265915,-0.20965249836444855,0.3293769955635071,0.03505890816450119,-0.001891929074190557,0.11321331560611725,0.1946924477815628,0.03735721483826637,-0.7928905487060547,0.17313507199287415,0.3974447548389435,-0.19369640946388245,-0.031023135408759117,-0.43625715374946594,0.06735163182020187,-0.44719481468200684,0.28891727328300476,-0.16770878434181213,-0.12111888080835342,-0.7679416537284851,0.37262022495269775,-0.3170560598373413,0.14282241463661194,0.273501992225647,-0.1692919284105301,0.09711527079343796,0.5009363293647766,-0.015056257136166096,-0.600533127784729,0.0006222918746061623,0.13285303115844727,-0.48655182123184204,-0.13700371980667114,0.061994485557079315,-0.483104944229126,0.16524481773376465,-0.16991183161735535,0.0854320079088211,0.12812605500221252,-0.08555776625871658,-0.009341328404843807,0.03921977058053017,0.16827580332756042,-0.08570138365030289,-0.21022441983222961,-0.11588586866855621,0.016632048413157463,0.09348814934492111,-0.49521011114120483
0.019998347386717796,0.027760060504078865,-0.1415145993232727,-0.16883543133735657,-0.2538021504878998,-0.3421279788017273,-0.14644555747509003,-0.14751681685447693,-0.5634960532188416,0.358084112405777,-0.16855181753635406,0.0028178608044981956,-0.4759924113750458,-0.2592615485191345,0.19969147443771362,0.026785321533679962,0.10943470150232315,0.23385454714298248,-0.2987672686576843,-0.3118669092655182,-0.23160481452941895,0.13897642493247986,-0.6218425035476685,0.046137694269418716,-0.17392325401306152,0.0005711160483770072,-0.020717253908514977,0.3795402944087982,-0.3550316393375397,0.03788530081510544,-0.027941685169935226,0.3574552834033966,-0.3401016891002655,-0.019372733309864998,-0.30035290122032166,-0.3198789656162262,-0.37313395738601685,0.13678206503391266,-0.173487588763237,0.17215515673160553,-0.3623466491699219,-0.8770925998687744,0.11207057535648346,-0.1315641701221466,-0.06618517637252808,0.16998307406902313,0.4485143721103668,-0.2610923647880554,0.22811788320541382,-0.015938065946102142,-0.39294058084487915,-0.22484196722507477,-0.22246837615966797,-0.34779319167137146,0.025947580114006996,-0.04325402155518532,-0.33913150429725647,0.6233271360397339,0.09578846395015717,-0.0005573192029260099,0.1480213701725006,-0.1414112150669098,-0.10628671944141388,-0.07300622016191483,0.42046767473220825,0.3112115263938904,0.3332720398902893,0.18633069097995758,-0.08917250484228134,-0.0776543989777565,0.025254156440496445,-0.1577347218990326,-0.11287493258714676,0.5042981505393982,-0.13180360198020935,-0.5310267806053162,0.42047223448753357,-0.2644728422164917,-0.22558631002902985,0.35605719685554504,-0.027180161327123642,-0.21488970518112183,0.15844227373600006,0.37372568249702454,-0.08955810964107513,-1.0603164434432983,0.33739927411079407,0.2986670434474945,0.11393953114748001,-0.027540801092982292,0.17428144812583923,0.0038121710531413555,-0.017367670312523842,0.041315339505672455,-0.030178142711520195,0.6099491119384766,0.18692542612552643,-0.06520868837833405,-0.41400182247161865,0.19122563302516937,0.4819798469543457,-0.48427873849868774,0.06307099759578705,0.02509961649775505,0.4120838940143585,-0.06287804991006851,0.49447208642959595,-0.2142760455608368,-0.12102611362934113,0.17473439872264862,0.036931585520505905,0.11947260051965714,-0.22256284952163696,0.0726415365934372,-0.2629055976867676,-0.4449988603591919,-0.7925076484680176,0.05643990635871887,0.04252953454852104,0.003628276288509369,0.1940476894378662,-0.001945582451298833,-0.10304199159145355,-0.3803845942020416,0.12339814007282257,0.16910558938980103,0.0047059026546776295,-1.1576863527297974,-0.21910712122917175,-0.4250505268573761,0.15085381269454956,0.2744482159614563,0.20932671427726746,-0.4178147614002228,0.501858115196228,0.25539153814315796,-0.040399983525276184,0.15115560591220856,0.1927235722541809,-0.08596456050872803,-0.26317304372787476,0.03889624401926994,0.5069495439529419,-0.011731049977242947,0.044178951531648636,0.1761692613363266,-0.08743994683027267,-0.20884886384010315,0.04902255907654762,0.30002355575561523,-0.3750767409801483,0.08850190043449402,-0.11768853664398193,-0.01741059496998787,-0.30197036266326904,0.0043950374238193035,-0.06233151629567146,-0.3841806948184967,-0.2219986468553543,0.27345335483551025,0.12632346153259277,0.2393246591091156,0.1834913045167923,0.054695483297109604,0.25961098074913025,-0.1155947744846344,-0.04504461959004402,0.2428615242242813,-0.4906703531742096,0.047630954533815384,-0.2229231894016266,0.21449178457260132,-0.4567262828350067,-0.25842344760894775,0.21927861869335175,-0.14844712615013123,-0.01423629093915224,-0.03655903413891792,0.30107057094573975,0.29986488819122314,0.07035865634679794,-0.5031776428222656,0.1611023098230362,0.13389036059379578,-0.2272740751504898,0.293211966753006,-0.1633959710597992,-0.2176852971315384,-0.25348854064941406,-0.032856136560440063,-0.30644118785858154,-0.4842454493045807,-0.6533903479576111,0.22828634083271027,0.11187959462404251,0.6538661122322083,0.1263788938522339,0.1046115979552269,-0.20806114375591278,-0.11255621165037155,-0.3524303436279297,-0.0020253192633390427,-0.17867206037044525,0.4609086215496063,-0.21901947259902954,-0.6645291447639465,-0.19758853316307068,-0.13086993992328644,0.07594482600688934,-0.08909814059734344,0.10981083661317825,-0.24944113194942474,-0.43651482462882996,-0.1158638522028923,-0.20531022548675537,0.18251802027225494,0.4014756679534912,-0.5520234704017639,0.145041823387146,-0.03749607503414154,0.2362852692604065,-0.1652185618877411,0.3412172198295593,0.3661215603351593,0.2163628786802292,0.038587089627981186,-0.4027964770793915,0.24250935018062592,-0.6307559609413147,-0.18903948366641998,0.07131560146808624,-0.2979474663734436,-0.15109288692474365,-0.23798972368240356,-0.045760076493024826,0.017840102314949036,0.013620276935398579,0.3070872724056244,0.3787406384944916,0.11924341320991516,-0.03316011652350426,0.13172206282615662,0.03417377546429634,-0.02045585960149765,-0.2351059913635254,0.031123967841267586,-0.050555162131786346,-0.03472597897052765,0.31110167503356934,-0.036200910806655884,-0.06259966641664505,0.16620367765426636,0.3548277020454407,0.11873427033424377,0.2410372793674469,-0.3318334221839905
-0.45539161562919617,0.0004542203387245536,-0.5606499910354614,0.08457893878221512,-0.05163344740867615,-0.0636405423283577,0.3801620900630951,0.013479948975145817,0.23810572922229767,0.2654474079608917,0.10513359308242798,-0.2747915983200073,0.21061983704566956,-0.21887601912021637,-0.3750159740447998,0.18563967943191528,0.0020312778651714325,0.26446956396102905,-0.2697306275367737,0.04807087406516075,-0.0875840112566948,0.14138606190681458,-0.1185808777809143,0.09709791839122772,0.29315951466560364,-0.39138105511665344,-0.0926932767033577,-0.7494562864303589,0.6692429780960083,-0.4433283805847168,0.4213000535964966,0.33336561918258667,-0.5754084587097168,0.08994816243648529,-0.7434702515602112,0.2683236598968506,0.19697421789169312,0.08327315747737885,-0.6835383772850037,0.39091965556144714,-0.33018386363983154,-0.11410863697528839,-0.04488157108426094,0.19672814011573792,-0.1418975293636322,-0.6755515336990356,0.10418090224266052,0.006426481995731592,-0.07859424501657486,-0.030973197892308235,0.2989215552806854,-0.14832276105880737,0.11879564076662064,0.5066746473312378,0.17937995493412018,-0.21553415060043335,0.25552088022232056,-0.4625549018383026,0.5946042537689209,-0.39117488265037537,0.1179257482290268,0.06578651815652847,-0.05495911091566086,0.18119895458221436,-0.7916793823242188,0.0784282460808754,0.4564321041107178,0.027756335213780403,0.18730078637599945,-0.3178047835826874,-0.4108300805091858,0.33331820368766785,0.01783076301217079,-0.26143375039100647,-0.0797799825668335,-0.18260768055915833,0.29214030504226685,0.2523469924926758,-0.03382087126374245,0.16533991694450378,0.21363316476345062,-0.3719204068183899,-0.1907351016998291,0.06375442445278168,-0.5052545070648193,0.08437639474868774,0.31229907274246216,-0.12331804633140564,0.4358217120170593,0.27484774589538574,-0.0723344162106514,-0.018434297293424606,0.33652427792549133,-0.06719190627336502,-0.17797906696796417,-0.048065368086099625,0.1505506932735443,-0.38677483797073364,-0.1894557774066925,-0.5114554762840271,-0.17353703081607819,-0.014591542072594166,0.2321474850177765,-0.07289435714483261,-0.0432288758456707,-0.013161140494048595,0.2794119119644165,-0.4979791045188904,-0.13080450892448425,-0.02463592030107975,0.279509961605072,0.3830840289592743,-0.32407525181770325,0.09170088171958923,-0.4848109483718872,0.045330461114645004,-0.1960279941558838,-0.7258291840553284,0.07596980780363083,0.10503790527582169,0.0018195412121713161,-0.2380836308002472,0.02311623841524124,0.11171599477529526,0.008051096461713314,-0.06056354567408562,0.441577285528183,0.6152084469795227,0.058912184089422226,0.40819022059440613,-0.11578782647848129,-0.34851306676864624,-0.020958565175533295,0.25684210658073425,-0.10715726763010025,-0.2407781034708023,0.43685778975486755,-0.7347426414489746,-0.023953614756464958,0.18100161850452423,0.19709643721580505,-0.039409663528203964,-0.5758112072944641,0.17993716895580292,0.14218267798423767,0.34437495470046997,0.37424761056900024,-0.4313390552997589,-0.17705316841602325,-0.12430184334516525,0.652683436870575,0.44058650732040405,-0.2341100126504898,0.003820147132501006,-0.08520064502954483,0.009119851514697075,-0.1379259079694748,0.1546127051115036,-0.321184903383255,-0.168287992477417,-0.1546858698129654,-0.3804616928100586,-0.3250253200531006,0.013842369429767132,-0.07193807512521744,0.451997309923172,0.6298485398292542,-0.28841835260391235,-0.02515420876443386,0.3413824141025543,-0.5975639224052429,0.13026706874370575,0.3713727593421936,-0.20188076794147491,-0.028242411091923714,0.4383535087108612,-0.4131357967853546,-0.17838609218597412,-0.3279002010822296,0.2662350833415985,0.12808042764663696,0.2878406345844269,-0.6068880558013916,-0.3997001349925995,-0.19410455226898193,-0.2192256897687912,0.045119717717170715,0.36203137040138245,0.0961281806230545,0.5664611458778381,0.26042070984840393,0.15669524669647217,0.04424073547124863,-0.2618449032306671,0.03911380469799042,-1.0879638195037842,-0.05095241218805313,-0.12055670469999313,-0.05513402447104454,0.16430243849754333,0.0381280742585659,-0.37952184677124023,0.07421042025089264,-0.021383430808782578,0.23391400277614594,0.19989849627017975,-0.5131971836090088,0.005077453795820475,0.09521760791540146,-0.06332112848758698,-0.5036395788192749,-0.20367218554019928,-0.35143154859542847,-0.25168290734291077,-0.11162127554416656,-0.0830768272280693,-0.6649237275123596,-0.22797676920890808,0.001375242485664785,0.34995684027671814,-0.3640517592430115,0.11955723166465759,-0.45496678352355957,-0.03457958251237869,-0.2840175926685333,-0.21008452773094177,-0.5094457864761353,-0.19981035590171814,0.03126068785786629,-0.4202982783317566,0.28211820125579834,-0.10797730088233948,-0.08820337802171707,-1.2898744344711304,0.12297672033309937,-0.21056562662124634,-0.10044512152671814,0.21263854205608368,0.08598661422729492,-0.4390803873538971,0.28466880321502686,0.5322622060775757,0.4462226927280426,-0.39474087953567505,0.016946302726864815,-0.7847182154655457,0.135860875248909,-0.4724483788013458,-0.216966912150383,0.24782654643058777,-0.32888007164001465,-0.04394124448299408,-0.18820905685424805,-0.2846275866031647,-0.39154869318008423,-0.15142109990119934
-0.6339675784111023,0.0838475227355957,-0.16239707171916962,0.054727405309677124,-0.1756848692893982,0.12191387265920639,0.030530456453561783,-0.5707518458366394,-0.28013986349105835,0.1930643767118454,-0.4120142459869385,0.16790732741355896,0.13886338472366333,-0.23772242665290833,0.3219567537307739,0.22532595694065094,0.029737472534179688,0.12175867706537247,-0.03256303817033768,0.3618963062763214,-0.25166380405426025,-0.7835761904716492,0.08516383171081543,0.45271971821784973,0.19155414402484894,0.057265374809503555,-0.2673405408859253,-0.0005433990736491978,-0.06204956769943237,-0.5334924459457397,0.20590659976005554,0.028941545635461807,0.13212773203849792,0.27352142333984375,0.017654133960604668,-0.45817136764526367,0.19323930144309998,-0.1026575118303299,-0.156660795211792,0.14326271414756775,0.4581236243247986,0.30233579874038696,-0.4312992990016937,0.11513300985097885,-0.1636340618133545,-0.09988800436258316,-0.2024579644203186,-1.1501621007919312,0.30153003334999084,0.2612442970275879,0.2872040271759033,-0.2079898566007614,0.12353504449129105,0.1844233274459839,-0.03136745095252991,0.3863559663295746,-0.2617916464805603,0.751353919506073,0.3044359087944031,0.031835343688726425,0.02877942845225334,0.08014503121376038,0.09011145681142807,-0.05068035051226616,-0.5370990633964539,-0.10980883240699768,-0.13005702197551727,-0.41737884283065796,-0.1660495400428772,-0.6412391662597656,-0.1537245512008667,-0.1320006251335144,0.08996779471635818,-0.390700101852417,0.31465187668800354,0.3438917100429535,0.34508228302001953,0.17935360968112946,-0.04282066226005554,0.1224762424826622,-0.1399182379245758,-0.2574172019958496,0.3210632801055908,0.07765309512615204,-0.22852970659732819,-0.27516886591911316,-0.4254129230976105,0.11048626899719238,-0.5650298595428467,-0.27739793062210083,0.042974550276994705,0.015475650317966938,-0.02924725040793419,0.014411254785954952,0.055609069764614105,0.22166316211223602,-0.06683538109064102,-0.5367456078529358,0.30898305773735046,0.031477976590394974,-0.03982540965080261,-0.5596914291381836,-0.4767351746559143,-0.10505431890487671,-0.18533624708652496,-0.4864315688610077,-0.4185962378978729,0.0514049269258976,0.15787862241268158,-0.5924329161643982,-0.10548987239599228,0.28824785351753235,0.35270681977272034,-0.014714863151311874,-0.013589560985565186,0.2265562266111374,0.04815198853611946,0.18031634390354156,-0.16666966676712036,-1.8055859804153442,-0.4699271023273468,-1.0838568210601807,0.18324129283428192,-0.1763303279876709,0.08788774907588959,0.12575767934322357,0.32889237999916077,-0.07829772680997849,0.07719545066356659,0.11374358832836151,0.004759523086249828,0.37215402722358704,-0.37371501326560974,0.01806536689400673,-0.9301097393035889,-0.12790967524051666,-0.16139009594917297,0.07531657814979553,-0.05327940732240677,-0.08165237307548523,0.11183205246925354,0.38458338379859924,-0.16477492451667786,0.841861367225647,-0.24360744655132294,-0.019939471036195755,0.11526306718587875,-0.23638562858104706,0.2903766334056854,-0.45547255873680115,0.007950510829687119,0.13992497324943542,-0.436672180891037,-1.6579428911209106,-0.19379854202270508,-0.1332850456237793,-0.15471839904785156,-0.17589332163333893,-0.16975082457065582,0.20943430066108704,0.3880470395088196,0.5318619608879089,0.15119968354701996,0.3252248466014862,0.13679282367229462,0.0324602834880352,0.28406229615211487,-0.20013956725597382,0.264424204826355,0.16751322150230408,-0.004876942839473486,0.12384603917598724,-0.424560010433197,-0.5297229290008545,-0.3438079357147217,-0.2550297677516937,-0.18641652166843414,0.28726544976234436,-0.016133898869156837,0.15204253792762756,0.24433569610118866,0.2299416959285736,0.18677645921707153,0.033994756639003754,-0.6100097298622131,0.440798282623291,-0.18603463470935822,-0.9476590752601624,0.21543806791305542,-0.38500991463661194,0.04966980218887329,0.5028334259986877,-0.09031912684440613,0.06553161144256592,0.8565253019332886,-0.1328880488872528,-0.07434343546628952,-0.33862853050231934,0.2825368642807007,0.17977000772953033,-0.315159410238266,0.26908397674560547,0.07162309437990189,0.08883662521839142,-0.07835395634174347,-0.27124759554862976,0.5876346230506897,0.03673996031284332,-0.1024249792098999,-0.43140342831611633,0.12424415349960327,-0.3244599401950836,-0.19407682120800018,0.8225758671760559,-0.7016676664352417,0.018049200996756554,0.12763841450214386,-0.0854225605726242,-0.1473739594221115,0.30867889523506165,-0.15760384500026703,0.27209022641181946,0.3900454044342041,0.24979206919670105,-0.16379915177822113,-0.6515632271766663,0.05657999962568283,0.5264453887939453,-0.220652773976326,-0.45956942439079285,-0.07473113387823105,-0.06280050426721573,-0.16174355149269104,-0.11307750642299652,-0.29251983761787415,0.26591309905052185,-0.3731800317764282,-0.49007225036621094,-0.26382505893707275,0.049763984978199005,0.004040365107357502,-0.46558189392089844,-0.032259900122880936,-0.21355196833610535,-0.03810097277164459,-0.15663789212703705,0.02469354309141636,0.0508522130548954,0.019103359431028366,-0.10454598069190979,0.20354732871055603,0.2763156294822693,-0.024445995688438416,-0.33105483651161194,-0.1742689311504364,-0.1433982104063034
0.08440959453582764,-0.12784865498542786,0.5359885692596436,0.23377995193004608,-0.5392600297927856,0.3991974890232086,-0.26134729385375977,-0.09124600887298584,-0.23463676869869232,-0.005111967213451862,-0.6193922162055969,-0.21658188104629517,0.41031724214553833,0.07581782341003418,-0.1667427271604538,0.25798243284225464,-0.032962676137685776,-0.271144300699234,0.07192325592041016,0.5909067988395691,-0.18137983977794647,-0.09010232985019684,-0.2571212649345398,-0.17535774409770966,-0.11415265500545502,-0.10683464258909225,0.08303683996200562,-0.15126438438892365,-0.08623141050338745,0.14351771771907806,0.0485927052795887,0.391002357006073,0.14942260086536407,0.03572896867990494,-0.19165119528770447,-0.7657601237297058,-0.45870691537857056,-0.36012011766433716,-0.11030644178390503,-0.5973166823387146,-0.13687844574451447,-0.14349527657032013,0.014560182578861713,-0.11146560311317444,-0.621951699256897,-0.4426305890083313,0.388982892036438,-0.39388519525527954,0.002086208900436759,-0.046085093170404434,0.029320187866687775,-0.25730493664741516,-0.01237889938056469,-0.10006856173276901,0.24111291766166687,0.22755207121372223,0.13875213265419006,0.6287491321563721,0.10750637203454971,0.053915053606033325,0.2399924397468567,-0.4496493637561798,0.2343452274799347,-0.21393519639968872,0.26983845233917236,0.029859963804483414,0.18311192095279694,-0.07529956102371216,0.2610674202442169,0.05296675115823746,0.25980812311172485,0.11735812574625015,-0.2850194275379181,-0.37665098905563354,0.15525315701961517,0.05559174716472626,0.3512257933616638,-0.34715038537979126,0.22756774723529816,-0.24072925746440887,0.447720468044281,-0.12050761282444,0.4802558720111847,0.07394053041934967,-0.5500717759132385,-0.034370698034763336,-0.2591010630130768,-0.3585048317909241,0.06435420364141464,0.11335094273090363,0.0023536765947937965,0.08621455729007721,-0.4354078769683838,0.25393685698509216,-0.4208665192127228,0.3032680153846741,-0.01816324144601822,0.2210627794265747,0.03653256595134735,0.5794554352760315,0.3758673071861267,-0.008511155843734741,-0.09997911751270294,0.1750212013721466,-0.15430860221385956,-0.2786000370979309,-0.5919762849807739,-0.04076483100652695,0.11662972718477249,-0.2910218834877014,0.2104937583208084,-0.208879292011261,0.060120273381471634,0.3293374478816986,-0.2465001344680786,-0.2288188487291336,0.31050315499305725,0.46751710772514343,-0.4671262204647064,0.3814767301082611,-0.589927077293396,0.5084260702133179,0.0634147897362709,0.041601650416851044,-0.31008875370025635,0.48458150029182434,0.12782087922096252,-0.06129780411720276,0.16197308897972107,0.42898643016815186,-0.278460830450058,-0.25466278195381165,0.12880973517894745,0.2719506025314331,0.1977020502090454,-0.2736824154853821,0.044578224420547485,-0.2904936671257019,-0.24516722559928894,-0.544082522392273,-0.24706612527370453,0.06982312351465225,0.3094504475593567,0.17705997824668884,0.139046311378479,0.539832353591919,0.11615758389234543,-0.08607324957847595,0.010005581192672253,-0.21069836616516113,-0.004892876837402582,0.05572610720992088,0.17659853398799896,-0.0003521199687384069,-0.5058032274246216,0.2724319100379944,-0.3513931632041931,0.10424637049436569,0.2783253490924835,-0.03609137982130051,0.4513823986053467,0.17403966188430786,-0.14139366149902344,0.2833136022090912,-0.24005049467086792,-0.08650550991296768,0.06346241384744644,0.16496804356575012,0.2268408238887787,-0.08161449432373047,-0.13580937683582306,0.22689566016197205,-0.1987229734659195,0.09795540571212769,-0.1943422555923462,-0.26567795872688293,-0.46951761841773987,0.323588103055954,0.4058876931667328,0.3743419647216797,-0.2607918977737427,0.3412352204322815,-0.10051926970481873,0.15317294001579285,-0.37747126817703247,-0.36157017946243286,0.23822486400604248,0.08637244999408722,-0.057617463171482086,-0.5222150683403015,0.2057560235261917,0.22578758001327515,0.06405844539403915,-0.07909814268350601,0.41739529371261597,0.4980185031890869,0.02151266671717167,-0.3052462637424469,-0.4828937351703644,0.23709553480148315,0.04672680422663689,-0.08792618662118912,-0.02157633565366268,0.24817851185798645,0.027758115902543068,-0.3904730975627899,-0.11194668710231781,0.026605473831295967,0.13417662680149078,0.33656927943229675,-0.017025507986545563,-0.20039477944374084,-0.263284832239151,0.6096410751342773,-0.5907676219940186,-0.3861832618713379,-0.3862272799015045,-0.5710391402244568,-0.44828277826309204,0.04533126950263977,0.11829698830842972,0.030420349910855293,-0.2775192856788635,-0.5807980298995972,-0.08386685699224472,0.04277369752526283,0.12713246047496796,0.5210124254226685,-0.0032296711578965187,0.12456156313419342,0.004677099641412497,-0.05065401643514633,0.033290933817625046,0.23389604687690735,0.0354139544069767,-0.25476735830307007,0.16887474060058594,-0.16329626739025116,-0.09385581314563751,0.36059141159057617,-0.1805143803358078,-0.4258434772491455,-0.1160932257771492,-0.31047549843788147,-0.15665052831172943,0.027898384258151054,0.4025041460990906,0.11392813920974731,0.13176141679286957,-0.33736321330070496,-0.03481961414217949,0.44854557514190674,0.5041342973709106,-0.7063403725624084,-0.17857593297958374,-0.06480656564235687
0.2171478271484375,-0.23483094573020935,0.33874431252479553,-0.22787292301654816,0.3406040668487549,0.061728280037641525,-0.15495245158672333,0.3277822434902191,0.4289350211620331,0.3825661242008209,-0.5543298125267029,0.05489577353000641,0.6483789086341858,0.03413606807589531,-0.5330547094345093,0.06225564330816269,0.43711763620376587,-0.03642064705491066,0.15641482174396515,0.3013421893119812,0.020185451954603195,0.1685078740119934,-0.04279984161257744,-0.02073061279952526,0.10985717922449112,-0.2819325923919678,-0.5413686037063599,0.27600452303886414,-0.08581417053937912,-0.3020716607570648,0.3525193929672241,0.18982526659965515,-0.19951137900352478,-0.19160839915275574,0.025606971234083176,0.007013287395238876,0.4910217821598053,0.25741544365882874,-0.2885616719722748,0.24771060049533844,0.37047892808914185,-0.04167785495519638,0.06815498322248459,-0.0795092061161995,-0.28600120544433594,0.3070724308490753,0.14382819831371307,-0.10303652286529541,-0.32653898000717163,-0.05152495577931404,0.12690232694149017,0.14539073407649994,0.28025802969932556,0.3204916715621948,-0.35904085636138916,-0.1129150539636612,0.35446617007255554,0.6309659481048584,-0.21749800443649292,-0.9822810888290405,-0.08507366478443146,-0.297887921333313,-1.1448450088500977,-0.17695586383342743,-0.18423569202423096,-0.1702142059803009,-0.22699429094791412,0.1784348338842392,-0.0023238766007125378,-0.17561471462249756,-0.3477097153663635,-0.24376720190048218,-0.3274059593677521,-0.17215336859226227,0.01354208867996931,0.15403369069099426,0.4953176975250244,0.2778870463371277,-0.13105246424674988,0.089110367000103,-0.03224290907382965,0.11517908424139023,0.24254214763641357,-0.27111783623695374,0.06501682847738266,-0.12298234552145004,-0.25925204157829285,-0.2158813178539276,-0.11072876304388046,-0.34701409935951233,-0.18414974212646484,0.4790791869163513,0.006857970263808966,0.040158044546842575,0.04273058474063873,0.25872892141342163,-0.16480353474617004,0.36098384857177734,-0.003544878913089633,-0.20993907749652863,0.29104602336883545,-0.007532637100666761,0.3971698582172394,-0.21335865557193756,-0.0867723673582077,-0.061247020959854126,0.06699340790510178,-0.12042806297540665,-0.5637149810791016,0.14161290228366852,-0.09692057967185974,-0.21058502793312073,0.016164526343345642,0.09906021505594254,-0.4216994345188141,0.10972889512777328,-0.059155263006687164,-0.41304683685302734,0.18793565034866333,-0.05489979684352875,0.3065054416656494,0.16610297560691833,0.21074111759662628,0.12795574963092804,0.12477472424507141,0.38798773288726807,0.059348709881305695,0.10652554780244827,-0.2665703296661377,0.5230600833892822,0.6462350487709045,0.07152507454156876,-0.03314635902643204,-0.43425530195236206,-0.28242725133895874,-0.04510011896491051,-0.03407229483127594,-0.1631254404783249,-0.07195886969566345,-0.34905388951301575,0.1664743423461914,0.2494814097881317,0.4429730176925659,0.2170935422182083,-0.09943991899490356,-0.07673067599534988,0.11981213092803955,-0.37035417556762695,0.2627553939819336,0.009384123608469963,0.28977715969085693,0.019485121592879295,-0.3159044682979584,0.20972496271133423,0.01637348160147667,-0.3571189343929291,0.3890492618083954,-0.04386424645781517,0.020772423595190048,0.035087499767541885,0.36019766330718994,0.16182778775691986,0.3305791914463043,-0.7281519770622253,-0.1826322078704834,0.21071338653564453,0.06072506681084633,-0.2736554741859436,-0.062376007437705994,0.08348497748374939,-0.10641144216060638,-0.08119021356105804,0.2589249014854431,-0.16694261133670807,0.1428946554660797,-0.7816644310951233,-0.17717473208904266,-0.2921290397644043,-0.2963869869709015,0.3006874620914459,0.1438511162996292,0.34865453839302063,0.29678595066070557,0.04650108888745308,0.14628636837005615,0.14250901341438293,0.10249648988246918,0.11685212701559067,-0.3985384702682495,0.2674615979194641,-0.06726346909999847,-0.16694018244743347,-0.30613279342651367,-0.3297598659992218,-0.41943931579589844,0.03694844990968704,-0.06844458729028702,0.35831236839294434,-0.6902167797088623,-0.11834894865751266,-0.09467446058988571,0.16017401218414307,-0.03005239926278591,0.2907640039920807,0.10735662281513214,0.30646592378616333,0.09923382848501205,-0.14035533368587494,-0.24759697914123535,0.5479749441146851,-0.42598846554756165,-0.39339083433151245,0.3663586378097534,-0.1443893313407898,-0.05734488368034363,-0.04588700458407402,-0.2941170930862427,0.005084434524178505,0.08562341332435608,0.028629837557673454,0.4985089898109436,-0.032960303127765656,-0.11755495518445969,0.06291207671165466,-0.06571922451257706,-0.27943354845046997,0.19711188971996307,-0.10488840192556381,0.32813963294029236,0.43745073676109314,0.29968076944351196,-0.21559064090251923,-0.3408351540565491,0.3088429570198059,0.2726270854473114,0.06854861974716187,0.28254592418670654,-0.5067225098609924,-0.1442546397447586,-0.0782824456691742,-0.39885011315345764,-0.19229768216609955,0.11585939675569534,-0.10495179891586304,0.08272147178649902,0.13094446063041687,-0.27326539158821106,-0.13230927288532257,-0.005960194393992424,0.03095206990838051,0.18997721374034882,-0.251703679561615,0.42369428277015686,0.05164630711078644,-0.23573368787765503,-0.37126246094703674
0.23228847980499268,-0.13093538582324982,0.31300225853919983,-0.31558850407600403,-0.14687807857990265,0.12634088099002838,-0.2674260139465332,-0.3849075734615326,-0.06373006850481033,-1.0614334344863892,0.04552970081567764,0.15833212435245514,-0.6975054144859314,-0.08714861422777176,-0.05887326970696449,0.1788029968738556,0.3051968216896057,-0.4529383182525635,0.1500622034072876,-0.4070269763469696,0.22536802291870117,-0.09587989747524261,-1.6637464761734009,-0.24729368090629578,-0.18011142313480377,0.01807904615998268,-0.30884525179862976,-0.19309815764427185,0.2706124484539032,0.02143370546400547,-0.16547805070877075,-0.04873368889093399,-0.5259842872619629,-0.1740797609090805,-0.19896864891052246,-0.056207187473773956,0.3042241334915161,-0.7604446411132812,-0.10796928405761719,0.21675637364387512,0.1464507281780243,0.06590340286493301,0.07110908627510071,0.10873661935329437,0.3291451036930084,0.13009357452392578,0.01219532173126936,-0.34771278500556946,-0.5082904696464539,-0.23739518225193024,-0.1877596378326416,-0.30322855710983276,-0.10940835624933243,0.060568585991859436,0.1569615602493286,-0.06876475363969803,-0.1616041213274002,0.07884930074214935,-0.7764230370521545,0.10904639214277267,0.09527477622032166,0.07317526638507843,0.07051736116409302,0.5532189607620239,-0.014039471745491028,0.08001499623060226,-0.13833677768707275,-0.09156204015016556,-0.0913461372256279,-0.2049100399017334,-0.033692892640829086,0.3560873568058014,-0.4902229905128479,-0.6021345853805542,0.05481685698032379,0.0017971380148082972,0.33996549248695374,0.20461395382881165,0.050262127071619034,-0.4397110641002655,0.08588848263025284,-0.33826783299446106,0.122859425842762,0.004760348238050938,0.3972717523574829,0.2851724624633789,0.27549195289611816,0.46816977858543396,0.2306697517633438,0.25732293725013733,-0.22889240086078644,0.07311762124300003,-0.1832241415977478,-0.6187049746513367,-0.050348732620477676,0.5627644658088684,-0.1364242136478424,0.3850671648979187,-0.06285705417394638,0.2889921963214874,0.30071085691452026,0.2907646596431732,-0.46386998891830444,-0.2825067639350891,-0.1778324544429779,-0.37653106451034546,-0.11124370247125626,-0.11977777630090714,-0.2286691516637802,-0.05327046662569046,-0.16041633486747742,-0.08059369772672653,-0.08767423778772354,0.10710188001394272,-0.1703331023454666,-0.23607610166072845,0.04985411837697029,0.22627794742584229,-0.12883174419403076,0.40803083777427673,0.31785711646080017,-0.32657507061958313,0.3808589279651642,0.3491009771823883,-0.10480052977800369,-0.14801070094108582,0.1250084936618805,-0.16558995842933655,0.6573314070701599,0.13540513813495636,0.35072869062423706,-0.1272571086883545,-0.22776147723197937,0.0851885974407196,-0.1057097315788269,0.1320701390504837,-0.04279039055109024,-0.24921053647994995,-0.023136381059885025,0.4002649486064911,-0.8192557692527771,0.15736185014247894,-0.07856366783380508,-0.04967514052987099,-0.9061594605445862,-0.1602296382188797,0.7829656004905701,0.14129357039928436,-0.19563192129135132,0.3004922866821289,-0.19155877828598022,0.2347722053527832,-0.14311949908733368,-1.1544758081436157,-0.47020959854125977,0.0743575170636177,0.045684006065130234,0.22390465438365936,0.22325505316257477,-0.14888286590576172,-0.1096639633178711,-0.19613906741142273,0.003565637394785881,-0.34375277161598206,0.07567030936479568,-0.6582942605018616,-0.22671887278556824,-0.5600813031196594,-0.27274608612060547,0.47933560609817505,-0.32921573519706726,0.013669103384017944,0.5611287951469421,-0.0566394217312336,0.07084553688764572,0.2614009976387024,-0.4771595597267151,-0.3516917824745178,-0.11491681635379791,-0.28828227519989014,-0.5047114491462708,0.04170830547809601,-0.052379414439201355,0.3829430937767029,-0.29894429445266724,-0.06268173456192017,0.23928819596767426,0.09782823920249939,-0.06718336790800095,0.08458700776100159,-0.10986747592687607,-0.25271567702293396,-0.14021849632263184,-0.4688631296157837,0.3290218114852905,-0.19060061872005463,-0.1644742786884308,-0.11444371938705444,0.2611386775970459,-0.2199726700782776,-0.13897575438022614,0.20145314931869507,-0.48496946692466736,-0.09987521916627884,-0.08537657558917999,-0.36609432101249695,0.0673857033252716,0.027597617357969284,0.042127594351768494,0.11638962477445602,-0.5788916945457458,0.39199984073638916,0.26062166690826416,0.31355157494544983,0.10820848494768143,0.20945292711257935,-0.08309926837682724,0.11689543724060059,-0.15716534852981567,0.18359650671482086,0.7817540764808655,0.0647895559668541,-0.04770573601126671,-0.11320716142654419,0.5229392647743225,0.5575809478759766,0.23270420730113983,-0.338130921125412,-0.019799910485744476,-0.2527332603931427,0.4067424237728119,-0.12243020534515381,0.19734600186347961,-0.08295072615146637,0.005909943021833897,0.18902793526649475,-0.08290201425552368,-0.10723796486854553,-0.10469354689121246,0.27752313017845154,0.377392053604126,-0.18842445313930511,-0.09348420053720474,0.4088464379310608,-0.12157151103019714,-0.4196383059024811,-0.7406595349311829,0.13737435638904572,-0.08789372444152832,-0.08437609672546387,0.20785771310329437,0.007951788604259491,-0.49364176392555237,0.7714623212814331,-0.02343561500310898,0.03263373672962189
-0.2838303744792938,0.07224186509847641,0.1682501584291458,0.07672563195228577,-0.6422873735427856,0.4472515881061554,-0.7193137407302856,0.18874597549438477,0.01082112081348896,0.18862418830394745,0.21983681619167328,0.06775684654712677,-0.08342450112104416,-0.04805001616477966,-0.2991645336151123,0.23327548801898956,-0.13878260552883148,0.6850629448890686,0.25104832649230957,-0.31486889719963074,-0.22606755793094635,-0.2713206112384796,-0.056945737451314926,0.06673617660999298,0.3016344904899597,-0.18864965438842773,-0.019171353429555893,-0.1770520806312561,-0.15913762152194977,0.12801678478717804,-0.2366909235715866,0.16727712750434875,-0.14796312153339386,0.3190438747406006,0.033102672547101974,0.059362009167671204,-0.33961865305900574,-0.1606721580028534,-0.1427697092294693,0.4015752673149109,0.41062667965888977,-0.14524658024311066,0.4037873148918152,-0.6380581855773926,0.2676747739315033,-0.4023340344429016,-0.35066357254981995,0.2115459442138672,-0.22831466794013977,0.0891692265868187,-0.04174833372235298,0.35129454731941223,-0.2854529023170471,0.05399860814213753,-0.0995398685336113,-0.037722475826740265,0.009904003702104092,0.0316162183880806,-0.1233573853969574,0.49314162135124207,0.04952915012836456,-0.4162651300430298,-0.6785570383071899,0.23615680634975433,-0.5844956040382385,0.06574419140815735,-0.27185875177383423,0.38326045870780945,0.3915650248527527,0.2425564080476761,-0.24575194716453552,0.24704955518245697,-0.1293725073337555,-0.2149931788444519,0.3191699981689453,0.2764336168766022,0.6765239834785461,0.08900418132543564,-0.6462188363075256,0.06495655328035355,-0.33238422870635986,-0.7462677955627441,0.05467366799712181,0.2417122721672058,0.2888783812522888,-0.009059547446668148,0.15559381246566772,0.07788097858428955,0.33375072479248047,-0.4450569152832031,0.14637888967990875,-0.27419453859329224,0.31255197525024414,0.049378808587789536,0.16259676218032837,0.025752151384949684,-0.028717640787363052,-0.9649965763092041,-0.00890963152050972,-0.10061697661876678,-0.29932186007499695,0.14546126127243042,-0.1089259684085846,0.05433620512485504,-2.3049075603485107,-0.20239391922950745,0.33364009857177734,0.27947089076042175,0.16089561581611633,0.16725817322731018,0.18320730328559875,-0.185472771525383,0.08888962864875793,-0.1139877662062645,-0.09887639433145523,-0.1592523604631424,-0.5251407623291016,-0.14482714235782623,-0.11841295659542084,-0.3598341643810272,-0.040192585438489914,-0.3671942353248596,-0.5298233032226562,0.0655594915151596,0.1561514288187027,0.34580138325691223,-0.8942450881004333,0.45602598786354065,0.4627002477645874,0.20745444297790527,0.007539460901170969,0.06133663281798363,-0.12842446565628052,-0.5232992172241211,0.541805624961853,0.2278563678264618,-0.08172132819890976,0.1902005672454834,-0.032230887562036514,-0.07215795665979385,0.21439768373966217,-0.3463054597377777,-0.8408166170120239,-0.4125174283981323,0.02928871288895607,-0.09331163018941879,-0.32399505376815796,0.30165427923202515,-0.32040858268737793,0.18501979112625122,-0.47620075941085815,0.02655639313161373,0.1239294782280922,-0.049169495701789856,1.0721783638000488,0.05011717230081558,0.06818176060914993,-0.21553105115890503,-0.1624339371919632,0.37428906559944153,0.15706013143062592,-0.040857478976249695,-0.39288491010665894,0.020230870693922043,0.01914929784834385,-0.2232944220304489,0.15925613045692444,0.04900168254971504,0.06886059790849686,-0.02224499173462391,-0.16102169454097748,-0.1071639284491539,-0.6646688580513,-1.0405477285385132,0.36418595910072327,0.09445039927959442,0.0024261907674372196,0.28654158115386963,-0.384248286485672,-0.37204286456108093,0.09783618897199631,0.2720971703529358,-0.588790237903595,-0.3398202657699585,-0.26161250472068787,0.17473316192626953,0.07876726239919662,0.18870887160301208,0.2169162780046463,0.10427636653184891,-0.19960997998714447,-0.5675536394119263,-0.44813284277915955,0.1989622861146927,-0.3064585328102112,0.21234314143657684,-0.44607242941856384,-0.21708381175994873,-0.06874559074640274,-0.05072477087378502,-0.43377920985221863,-0.03510834649205208,-0.2481340765953064,0.17804557085037231,-0.01759437471628189,-0.8222977519035339,-0.12627294659614563,-0.34419649839401245,-0.7142089009284973,0.3055030107498169,-0.7553187012672424,0.14370177686214447,0.0500105656683445,0.280633807182312,0.1080118790268898,-0.12550729513168335,-0.27519792318344116,-0.19589763879776,-0.221749410033226,0.5123763084411621,-0.0366041399538517,0.3815784454345703,0.048414602875709534,-0.28994596004486084,0.543720006942749,0.5411545038223267,0.12424813210964203,-0.027682462707161903,0.17358554899692535,-0.3508855402469635,-0.17240142822265625,0.40874698758125305,0.0007577533251605928,0.2002592533826828,0.0662841945886612,0.12861764430999756,-0.06432072073221207,0.3081884980201721,0.13809426128864288,-0.6869199275970459,0.2436365783214569,0.02020743489265442,-0.2933236360549927,-0.134305939078331,-0.6640483736991882,0.39598992466926575,0.02676885761320591,0.06553807109594345,0.030718928202986717,0.11489082872867584,0.08934850990772247,0.43646401166915894,0.15520156919956207,-0.15967927873134613,0.41562119126319885,-0.22590193152427673
-0.22659602761268616,0.4825431704521179,-0.041094642132520676,-0.03873131051659584,0.20321744680404663,0.3379977345466614,0.26094678044319153,0.2769744396209717,-0.00429936870932579,0.1986818164587021,-0.16096231341362,-0.11913176625967026,0.024832366034388542,0.03230826556682587,-0.43103235960006714,0.08412578701972961,-0.007366633974015713,-0.25325989723205566,0.002785995602607727,0.1813967525959015,-0.11751241981983185,0.0211127158254385,-0.5604874491691589,0.011312073096632957,-0.2964281737804413,-0.04452945291996002,0.16557680070400238,-0.2041001170873642,0.19136159121990204,0.26944902539253235,-0.2777150273323059,-0.23848475515842438,-0.3026737570762634,0.060096755623817444,-0.4344247281551361,0.0329316109418869,-0.07399830967187881,-0.22141015529632568,-0.31616294384002686,0.321373850107193,0.48832088708877563,0.3195720911026001,0.0397958904504776,-0.15413536131381989,0.49033883213996887,-0.03287263959646225,0.1007331907749176,0.07312571257352829,-0.17361928522586823,-0.19511348009109497,0.26523181796073914,0.19554366171360016,0.6562744379043579,-0.10076797753572464,0.47765201330184937,0.4388074576854706,-0.1040361151099205,-0.2803594172000885,-0.13367901742458344,-0.4748028516769409,-0.016378115862607956,-0.523402750492096,0.14071178436279297,0.07471347600221634,0.3991103768348694,0.4123297929763794,-0.03258240967988968,-0.7040730118751526,-0.09838195890188217,-0.23511949181556702,-0.6963045597076416,-0.029664361849427223,0.06593050062656403,0.20389533042907715,0.05210700258612633,0.2836255729198456,0.423505038022995,-0.328968346118927,0.029479727149009705,-0.018170250579714775,-0.760987401008606,0.14556875824928284,-0.04258972778916359,0.08934291452169418,-0.4422353506088257,0.029739079996943474,-0.7712653279304504,-0.34049707651138306,0.05514659732580185,-0.32840174436569214,0.03486407548189163,-0.3113557696342468,0.1643584966659546,-0.15952478349208832,-0.17672519385814667,0.3192014694213867,-0.09259086102247238,0.5689165592193604,-0.5196633338928223,0.0004319452273193747,-0.12016952037811279,0.335789293050766,0.12111691385507584,-0.5423611998558044,0.8539236187934875,-0.7223759889602661,-0.12972384691238403,-0.28102338314056396,-0.9668211936950684,0.024135340005159378,0.3212989270687103,0.09295516461133957,0.5169347524642944,0.21186678111553192,-0.17958636581897736,-0.12750670313835144,-0.37861698865890503,-0.49135321378707886,-0.09941815584897995,-0.1269146054983139,-0.04533659666776657,-0.7189250588417053,0.2830377221107483,0.09382806718349457,-0.012501954101026058,0.010991028510034084,0.2240035980939865,0.2601577937602997,0.5372370481491089,-0.5974485278129578,-0.13169753551483154,-0.1297444999217987,0.0432240255177021,-0.03643122315406799,0.1682610958814621,0.35044094920158386,0.23095163702964783,-0.23438839614391327,-0.3368508517742157,-0.11500001698732376,0.021816426888108253,-0.10080493986606598,-0.47847819328308105,0.4361819624900818,-0.010683823376893997,-0.16137918829917908,0.1852419525384903,-0.01044375542551279,0.026093021035194397,0.1727292388677597,-0.4572158455848694,-0.5333256125450134,-0.24908185005187988,0.3528672456741333,-0.2463369220495224,-0.14024989306926727,0.1996835470199585,0.11633776873350143,-0.03851165995001793,0.30213746428489685,0.16316787898540497,-0.16669799387454987,-0.4536433815956116,0.1496313065290451,-0.07625941187143326,-0.033076975494623184,0.3654007613658905,0.06418441236019135,-0.5527526140213013,0.3659636676311493,0.08500422537326813,0.1428062617778778,-0.18332500755786896,-0.036180395632982254,0.31242650747299194,0.010315591469407082,0.23028913140296936,-0.02367931231856346,-0.2943996787071228,0.03155166283249855,0.4027644991874695,0.13304539024829865,0.22528928518295288,-0.051990874111652374,-0.3794529139995575,-0.009288270957767963,0.0072156162932515144,-0.19339539110660553,0.38730260729789734,-0.08357146382331848,0.48704203963279724,-0.172367662191391,0.04479643329977989,-0.3649228811264038,0.25824087858200073,-2.0263495445251465,-0.46984583139419556,0.5203003883361816,0.12699759006500244,-0.05645570158958435,-0.45753222703933716,-0.22661644220352173,0.05837816745042801,-0.5424622297286987,0.3997335731983185,0.07617747038602829,0.269848108291626,-0.013170065358281136,-0.027561521157622337,-0.5229334831237793,0.05857692286372185,-0.5720713138580322,-0.38437947630882263,0.21896202862262726,-0.2546001672744751,0.10411425679922104,-0.1345558613538742,-0.011107414029538631,-0.15397772192955017,-0.4392274022102356,0.22311127185821533,0.24672800302505493,-0.09880983829498291,-0.29570654034614563,-0.47077468037605286,0.35867252945899963,0.31493473052978516,-0.12667712569236755,-0.04485546052455902,0.3197470009326935,-0.31767070293426514,-0.06218554452061653,-0.6340144276618958,0.05207384377717972,0.09202426671981812,-0.3429349660873413,0.2356290966272354,-0.39196234941482544,-0.38769620656967163,0.1997789740562439,0.24428394436836243,-0.2853616774082184,-0.05655812472105026,-0.06427153944969177,-0.49363774061203003,-0.14573539793491364,0.3588479161262512,0.35365554690361023,-0.6025870442390442,0.2565275728702545,-0.1924418807029724,-0.08489546924829483,-0.21046483516693115,0.3260325491428375,0.23997564613819122,-0.4434193968772888
0.6768515110015869,0.5578860640525818,-0.18645448982715607,-0.6355140209197998,-0.05583956465125084,0.12596532702445984,0.07089278101921082,0.26624780893325806,0.06926169991493225,0.3738322854042053,-0.40397295355796814,0.0035483343526721,0.08800171315670013,0.0643894299864769,-0.2998757064342499,0.04060889035463333,-0.5238302946090698,0.046578746289014816,0.3730005621910095,-0.43510720133781433,0.27270904183387756,0.13378669321537018,-0.11803510040044785,-0.38121044635772705,0.13377411663532257,0.02255575731396675,0.05602459982037544,0.02752002142369747,-0.132186621427536,-0.13968417048454285,0.13027961552143097,0.43151989579200745,-0.006069041322916746,0.2671905755996704,-0.321706086397171,0.15385796129703522,0.1815173476934433,-0.4139969050884247,-0.16059458255767822,-0.07043207436800003,0.0557231642305851,0.00671055493876338,0.23353904485702515,-0.263660192489624,0.3561427891254425,-0.055499643087387085,0.18125206232070923,0.0017879219958558679,0.17500118911266327,-0.09455958753824234,-0.32013747096061707,0.07619359344244003,1.0548746585845947,0.20218172669410706,0.1470511555671692,-0.2916465997695923,0.18259857594966888,0.07513196021318436,0.2853449285030365,0.4341788589954376,-0.21867255866527557,-0.12977834045886993,-0.7240970730781555,0.2730763256549835,0.4459376037120819,-0.1873955875635147,-0.06259831041097641,0.18318526446819305,0.13104869425296783,-0.0015532427933067083,0.37463802099227905,0.47497451305389404,-0.09214301407337189,-0.2603000998497009,-0.17577047646045685,0.29619014263153076,0.06013275682926178,-0.13286659121513367,0.6618184447288513,-0.3426113426685333,-0.20417390763759613,-0.8180611729621887,-0.15691296756267548,-0.15148593485355377,-0.43847596645355225,-0.5284724831581116,0.012633093632757664,-0.06975105404853821,-0.5793442726135254,0.0646974965929985,-0.01821453683078289,-0.08804818242788315,0.45791149139404297,0.2648475468158722,-0.4956190586090088,0.19536042213439941,-0.23609650135040283,0.007489443756639957,0.04797085374593735,0.010665744543075562,0.1725173145532608,-0.25925225019454956,0.13863243162631989,-0.32426097989082336,-0.07737317681312561,-0.915172815322876,-0.36329492926597595,-0.20600923895835876,-0.35852745175361633,-0.5872489809989929,0.011165406554937363,0.21220502257347107,-0.02506222575902939,0.022141316905617714,-0.20083390176296234,0.4059145450592041,0.32334089279174805,0.6757107377052307,0.20973461866378784,-0.23002922534942627,0.07291879504919052,0.204866424202919,0.35881784558296204,0.0012814376968890429,-0.04981096833944321,-0.9322468042373657,-1.2694247961044312,-0.2326095551252365,0.527157723903656,-0.3203151226043701,0.36457741260528564,0.3682878613471985,-0.3957201838493347,-0.2250940501689911,0.03522023931145668,0.11201661080121994,-0.30376341938972473,-0.30153992772102356,-0.3254965841770172,-0.2683730721473694,0.442873477935791,-0.16585515439510345,-0.36416420340538025,-0.010944003239274025,-0.3009505867958069,-0.26227903366088867,-0.15882202982902527,0.42493772506713867,0.29422593116760254,-0.3608492612838745,0.2721399962902069,-0.6140745282173157,0.17552326619625092,0.391436368227005,0.16171304881572723,0.0249775480479002,0.08997578918933868,-0.4041231572628021,0.08977606892585754,-0.6155272126197815,0.3481164574623108,0.07708023488521576,-0.282638281583786,0.18492236733436584,0.08700937777757645,0.22407829761505127,-0.6491605043411255,-0.22092482447624207,-0.004799631889909506,0.23705977201461792,-0.3203567564487457,-0.3649385869503021,0.16820989549160004,-0.4949773848056793,-0.45526713132858276,-0.5178458094596863,-0.10835498571395874,0.29147863388061523,-0.405398428440094,-0.16097797453403473,0.07583897560834885,-0.3505188226699829,-0.10785700380802155,-0.6469825506210327,0.11029002815485,0.011745335534214973,-0.14731915295124054,0.44601115584373474,0.17093895375728607,-0.6565828323364258,-0.8146833181381226,-0.046458784490823746,0.28203630447387695,-0.02956520766019821,0.22570830583572388,0.03343774378299713,-0.11282653361558914,-0.1332562118768692,0.27093246579170227,0.03936154022812843,-0.22945533692836761,0.1181541308760643,-0.2778439521789551,-0.3848162293434143,0.17097371816635132,0.06668680161237717,0.3390074670314789,-0.27810928225517273,0.07332763075828552,0.11966261267662048,0.004829453770071268,-0.16339698433876038,0.05485083535313606,-0.3090890645980835,-0.18167495727539062,-0.43633729219436646,-0.2989131808280945,-0.21464934945106506,0.09628872573375702,0.18146942555904388,-0.061200324445962906,-0.17254836857318878,0.3617972731590271,0.30520904064178467,0.11050810664892197,-0.2879394292831421,-0.25502005219459534,-0.135990709066391,-0.12833371758460999,0.14820438623428345,0.3797791004180908,0.3736068308353424,-0.5420297980308533,-0.23654313385486603,0.11367614567279816,0.15373526513576508,0.3094838857650757,-0.042603593319654465,0.36864492297172546,0.29669493436813354,-0.1615060567855835,-0.2819465100765228,-0.5965439081192017,0.26406586170196533,0.1751280277967453,-0.22078180313110352,-0.19941411912441254,-0.11150690168142319,-0.09893590956926346,0.3980119526386261,0.01997307874262333,0.34365180134773254,-0.08288585394620895,-0.2565957307815552,0.07340246438980103,0.07466749846935272
0.36707374453544617,-0.3166358768939972,-0.17806030809879303,0.26632222533226013,-0.08030372112989426,-0.1479746550321579,0.22015805542469025,0.15631511807441711,0.22847196459770203,-0.037024348974227905,0.41634103655815125,-0.05117324739694595,-0.2077784389257431,0.18423207104206085,0.10371310263872147,0.04143049567937851,0.27059218287467957,0.014524221420288086,0.14859242737293243,-0.004260238725692034,0.14342711865901947,-0.14956457912921906,-0.32687821984291077,0.05588017404079437,-0.06852065026760101,0.0457066111266613,0.0948452278971672,-0.19730716943740845,0.11866065114736557,0.2652058005332947,0.20031076669692993,-0.569150984287262,-0.22702404856681824,0.08001002669334412,-0.0634283721446991,0.07762327790260315,-0.2619761526584625,0.4615410268306732,0.3150885999202728,0.20259754359722137,-0.11813221871852875,0.17231078445911407,0.17492236196994781,-0.2924335300922394,-0.23472556471824646,0.048036642372608185,-0.07484956830739975,0.19436991214752197,0.13117516040802002,0.3211180865764618,0.05391068756580353,-0.10576370358467102,0.5665924549102783,0.26003801822662354,-0.014643672853708267,-0.11237053573131561,0.002480658469721675,-0.2530830502510071,0.4090673327445984,-0.32921433448791504,0.18505822122097015,-0.04403055086731911,-0.2974907159805298,-0.2033102959394455,-0.4462982714176178,0.517704963684082,0.07079695910215378,-0.3640137016773224,-0.11602798104286194,-0.02880527637898922,-0.037706270813941956,-0.5873306393623352,-0.21924209594726562,0.22312824428081512,-0.13784773647785187,-0.20740945637226105,0.22543752193450928,0.13423669338226318,0.1212000846862793,-0.027849221602082253,-0.11177299171686172,0.13933953642845154,-0.2619344890117645,0.15592104196548462,-0.055495791137218475,-0.16665500402450562,0.15426382422447205,-0.08915753662586212,0.17693206667900085,-0.4388420283794403,-0.22840449213981628,-0.20189440250396729,0.0486585795879364,-0.36823058128356934,-0.07644229382276535,0.2942827343940735,0.12186384201049805,-0.059019073843955994,-0.027626197785139084,0.09254176169633865,0.3606519401073456,0.31908556818962097,0.10992777347564697,-0.6850505471229553,-0.4400288164615631,-0.13737742602825165,-0.16137182712554932,-0.12467702478170395,0.12588316202163696,-0.4899497330188751,-0.5847307443618774,-0.054646462202072144,0.3733258545398712,0.25987163186073303,0.0819401741027832,0.18936499953269958,-0.2011251151561737,0.3837551176548004,-0.14750663936138153,0.0316004753112793,0.12861424684524536,0.12602713704109192,0.4346788823604584,-0.436148464679718,0.6343101263046265,-0.11217225342988968,-0.3165619373321533,-0.036456696689128876,0.8812850117683411,-0.18381169438362122,-0.09504999220371246,-0.06829630583524704,-0.04297647997736931,0.1667628139257431,0.5088323354721069,-0.04565809294581413,0.2841191589832306,-0.5090546607971191,-0.35656866431236267,-0.0034534246660768986,0.16648134589195251,0.3406142294406891,-0.40136075019836426,0.6169421672821045,-0.19591382145881653,0.5123768448829651,-0.42776498198509216,0.016261188313364983,-0.12951920926570892,0.021980108693242073,0.34752315282821655,-0.5433633923530579,0.004570947960019112,0.20621196925640106,-0.39251601696014404,-0.45055893063545227,-0.18355897068977356,-0.18461604416370392,0.3867374062538147,-0.18038728833198547,0.024387503042817116,-0.36252516508102417,0.35893166065216064,-0.4124000370502472,-0.12003042548894882,-0.16377519071102142,0.27874332666397095,0.3639329969882965,-0.17796561121940613,-0.05774528160691261,-0.036003194749355316,-0.4204000234603882,0.02666556090116501,0.42835381627082825,0.3405399024486542,-0.40177223086357117,-0.27200594544410706,-0.04616529494524002,0.3718394935131073,0.01106151845306158,-0.6675162315368652,0.05738016590476036,-0.17891350388526917,-0.10307595878839493,0.14148752391338348,0.15330830216407776,0.5934557914733887,-0.1475881040096283,0.14290188252925873,0.14695675671100616,-0.3380059599876404,0.16616860032081604,-0.06506369262933731,-0.3337351977825165,0.2855099141597748,0.38487353920936584,-0.3502965271472931,0.022333139553666115,-0.2776738703250885,-0.2880547046661377,-0.10220852494239807,-0.09582777321338654,0.5563981533050537,0.18996384739875793,0.2511701285839081,0.17970936000347137,-0.3023020923137665,-0.3524989187717438,-0.09313040971755981,-0.6306200623512268,0.4017040729522705,-0.18077798187732697,0.11432904005050659,0.16249918937683105,0.305758535861969,-0.15832562744617462,-0.07725062221288681,-0.11270065605640411,-0.0033812536858022213,0.055542681366205215,-0.07183079421520233,0.24986422061920166,0.07519741356372833,0.263467937707901,-0.22839094698429108,-0.3394654095172882,-0.008555921725928783,0.12865720689296722,-0.31251856684684753,-0.011668982915580273,-0.28373703360557556,0.0722200945019722,0.4021780490875244,-0.22879622876644135,-0.29581230878829956,-0.33051982522010803,0.12002954632043839,0.07500933855772018,-0.08313325047492981,-0.011491904966533184,0.5327847599983215,0.28054457902908325,-0.24590721726417542,-0.6658443212509155,-0.05142875015735626,-0.08921888470649719,-0.10429485887289047,-0.1224735677242279,0.09249626845121384,0.01895011030137539,0.5627449750900269,-1.1736317873001099,0.29470744729042053,-0.2287171334028244,-0.09931075572967529,0.13206182420253754
-0.05329183116555214,-0.644778311252594,-0.24254152178764343,0.060558535158634186,0.04744163155555725,-0.23530538380146027,-0.14022792875766754,0.4830319285392761,0.0601956732571125,0.0068006012588739395,0.15848641097545624,0.11504968255758286,-0.14516790211200714,0.26312723755836487,-0.44228920340538025,-0.12259643524885178,-0.007390633691102266,0.3247887194156647,0.11504103243350983,0.118353933095932,0.1756364107131958,0.2128850817680359,0.2806081771850586,-0.3405058681964874,-0.20095562934875488,0.012412810698151588,0.01480127964168787,0.03480498120188713,0.2479531466960907,-0.09392312169075012,-0.22842314839363098,-0.30432039499282837,-0.7694362998008728,-0.08670075237751007,0.17314548790454865,0.4623463451862335,-0.11296821385622025,0.3349084258079529,-0.17686650156974792,-0.23953355848789215,0.2656328082084656,-0.18264226615428925,-0.49667888879776,0.09346126019954681,-0.038585737347602844,-0.08361843973398209,0.05772735923528671,0.11181896179914474,0.1403055638074875,-0.25796857476234436,0.4815180003643036,0.09245549887418747,-0.23259323835372925,0.2658798396587372,-0.17892107367515564,-0.4616301357746124,-0.31632301211357117,-0.21524876356124878,-0.011735543608665466,-0.4234820604324341,-0.21880732476711273,-0.32325899600982666,-0.5631207823753357,-0.3200196325778961,0.2249341756105423,-0.3173702359199524,-0.043804313987493515,-0.2655414640903473,-0.3093828558921814,-0.18755243718624115,-0.6635087132453918,0.18764537572860718,0.11457280069589615,-0.1574477106332779,0.137034609913826,-0.02929573506116867,-0.013230103999376297,-0.24909277260303497,-0.09853216260671616,0.2012031227350235,0.09756001085042953,0.007949324324727058,0.06811556965112686,-1.2927980422973633,0.20509342849254608,-0.41309672594070435,0.28671592473983765,0.42419353127479553,-0.437522828578949,0.36551424860954285,-0.04039326310157776,-0.18337617814540863,0.011325245723128319,-0.06023886427283287,0.09920821338891983,-0.18916337192058563,0.20136010646820068,0.07630584388971329,0.015832655131816864,-0.8954527974128723,0.05970989167690277,0.18492688238620758,0.33934035897254944,-0.06378854066133499,0.26010915637016296,-0.7410314083099365,-0.3416929244995117,-0.013608160428702831,-0.10375258326530457,0.2244536131620407,-0.6270884871482849,-0.2838708758354187,-0.653512179851532,-0.16609200835227966,-0.09535544365644455,-0.04487382993102074,0.13176529109477997,0.20213523507118225,0.32884886860847473,0.32441622018814087,-0.12727321684360504,-0.04451697692275047,0.18060632050037384,0.38197359442710876,-0.31866466999053955,0.09873495995998383,0.2437301129102707,0.1706518828868866,0.6299852728843689,-0.29824405908584595,-0.20831015706062317,-0.0885791927576065,-0.14582175016403198,0.05337788164615631,0.4543769657611847,0.12659156322479248,-0.07252494245767593,-0.43956395983695984,-0.19100233912467957,0.11726398020982742,-0.01420660875737667,-0.4026155471801758,-0.35156431794166565,0.09150717407464981,-0.1851111650466919,-0.10490214079618454,-0.21995744109153748,-0.16755817830562592,0.3858952522277832,0.6653801202774048,0.20041422545909882,-0.377096563577652,-0.022125061601400375,-0.16230815649032593,0.4667157828807831,0.01816861517727375,0.055158354341983795,-0.2758429944515228,0.13634292781352997,0.08693800866603851,-0.594785749912262,-0.3820417523384094,0.06414573639631271,0.4221022129058838,0.12852801382541656,0.0939357653260231,0.5850264430046082,0.21161027252674103,-0.0097739789634943,0.2216418832540512,-0.9462047219276428,0.28194254636764526,-0.01531256828457117,0.18707191944122314,0.104999840259552,0.08232228457927704,-0.2792741656303406,-0.7053377032279968,0.1144278272986412,0.0652453750371933,-0.3039408028125763,0.23715198040008545,0.16005969047546387,-0.34061336517333984,-0.0071586305275559425,-0.9174414873123169,0.005098799243569374,0.07258641719818115,-0.2726239562034607,-0.26747336983680725,-0.4002176821231842,-0.2226134091615677,0.0033476075623184443,-0.03441254049539566,0.10632979869842529,0.6152558326721191,0.01251277606934309,-0.0019253743812441826,0.1489211618900299,0.40208899974823,0.2827872633934021,0.04772055149078369,-0.04467841237783432,0.2329045534133911,-0.032659564167261124,0.21946726739406586,-0.34975069761276245,0.44101524353027344,-0.07591483741998672,0.044518351554870605,-0.09868773818016052,-0.5592035055160522,0.11431930214166641,0.15812069177627563,0.34186214208602905,0.024929216131567955,-0.17226748168468475,0.005720763001590967,-0.26212745904922485,0.13654635846614838,0.6493625640869141,0.006046202499419451,0.3482842743396759,-0.21458645164966583,0.02116488106548786,-0.5452203750610352,-0.5051161050796509,0.2597496807575226,-0.09619390964508057,0.11381831765174866,-0.10671183466911316,-0.33376947045326233,-0.10628172010183334,0.009070965461432934,0.21431459486484528,-0.4451444149017334,0.1738416999578476,-0.1605883240699768,-0.006400819402188063,0.1190541461110115,0.2907877564430237,0.1303771287202835,-0.08688465505838394,0.2412896752357483,0.1623612344264984,-0.1803017258644104,0.08775639533996582,-0.4148530960083008,0.3700742721557617,0.3098936378955841,0.01612146757543087,-0.25832638144493103,-0.5019910931587219,-0.30262240767478943,0.23235441744327545,-0.38888683915138245
0.10679326951503754,-0.23100939393043518,-0.3149683475494385,0.09539736062288284,-0.1265954226255417,0.11149798333644867,0.09629905968904495,0.14252936840057373,-0.36073464155197144,0.42115479707717896,0.11925718188285828,0.02489222213625908,-0.6175914406776428,0.5754515528678894,-0.2232702076435089,-0.005599476862698793,0.20735330879688263,-0.5081323981285095,0.008757471106946468,-0.17611373960971832,-0.09103389084339142,-0.22630274295806885,-0.38037434220314026,0.07543040812015533,0.03618638589978218,0.03212646767497063,-0.09349450469017029,-0.29678088426589966,-0.4060775637626648,-0.24393069744110107,-0.005320083815604448,0.2952217161655426,0.12863607704639435,0.28085219860076904,-0.3102041482925415,0.010841293260455132,0.16361252963542938,0.10636307299137115,0.02939411625266075,-0.2152329534292221,-0.08510489761829376,-0.06209873780608177,0.07095786184072495,-0.12799498438835144,-0.12228259444236755,-0.17863045632839203,-0.3009984493255615,-0.15827952325344086,-0.22825706005096436,0.3623815178871155,-0.09188490360975266,-0.6256689429283142,0.34312498569488525,0.25882387161254883,0.0777229592204094,0.14703486859798431,0.3683740198612213,-0.9937897324562073,-0.22296744585037231,-0.21880005300045013,-0.04350103810429573,0.5312609672546387,-0.1766938418149948,-0.13926096260547638,0.19460591673851013,-0.15577512979507446,-0.0048064133152365685,0.0773024633526802,0.1859392374753952,-0.022234946489334106,-0.35517966747283936,0.07995101809501648,-0.16844898462295532,0.02429901249706745,0.22524093091487885,0.014974833466112614,-0.3563264012336731,0.11570721119642258,-0.4879700839519501,-0.16583499312400818,-0.171553373336792,0.3484967052936554,-0.10973542183637619,-0.18743760883808136,-0.2519627809524536,-0.20868337154388428,0.17050513625144958,-0.21560607850551605,-0.30803364515304565,0.6626522541046143,-0.35246774554252625,-0.17297948896884918,0.2611297369003296,0.42966553568840027,0.009441560134291649,0.18869329988956451,0.20366090536117554,0.03359740972518921,-0.0264690313488245,0.3025980591773987,-0.4668412506580353,-0.08198552578687668,-0.3446860909461975,-0.1778288334608078,-0.21045871078968048,-0.38004934787750244,-0.09442159533500671,0.054876167327165604,-0.5466068983078003,0.29346391558647156,-0.6683917045593262,0.23852971196174622,-0.49200817942619324,0.3797534108161926,0.040492791682481766,-0.21559803187847137,-0.4787839353084564,0.451637864112854,-0.3633166551589966,0.17441192269325256,0.05123046785593033,0.16959452629089355,0.06295476853847504,0.03892100229859352,-0.2780580520629883,-0.49867716431617737,-0.23620305955410004,0.3919147253036499,0.48564162850379944,-0.16222719848155975,-0.2868536412715912,-0.32513782382011414,0.33826279640197754,-0.034092389047145844,0.3450739085674286,0.2763732373714447,-0.146932452917099,0.2665230929851532,-0.09718168526887894,0.0645962581038475,0.257788747549057,0.18914981186389923,0.18220368027687073,-0.12179680168628693,-0.018741371110081673,0.2028525471687317,-0.29878392815589905,-0.0781664177775383,-0.16587001085281372,-0.06023901328444481,-0.042326200753450394,0.025067351758480072,0.0158085934817791,-0.1672491580247879,-1.0236669778823853,-0.4987281262874603,0.1053895652294159,-0.24225999414920807,0.013129658065736294,-0.0814201608300209,-0.3535369038581848,-0.05984577536582947,-0.16122259199619293,0.029981013387441635,0.011555085889995098,-0.26707136631011963,0.00772365415468812,0.14320209622383118,-0.14808307588100433,0.30651119351387024,-0.04724780470132828,-0.26457667350769043,0.2984623312950134,-0.030152734369039536,0.10030700266361237,0.3402860462665558,0.1537514477968216,0.04709760472178459,0.06510299444198608,0.20162910223007202,-0.185147225856781,0.003606339916586876,0.28228893876075745,-0.1056828573346138,-0.06468483805656433,0.26283568143844604,-0.28809159994125366,-0.23629750311374664,0.7540991902351379,-0.6112812757492065,-0.07470633089542389,0.1683574765920639,-0.17682355642318726,-0.17694930732250214,0.23539601266384125,0.5217987895011902,-0.44304463267326355,0.2649994492530823,0.07732783257961273,-0.22422537207603455,0.15234683454036713,-0.2332889586687088,0.40759068727493286,0.39519062638282776,-0.22598764300346375,-0.18967927992343903,-0.38827431201934814,0.31211745738983154,0.45257559418678284,-0.24410037696361542,0.12976215779781342,-0.07275310903787613,-0.483442485332489,0.3324366807937622,0.12032445520162582,-0.1663195639848709,-0.10217119753360748,-0.48450103402137756,0.12057391554117203,0.14457374811172485,-0.2709599733352661,-0.30413609743118286,0.10886003077030182,0.20899218320846558,0.060539744794368744,0.13198691606521606,-0.7207868695259094,0.04306267946958542,0.28790536522865295,0.257525235414505,0.43132853507995605,-0.40237048268318176,-0.8721224069595337,0.11211010068655014,0.21136444807052612,-0.37291163206100464,-0.015774263069033623,0.3296671211719513,-0.3491075932979584,0.09364859759807587,-2.243973731994629,-0.48404189944267273,-0.21710257232189178,0.31044700741767883,0.1239745169878006,-0.08016470074653625,-0.11358055472373962,0.36947640776634216,-0.16773827373981476,-0.12151432782411575,0.1889013797044754,0.3746994137763977,-0.5701037645339966,-0.06823987513780594,-0.02493269369006157,0.36060184240341187
-1.0871031284332275,0.45518559217453003,-0.1134621798992157,0.04027565196156502,-0.17242340743541718,0.0893617793917656,0.10388974100351334,-0.38305550813674927,0.3561321496963501,0.1459316462278366,-0.2859418988227844,-0.751152753829956,-0.17377783358097076,-0.09166604280471802,-0.08433158695697784,0.055539846420288086,-0.44252538681030273,-0.17369091510772705,-0.12095467001199722,0.04043946415185928,0.012522570788860321,0.07092305272817612,-0.8469085097312927,-0.15294668078422546,0.29816076159477234,-0.04009729623794556,-0.2376805692911148,0.19790378212928772,0.2531551718711853,0.5020711421966553,-0.02253047563135624,0.11240509152412415,-0.1957021802663803,-0.42964377999305725,-0.18540917336940765,0.24654728174209595,0.5168511271476746,0.26874279975891113,-0.1936700940132141,0.2147856056690216,0.006445859093219042,-0.5400063991546631,0.09390049427747726,0.014009165577590466,-0.11931304633617401,0.28693854808807373,0.527995228767395,0.3733750879764557,-0.013979270122945309,0.10961788892745972,-0.044042374938726425,-9.890383807942271e-05,0.35315340757369995,0.14135442674160004,-0.10901288688182831,0.18416628241539001,0.09180931746959686,-1.0154798030853271,0.04684215039014816,0.027389224618673325,0.0014098365791141987,0.01086242776364088,0.5612104535102844,-0.343953937292099,0.24690981209278107,-0.3192030191421509,-0.06487676501274109,-0.16450966894626617,0.493330180644989,-0.2751230299472809,0.1046360656619072,0.12268400937318802,-0.031293440610170364,-0.15075749158859253,0.1582132875919342,-0.3459652364253998,0.04375261440873146,0.36564961075782776,0.2549974024295807,0.36611849069595337,0.5651092529296875,-0.07021117210388184,-0.2596181631088257,0.0663822665810585,-0.1369534134864807,0.06367795169353485,0.1497359275817871,-0.10325822234153748,-0.2716696858406067,0.28370562195777893,-0.08951378613710403,0.07833252102136612,0.026235131546854973,-0.4841296970844269,-0.5692316293716431,-0.025190826505422592,0.1741199940443039,-0.011169744655489922,-0.10390075296163559,0.294416218996048,0.0461018905043602,-0.201308935880661,0.37753570079803467,-0.20414908230304718,0.3301876187324524,-0.15328623354434967,0.28304556012153625,0.07950093597173691,-0.17964449524879456,0.18965543806552887,0.13670651614665985,0.09083008021116257,0.0946299210190773,-0.4176575243473053,0.10513731837272644,-0.11957122385501862,0.0352189801633358,-0.30316412448883057,0.4167329668998718,0.1111760139465332,0.051678743213415146,-0.4995916485786438,0.23035840690135956,0.2113245129585266,0.567987859249115,-0.31852155923843384,0.47458571195602417,0.02603832259774208,0.19538438320159912,-0.3187515139579773,0.17410600185394287,-0.4909922182559967,0.381360799074173,0.1345263123512268,-0.0762740820646286,0.38711681962013245,-0.07416588068008423,0.19223912060260773,0.11575636267662048,-0.00493365665897727,-0.30781280994415283,0.24337004125118256,-0.061052680015563965,-0.16149911284446716,-0.22924378514289856,0.22487090528011322,-0.044420503079891205,-0.06995254009962082,0.5211347341537476,-0.2468523234128952,0.015220989473164082,-0.16735459864139557,-0.37899425625801086,0.26196539402008057,-0.21051977574825287,0.30920013785362244,-0.13318613171577454,-0.348257452249527,-0.07947418838739395,-0.03873107582330704,-0.3857235312461853,-0.062207721173763275,-0.17642240226268768,0.08499377965927124,-0.1272042691707611,-0.10944444686174393,0.05173712968826294,-0.16314123570919037,0.42497745156288147,-0.20370826125144958,-0.31375783681869507,0.05340682342648506,0.08656953275203705,0.10745706409215927,-0.2997497320175171,0.13382336497306824,-0.22705306112766266,0.35111016035079956,-0.5984055399894714,-0.2614254951477051,-0.028767850250005722,-0.5724201202392578,-0.3672894537448883,0.031821124255657196,0.0937088280916214,0.19719769060611725,0.06041194126009941,-0.3983963429927826,0.18966390192508698,-0.23414060473442078,0.025241399183869362,-0.2502032518386841,0.1599932312965393,-0.04314032196998596,0.08349505066871643,0.02914378046989441,0.10340578854084015,0.034613385796546936,-0.10388753563165665,0.16300086677074432,-0.04072539880871773,0.24554191529750824,0.09947755932807922,0.011627831496298313,0.137535959482193,-0.3418976664543152,-0.10408090800046921,-0.4043470323085785,-0.23722098767757416,-0.3176170587539673,-0.2662539780139923,-0.04172779247164726,-0.13772200047969818,0.2658899128437042,0.17456786334514618,-0.8238759636878967,0.08217266201972961,0.24581308662891388,0.7039074301719666,-0.0922338142991066,0.05605291202664375,0.11404529213905334,0.2693300247192383,0.25987911224365234,-0.06448230147361755,-0.4066087007522583,0.1882636994123459,0.43353471159935,0.27580609917640686,-0.4816347360610962,-0.1453612595796585,-0.08409278839826584,0.14994816482067108,0.3565313518047333,-0.006705254316329956,-0.2792333960533142,-0.28540945053100586,-0.10654108226299286,0.44425010681152344,-0.3691519796848297,-0.08984029293060303,0.10914509743452072,-0.3345290720462799,-0.4420385956764221,0.01886698603630066,0.12598693370819092,-0.29104846715927124,-0.27439093589782715,0.1915472447872162,0.6762228012084961,-0.08543683588504791,-0.03224169462919235,-0.19904464483261108,0.05880715698003769,0.22501997649669647,-0.10391785949468613
-0.7529258131980896,0.5481793880462646,0.2850266396999359,-0.5251951217651367,0.15717966854572296,-0.24374334514141083,0.30046042799949646,0.4953039288520813,0.10808122158050537,0.09063680469989777,0.08841995894908905,-0.3765092194080353,0.19922307133674622,-0.42918169498443604,-0.5007196068763733,0.2296006828546524,0.0976003110408783,0.29686254262924194,-0.18696539103984833,0.07119139283895493,-0.2052593231201172,0.253313273191452,0.015055143274366856,-0.4977712035179138,-0.08021476119756699,0.2937074899673462,0.09806749224662781,-0.24297566711902618,0.5679795145988464,-0.11656519770622253,0.23560728132724762,-0.37918663024902344,0.021874239668250084,0.12192410975694656,-0.033579833805561066,-0.13177673518657684,0.04498569294810295,-0.5613687038421631,0.1045868992805481,0.10435808449983597,-1.0635557174682617,0.19179677963256836,-0.04700247943401337,-0.09652244299650192,0.5279412269592285,0.1163678988814354,-0.3180862367153168,0.04010958969593048,0.18653477728366852,0.1639627367258072,0.09277141839265823,0.07800731062889099,-0.35801243782043457,0.09385230392217636,-0.0037189775612205267,0.16808713972568512,0.06646674871444702,-0.35543838143348694,-0.26499927043914795,-0.903325617313385,0.11269547790288925,-0.28597503900527954,-0.25312674045562744,-0.1856527328491211,-0.11297966539859772,-0.20936980843544006,-0.6027528643608093,-0.13637368381023407,0.0358147919178009,-0.455533504486084,-0.1362607777118683,0.38294750452041626,-0.5129112005233765,-0.012030298821628094,0.3024301528930664,-0.47913429141044617,0.12236485630273819,-0.2727617621421814,-0.7123779654502869,0.18765969574451447,-0.6492862105369568,-0.3632105588912964,-0.34095099568367004,-0.05503769591450691,0.06081671267747879,-0.0164178553968668,0.6240549087524414,0.20034290850162506,-0.6046095490455627,-0.7166274785995483,-0.41940179467201233,0.1331188976764679,-0.009539701975882053,0.5779269933700562,0.2469923347234726,-0.22344465553760529,0.12869660556316376,0.06932923197746277,0.32779040932655334,0.030050955712795258,0.18167290091514587,0.2186688929796219,0.21722501516342163,-0.20146991312503815,-0.14710092544555664,-0.08649373054504395,-0.23498746752738953,-0.5828190445899963,0.18128657341003418,0.08469901978969574,-0.010972836054861546,0.013071163557469845,-0.5303596258163452,0.3437005579471588,-0.17387321591377258,0.16460654139518738,-0.4780820906162262,-0.8705875873565674,0.030496085062623024,0.3332502245903015,-0.0042978087440133095,0.03562590852379799,-0.35211053490638733,0.21874915063381195,-0.07792404294013977,-0.2979530692100525,-0.04977390915155411,0.3312779366970062,-0.8604775667190552,0.04415233060717583,-0.06637999415397644,-0.33982598781585693,0.07782499492168427,-0.46829137206077576,-0.12330050021409988,0.3628072738647461,-0.4769802689552307,0.06623104214668274,-0.1312287300825119,0.13198897242546082,0.1787334829568863,-0.15892605483531952,-0.4009365737438202,-0.10376253724098206,0.30788883566856384,-0.06274086982011795,0.06468240916728973,0.45130565762519836,-0.2676405608654022,-0.5246683955192566,0.3257807791233063,-0.4804893434047699,0.15259100496768951,-0.43011075258255005,-2.8353662490844727,-0.10769297182559967,-0.15499204397201538,0.15668664872646332,-0.5089805722236633,-0.7683890461921692,0.2748420238494873,-0.0873950719833374,-0.4401955008506775,-0.3865658640861511,-0.04845205694437027,0.17102353274822235,-0.32147660851478577,0.27546146512031555,0.06612128019332886,0.24005039036273956,-0.23803764581680298,-0.5492877960205078,-0.6490532755851746,-0.22083209455013275,-0.12630218267440796,0.13431885838508606,0.06073698401451111,0.2118491679430008,-0.08534393459558487,0.20946970582008362,0.6163402795791626,0.419560045003891,-0.056785278022289276,-0.2830120027065277,0.08683722466230392,0.2371949404478073,-0.038127824664115906,0.3354315459728241,-0.18447841703891754,-0.22661192715168,0.21768048405647278,0.2112726867198944,-0.28438645601272583,-0.27411577105522156,0.7752723097801208,0.208261176943779,0.19634780287742615,-0.05992555990815163,-0.6112738251686096,0.42853420972824097,-0.1538420021533966,0.6200756430625916,0.3826669156551361,-0.051393456757068634,0.055858708918094635,0.09156207740306854,-0.04185066372156143,0.5641369819641113,-0.7673342227935791,-0.10796740651130676,-0.18809542059898376,-0.20908842980861664,-0.3034990429878235,0.07333987951278687,-0.055813807994127274,0.2625342011451721,0.10026712715625763,0.20986030995845795,0.14604859054088593,-0.5194960236549377,0.3555490970611572,-0.125522181391716,0.16365306079387665,0.24287904798984528,-0.6082576513290405,0.5564140677452087,-0.3425838053226471,0.446725070476532,-0.2298903465270996,0.46721151471138,0.20968793332576752,-0.17081519961357117,-0.01618618704378605,-0.01824040524661541,-0.14300473034381866,0.09276390820741653,0.23151294887065887,-0.03659440577030182,0.006585215218365192,-0.2600865662097931,-0.1205335259437561,-0.10667794942855835,0.31178274750709534,0.21767756342887878,-0.31063833832740784,0.04616842046380043,-0.21332582831382751,-0.17113851010799408,0.25629356503486633,0.10982176661491394,-0.15666186809539795,0.3866036832332611,-0.35588276386260986,0.26635706424713135,-0.058978624641895294,-0.15031935274600983
-0.35396650433540344,0.04600232467055321,-0.1422959715127945,0.16322150826454163,0.1241452693939209,0.11976058781147003,0.13603462278842926,-0.3399173617362976,-0.42502641677856445,-0.415163516998291,-0.4451299011707306,-0.12577170133590698,-0.226608008146286,-0.23942697048187256,-0.32507139444351196,-0.40983501076698303,0.017500830814242363,0.011982489377260208,-0.20308604836463928,0.12198232114315033,0.14382019639015198,0.10056407004594803,0.012431359849870205,-0.34373295307159424,-0.4551737308502197,0.1471686065196991,-0.3394944369792938,-0.352453351020813,0.09475622326135635,0.08075787872076035,0.14153002202510834,-0.2514491379261017,0.31412389874458313,-0.1358506828546524,0.24023446440696716,0.3202992081642151,0.6190230846405029,-0.32585254311561584,0.0702916607260704,0.09963997453451157,0.33384037017822266,0.4076921045780182,-0.06428558379411697,-0.042591989040374756,-0.44919779896736145,-0.1827523410320282,0.09948398172855377,-0.21436892449855804,-0.0932905301451683,-0.12299322336912155,-0.4540199041366577,0.19311702251434326,-0.4479309320449829,-0.3850058615207672,-0.13294465839862823,0.14670126140117645,0.517918050289154,-0.39173248410224915,-0.01957409270107746,0.41193723678588867,0.12689128518104553,-0.20842421054840088,0.01294170506298542,-0.25872287154197693,0.19693784415721893,-0.12504178285598755,0.078905388712883,-0.02226170338690281,-0.15444296598434448,0.2414158433675766,0.16138292849063873,0.314466655254364,-0.1785944253206253,-0.2789210379123688,-0.030358221381902695,0.49937382340431213,-0.05153776705265045,0.23050054907798767,-0.16805468499660492,-0.8362427353858948,-0.20128315687179565,-0.07618394494056702,0.0603305883705616,-0.06487154215574265,0.10470971465110779,-0.7831111550331116,-0.09579450637102127,-0.5017668604850769,0.13677512109279633,0.1458711475133896,-0.03031742386519909,-0.4200492799282074,-0.5740696787834167,-0.8710328936576843,0.027004742994904518,-0.24353377521038055,0.4661024510860443,0.16452327370643616,-0.8172823190689087,-0.4169537127017975,0.19476190209388733,0.0045496681705117226,-0.033111851662397385,-0.0006990983383730054,0.12695716321468353,0.4487166702747345,-0.10637342184782028,0.3164129853248596,0.036535169929265976,0.77607661485672,-0.06737346202135086,-0.1492919921875,0.36512893438339233,-0.06526423245668411,-0.4412529468536377,0.1316939890384674,0.2063715010881424,0.13058756291866302,-0.20879119634628296,-0.03706783428788185,-0.1336642950773239,-0.23181524872779846,-0.14524446427822113,0.3133353888988495,-0.09171266853809357,-0.2907734215259552,0.4361460208892822,0.17116640508174896,0.8331995010375977,-0.07537111639976501,0.10962212830781937,0.034895073622465134,-0.26900407671928406,-0.08586614578962326,-0.28076139092445374,0.22377145290374756,-0.4945976734161377,0.049791064113378525,0.09148630499839783,-0.24448606371879578,-0.0005468077142722905,-0.3632670044898987,0.2115062028169632,0.26596832275390625,-0.0772998034954071,-0.09903712570667267,0.18171243369579315,-0.34128880500793457,0.031076807528734207,0.14133892953395844,0.002636984921991825,0.12031293660402298,0.29813969135284424,-0.07003241777420044,0.09700606763362885,0.030575508251786232,0.26964274048805237,0.04302908852696419,-0.3695138692855835,0.5514946579933167,0.08824249356985092,-0.2858177721500397,0.058671075850725174,0.3113888204097748,-0.44289329648017883,-0.24500277638435364,-0.34542930126190186,-0.06051521375775337,0.2900432050228119,-0.20358914136886597,0.28511863946914673,0.1020510345697403,0.08731202781200409,-0.41217756271362305,-0.35018861293792725,-0.3814701735973358,-0.17615386843681335,0.3812965750694275,0.04724178835749626,0.257781982421875,-0.03679272159934044,0.1632108986377716,0.4612637758255005,-0.002662770450115204,-0.21084880828857422,-0.6363945603370667,-0.33494818210601807,0.061500564217567444,0.2947428226470947,-0.4246194362640381,-0.2718547284603119,-0.3159637749195099,-0.3718624711036682,-0.19948163628578186,-0.7160887122154236,-2.5366482734680176,0.27232223749160767,0.5319388508796692,-0.27744320034980774,0.33087635040283203,-0.1101309135556221,0.3291654884815216,-0.20236067473888397,0.25597578287124634,-0.5049852728843689,-0.1251191943883896,-0.028867678716778755,0.02741149812936783,0.18351371586322784,-0.13310621678829193,-0.3246006965637207,0.049210287630558014,-0.35321155190467834,0.029872123152017593,0.1128440797328949,0.15558627247810364,-0.2474994957447052,0.10332848876714706,0.4764946699142456,-0.024579035118222237,-0.3801821768283844,-0.2798033058643341,0.29334789514541626,0.03425344452261925,-0.11161316931247711,0.3837432861328125,-0.1485675722360611,0.40020516514778137,-0.02927079051733017,0.3783249258995056,0.016061894595623016,0.15202756226062775,-0.5470991134643555,-0.46831372380256653,-0.810680627822876,-0.2587001621723175,-0.3210286498069763,0.27309104800224304,-0.2164248377084732,-0.0036347771529108286,0.17398671805858612,0.19547821581363678,-0.5333797335624695,-0.08890298008918762,-0.38250771164894104,0.2239374965429306,0.48754170536994934,0.4012870788574219,-0.11965278536081314,0.1730930209159851,0.32706382870674133,0.09163028001785278,0.04081321507692337,-0.28543201088905334,-0.12409084290266037,-0.10564165562391281
0.2640020251274109,-0.24181583523750305,-0.3582896590232849,-0.035255495458841324,-0.13341043889522552,0.2546105682849884,0.0525764636695385,-0.03798947110772133,-0.03694988042116165,0.1752861887216568,-0.041777707636356354,-0.33143681287765503,0.6775170564651489,-0.3191395699977875,-0.20954282581806183,-0.11767502874135971,0.07884518802165985,0.017681146040558815,-0.053052011877298355,-0.37410780787467957,0.18507598340511322,-0.5566540956497192,-0.5301845073699951,0.11088864505290985,-0.9751455783843994,-0.3483709990978241,-0.017226774245500565,0.21109025180339813,-0.3646962344646454,0.030743740499019623,0.05021703615784645,0.23385101556777954,0.5281834602355957,-0.04514488950371742,-0.09202595055103302,0.24219219386577606,0.08941814303398132,-0.3223888874053955,0.5743498206138611,0.07105500251054764,0.279798299074173,0.09473712742328644,-0.3556714355945587,0.15941542387008667,0.24192598462104797,0.19187957048416138,-0.18404069542884827,0.17145439982414246,0.5604389905929565,0.05259627848863602,-0.15568268299102783,0.023443685844540596,0.13276991248130798,0.5635064840316772,-0.06206709146499634,0.3690790832042694,-0.1088339164853096,-0.05016850307583809,0.13920584321022034,-0.47098487615585327,0.7173311710357666,0.13245604932308197,-0.06504212319850922,-0.3157382607460022,0.29184386134147644,0.5150688290596008,-0.13273921608924866,0.12687170505523682,-0.06379435956478119,-0.5791676640510559,0.5529906749725342,-0.10160362720489502,-0.057546306401491165,-0.06004498898983002,0.6844044923782349,-0.1048249825835228,0.2376340627670288,-0.10410258919000626,-0.34471622109413147,-0.26625141501426697,0.7149083614349365,-0.29190537333488464,0.23591826856136322,0.295768678188324,0.2343381941318512,0.20411956310272217,0.12414845824241638,-0.04233545809984207,-0.1715221405029297,-0.07917435467243195,-0.32847103476524353,-0.4401296377182007,-0.1319923847913742,0.11332407593727112,0.21359947323799133,-0.2674243152141571,0.17669972777366638,0.03915312886238098,-0.3536643087863922,-0.015852849930524826,-0.2394454926252365,0.15218009054660797,0.09572190791368484,-0.17362086474895477,0.3020942211151123,-0.244043231010437,-0.26471197605133057,-0.4975699782371521,0.08762464672327042,0.2277946174144745,-0.16582733392715454,-0.14746524393558502,-0.46109697222709656,0.18619756400585175,-0.11167804896831512,0.16699641942977905,-0.1564316302537918,0.1439085304737091,0.2520108222961426,-0.1029946357011795,-0.15136118233203888,0.025393959134817123,-0.08647246658802032,-0.00032344216015189886,0.33021309971809387,0.44902101159095764,-0.6833493113517761,-0.2905467450618744,0.13772448897361755,-0.5270436406135559,-0.35253584384918213,-0.40071722865104675,-0.46258974075317383,-0.022440822795033455,0.14663252234458923,0.026994554325938225,0.5443755984306335,-0.5742701888084412,-0.35776180028915405,-0.25158780813217163,0.07492971420288086,0.30667808651924133,0.03870312124490738,-0.04668532684445381,0.23413671553134918,-0.522393524646759,-0.14263251423835754,-0.49846479296684265,-0.07123371958732605,0.05376972258090973,0.06462526321411133,0.37660932540893555,0.24850666522979736,-0.08269063383340836,-0.3656134009361267,0.2580389678478241,0.03310377150774002,-0.4230440855026245,-0.03243650496006012,-0.17896701395511627,-0.10154134780168533,-0.16900299489498138,0.25326091051101685,-0.19033293426036835,-0.16835570335388184,0.5565337538719177,-0.1605922430753708,0.05803171917796135,-0.11352439969778061,0.21181535720825195,0.2672175467014313,0.3183467984199524,-0.5564072728157043,-0.44090646505355835,-0.12547773122787476,-0.247051402926445,0.013571971096098423,-0.6008591651916504,-0.13495418429374695,-0.34261009097099304,0.24238745868206024,-0.34737640619277954,-0.17057274281978607,-0.10150434821844101,-0.5317862629890442,0.04703095182776451,-0.6582896709442139,-0.0424836203455925,0.2592596411705017,-0.3975715935230255,-0.6053948402404785,-0.28382357954978943,0.16137628257274628,-0.03260337933897972,0.8679832220077515,0.17975834012031555,0.38994070887565613,-0.30081942677497864,0.3321072459220886,0.06634298712015152,-0.0711832046508789,-0.02122696302831173,0.2565721273422241,-0.35487300157546997,0.41027525067329407,0.23867309093475342,0.6578215956687927,0.10753731429576874,0.06269488483667374,0.032011087983846664,0.12637817859649658,0.13277281820774078,-0.16140587627887726,0.5249130725860596,-0.8616963028907776,-0.020604657009243965,0.1703692227602005,-0.4225188195705414,-0.3516998589038849,0.017242539674043655,0.16693097352981567,-0.04479232057929039,0.016244441270828247,-0.07770024985074997,-0.4695467948913574,0.02428464964032173,0.1468404084444046,-0.20119057595729828,-0.0005174346151761711,0.3769798278808594,-0.07094346731901169,0.1501634567975998,0.2995871603488922,0.1776086688041687,0.23393601179122925,-0.09198898077011108,-0.3310491442680359,0.22839398682117462,-0.034190502017736435,-0.5251672267913818,-0.5261682271957397,-0.5584076046943665,-0.060106851160526276,0.11330614984035492,0.02978859283030033,-0.08833356201648712,0.06888465583324432,0.024500681087374687,0.06596453487873077,-0.21610043942928314,-0.48029279708862305,-0.16219836473464966,0.5616704225540161,0.24548496305942535,0.302205353975296,-0.21276451647281647
