-0.03328604996204376,0.02319728396832943,0.08668846637010574,0.003285797778517008,0.05380957946181297,0.03880641609430313,-0.03919394314289093,0.13319511711597443,-0.036903172731399536,0.045873720198869705,-0.13172271847724915,0.17297746241092682,-0.03619840368628502,0.0779348686337471,-0.033194538205862045,0.09298716485500336,-0.19790619611740112,0.021264074370265007,-0.09579698741436005,-0.15440498292446136,0.2532793879508972,-0.025132473558187485,0.02685791254043579,0.20201240479946136,-0.191663458943367,-0.018661120906472206,-0.011648328974843025,-0.18175776302814484,-0.0719158872961998,0.0633578896522522,-0.07213442027568817,-0.0076991417445242405,0.04433049261569977,-0.12585490942001343,-0.24383904039859772,-0.029390176758170128,-0.10887520760297775,0.0331689715385437,-0.0680587887763977,-0.14026647806167603,0.008729830384254456,-0.17752252519130707,0.23391912877559662,-0.08147188276052475,0.062491368502378464,0.060365743935108185,0.023401908576488495,-0.025971204042434692,-0.1028180718421936,-0.008144973777234554,-0.04750695452094078,-0.01672714203596115,0.04342925176024437,-0.12431342154741287,0.024665797129273415,0.0637912005186081,0.11560595780611038,-0.07435252517461777,-0.02054392732679844,-0.014164980500936508,-0.003953307867050171,0.24462024867534637,-0.023669952526688576,0.06560027599334717,0.00036394462222233415,-0.18376748263835907,-0.08245694637298584,-0.0953635573387146,0.18435388803482056,-0.0010792273096740246,-0.22435525059700012,0.07783201336860657,0.05355827882885933,0.020459845662117004,0.04178879037499428,-0.0006436092662625015,-0.07440635561943054,-0.23255513608455658,-0.12610292434692383,-0.1823379099369049,0.01042774599045515,-0.0894576758146286,-0.011617898009717464,0.06353777647018433,0.21341359615325928,0.04551861435174942,-0.14702767133712769,0.004241465125232935,-0.17901267111301422,-0.09225068241357803,0.17400208115577698,-0.06831913441419601,-0.14513236284255981,-0.05946453660726547,0.07927637547254562,-0.08725325018167496,0.214812770485878,0.26507481932640076,0.23673808574676514,0.07799980044364929,-0.04058169573545456,-0.17250694334506989,-0.07324562221765518,0.20140908658504486,-0.04669753089547157,0.03749808296561241,0.04537224769592285,0.04857724532485008,-0.07418246567249298,0.2271365374326706,-0.034685391932725906,0.013358484022319317,0.24233640730381012,-0.026080362498760223,-0.07815685868263245,0.08323793858289719,-0.04831675812602043,-0.1808343529701233,-0.04322775453329086,-0.03142770007252693,-0.15199236571788788,0.004022080916911364,-0.09885627776384354,0.06337413191795349,-0.04614906385540962,-0.02162552811205387,-0.2004973441362381,-0.018128318712115288,-0.05092581361532211,0.14834220707416534,-0.06300585716962814,-0.03549473360180855,-0.066212497651577,0.06397605687379837,-0.08005987107753754,-0.011463254690170288,-0.016832508146762848,-0.016807392239570618,0.1888047158718109,-0.052647218108177185,0.06907077133655548,0.3232908248901367,0.0669303685426712,0.09054244309663773,-0.17916594445705414,0.22243228554725647,-0.04725440591573715,0.01172447670251131,0.03299982473254204,-0.03543316200375557,-0.08488994091749191,0.15089519321918488,-0.0066582509316504,0.05116619914770126,0.14928579330444336,-0.3018374443054199,0.0911606177687645,-0.05916089564561844,-0.03879294916987419,-0.08180369436740875,0.12650172412395477,0.11622326076030731,0.07963751256465912,0.02169174700975418,0.02846875600516796,-0.10080812126398087,-0.011849584057927132,-0.09082023799419403,-0.02148410864174366,0.18613725900650024,0.010921590961515903,0.0356559194624424,-0.0635034590959549,-0.28536170721054077,0.07604123651981354,-0.051876578480005264,-0.009180226363241673,0.0007131569436751306,0.24458743631839752,0.04590919613838196,-0.07976874709129333,-0.09671743214130402,-0.05475592240691185,-0.046673715114593506,-0.01053375843912363,-0.030184932053089142,-0.05465592443943024,0.21168847382068634,-0.09500791132450104,-0.05242892727255821,-0.027906283736228943,-0.038912009447813034,0.050595249980688095,0.1355789750814438,0.08577780425548553,0.12412333488464355,0.16224947571754456,-0.09613363444805145,0.08952531963586807,-0.014271434396505356,0.15610380470752716,0.07698188722133636,-0.1003824770450592,0.02231600694358349,0.05545618012547493,0.0952434241771698,0.1600886732339859,-0.0019876849837601185,-0.011354235000908375,-0.05884457007050514,0.0006352766649797559,0.09357132762670517,0.005374366417527199,-0.1229110136628151,0.1531345546245575,0.02185986377298832,0.17233392596244812,0.07526253163814545,0.09111201018095016,-0.1521640568971634,0.0016557410126551986,-0.021181633695960045,-0.04797843471169472,0.2512117326259613,0.07904204726219177,-0.08347051590681076,0.033526621758937836,0.13182973861694336,-0.090685173869133,-0.08741787075996399,-0.06335298717021942,0.121808260679245,-0.005059097893536091,-0.03196040913462639,0.028485536575317383,-0.02235455997288227,-0.0030093577224761248,-0.17171691358089447,-0.055430855602025986,-0.05181541293859482,0.1101173609495163,0.18924261629581451,-0.03562282770872116,0.004344515968114138,-0.09859460592269897,-0.0879676416516304,-0.19175384938716888,-0.05801314860582352,0.020028768107295036,-0.02317745052278042,0.18493685126304626,0.2214079350233078,-0.06618200242519379,0.10035577416419983,-0.014603130519390106,-0.13587912917137146
0.15988494455814362,0.1266697347164154,-0.10621154308319092,-0.1651322841644287,-0.06368434429168701,-0.3312287926673889,0.15321587026119232,-0.05597531795501709,0.012133779004216194,-0.1063341498374939,0.13891121745109558,-0.2229243665933609,0.17653483152389526,-0.023661084473133087,-0.11501490324735641,-0.17081235349178314,-0.20536074042320251,0.0200867410749197,0.047162607312202454,-0.06244593858718872,0.009604721330106258,-0.05026480183005333,-0.15262572467327118,0.06562018394470215,-0.005637718830257654,0.055507250130176544,-0.03177516907453537,0.08874796330928802,-0.20689637959003448,0.08229540288448334,-0.17732621729373932,0.1346377581357956,0.03231339529156685,0.15132537484169006,-0.2541384994983673,-0.06804933398962021,0.08155512064695358,0.06888090074062347,0.31455880403518677,-0.10297851264476776,-0.08843716979026794,-0.01440358068794012,0.057607732713222504,0.011096421629190445,-0.2712624669075012,0.23310072720050812,-0.25681272149086,-0.03802644833922386,0.4203651547431946,-0.13206122815608978,0.16703841090202332,-0.026708563789725304,0.19938448071479797,0.20660138130187988,0.14958009123802185,0.3221995234489441,0.28907346725463867,-0.09390415996313095,-0.18585304915905,0.02675500512123108,0.1355697214603424,-0.00832840334624052,-0.11257017403841019,0.26711466908454895,-0.2824535071849823,-0.029004592448472977,0.519862711429596,0.09808925539255142,-0.1137416660785675,-0.02228018268942833,-0.1637963503599167,0.17592555284500122,-0.10850150138139725,0.2903669476509094,-0.12026359140872955,-0.299207866191864,0.08965124189853668,0.15809562802314758,-0.19519378244876862,-0.0742783173918724,0.06013787165284157,-0.07060816138982773,-0.06230005994439125,-0.1330050826072693,0.08955278247594833,-0.03259529173374176,0.2695421278476715,-0.1407548040151596,0.1798185110092163,0.42236900329589844,-0.021168183535337448,-0.06434108316898346,-0.029383784160017967,0.05771709606051445,-0.20615023374557495,0.116100013256073,-0.01417586486786604,0.008306187577545643,0.11880737543106079,-0.08543792366981506,0.13399533927440643,-0.10453648865222931,0.10137233883142471,-0.11325601488351822,-0.16774024069309235,-0.13172639906406403,-0.13584625720977783,-0.11884158104658127,0.2393462061882019,-0.07793639600276947,-0.15017548203468323,-0.07669078558683395,-0.04734567180275917,-0.008240759372711182,0.02049611136317253,0.16289474070072174,0.17000649869441986,-0.35386374592781067,0.06024292856454849,0.030815327540040016,0.07248396426439285,0.1256992667913437,0.47300419211387634,0.14722545444965363,0.17610298097133636,-0.03923765942454338,-0.09428815543651581,-0.05607569217681885,-0.1247352808713913,-0.10110761970281601,0.11789605021476746,-0.0077391681261360645,-0.08353112637996674,-0.24456872045993805,0.2717037796974182,-0.226468026638031,-0.23964384198188782,0.21092550456523895,0.07306940853595734,-0.07135647535324097,-0.06263572722673416,0.07157792150974274,0.13127905130386353,-0.10164531320333481,-0.14927396178245544,0.07811260968446732,-0.16864348948001862,-0.2036895751953125,0.11119628697633743,-0.020694250240921974,0.03978047892451286,0.015537749044597149,0.06528984010219574,0.014799768105149269,0.10573075711727142,-0.09019790589809418,0.1476440131664276,0.17078986763954163,-0.000645419058855623,0.10829096287488937,-0.2648599445819855,0.02536706067621708,0.20678769052028656,0.13233795762062073,-0.170210063457489,-0.12201396375894547,0.007253577001392841,0.029828812927007675,0.047923844307661057,0.15155157446861267,0.1616181880235672,-0.10762988030910492,0.16776712238788605,0.35171833634376526,-0.04504116252064705,0.04973425343632698,-0.27588367462158203,-0.08150772005319595,0.006735523231327534,-0.31890514492988586,0.015407668426632881,-0.18257936835289001,-0.33406588435173035,-0.06297282129526138,-0.011045204475522041,-0.12737594544887543,0.026581192389130592,0.04172816127538681,0.07242089509963989,-0.1798165738582611,0.2714219093322754,0.009156059473752975,0.0002409467415418476,-0.14298377931118011,0.010246984660625458,0.15182384848594666,-0.17234864830970764,-0.2714439332485199,0.046882566064596176,-0.0629650354385376,0.03541097044944763,0.2250756323337555,-0.35595622658729553,0.1504419445991516,0.2253272831439972,-0.19177933037281036,0.03828190267086029,-0.009840326383709908,-0.1387597918510437,-0.057573117315769196,0.07500272244215012,0.17375995218753815,0.260360985994339,-0.021504871547222137,0.1980961114168167,-0.09741762280464172,0.4629322588443756,0.20081065595149994,-0.03473227098584175,0.1972317397594452,-0.06968218833208084,-0.012998460792005062,-0.2637437880039215,-0.06774330884218216,0.024403220042586327,0.2180941253900528,0.23023265600204468,-0.1081550344824791,0.1156320795416832,0.01714199222624302,-0.36201512813568115,0.09066314995288849,0.10833578556776047,-0.2820280194282532,-0.16755709052085876,-0.15155117213726044,0.07759492844343185,-0.027815449982881546,-0.03358234837651253,-0.20137426257133484,0.0908127948641777,-0.031478267163038254,0.08161336183547974,0.12593670189380646,0.12246176600456238,0.12692797183990479,0.02937786467373371,-0.0029094559140503407,0.033985137939453125,0.16241547465324402,-0.11086735129356384,-0.010422139428555965,0.05497632920742035,-0.1254720389842987,0.06381478160619736,0.02012527734041214
0.12079006433486938,0.09131447225809097,0.07568252831697464,0.19416019320487976,0.00039613741682842374,-0.006898909341543913,-0.10019713640213013,-0.12135273218154907,-0.14741237461566925,-0.11345458030700684,-0.1629636287689209,0.06203560531139374,-0.030195511877536774,-0.019859369844198227,0.18654347956180573,0.1030011922121048,-0.023954767733812332,0.186664417386055,0.25034448504447937,-0.020614823326468468,0.11716018617153168,0.32834526896476746,-0.056313544511795044,-0.18031908571720123,0.2263779193162918,-0.19436322152614594,-0.42186322808265686,0.06644684821367264,0.25014689564704895,0.21001991629600525,-0.1131635457277298,-0.053577080368995667,0.05816379189491272,-0.06021015718579292,0.08162368834018707,0.1364680379629135,0.24477572739124298,0.18761421740055084,0.022822050377726555,0.004810566082596779,0.08863485604524612,0.12640908360481262,-0.011880923993885517,0.03751412406563759,0.08709012717008591,0.064381904900074,0.08032738417387009,0.11756907403469086,0.06907939910888672,-0.0846996158361435,0.004049698822200298,-0.2320639044046402,-0.07196134328842163,-0.02780863642692566,-0.09662139415740967,-0.4274636507034302,-0.001926696626469493,0.13395017385482788,-0.05500505119562149,-0.06735226511955261,0.2590425908565521,0.06530394405126572,0.22849039733409882,0.06262936443090439,-0.2595926821231842,0.11516092717647552,-0.06531805545091629,0.07582106441259384,0.09014150500297546,0.07800991088151932,-0.22694535553455353,0.19308839738368988,0.2504333555698395,-0.07362194359302521,0.27248263359069824,-0.0249270498752594,0.09784059226512909,0.07682815194129944,0.00617821654304862,-0.3068181574344635,0.07219266146421432,-0.06320174783468246,0.03289283812046051,-0.021254882216453552,0.03499218448996544,0.09215253591537476,-0.06964181363582611,-0.03529038652777672,-0.009652845561504364,-0.04824298620223999,-0.12896397709846497,-0.24849750101566315,0.008402502164244652,0.06605792045593262,-0.08052227646112442,0.3079989552497864,-0.02663460373878479,-0.08337593078613281,0.14642234146595,0.15023452043533325,-0.17879444360733032,0.037189070135354996,-0.11964964121580124,-0.03216584771871567,0.07763650268316269,-0.1480073183774948,-0.19475503265857697,-0.15298621356487274,-0.08648715913295746,-0.01865977607667446,-0.045274507254362106,0.11789491027593613,-0.059742964804172516,-0.23610663414001465,0.08780233561992645,0.001533379778265953,0.14259831607341766,0.09864490479230881,-0.22640372812747955,-0.15654116868972778,-0.17270396649837494,0.030839242041110992,0.02626754902303219,0.09584517776966095,-0.19110313057899475,-0.16047613322734833,0.06030331924557686,0.1623132973909378,0.12109304964542389,-0.08861751854419708,0.13742150366306305,-0.17510591447353363,-0.2089521884918213,0.03981173411011696,-0.20249249041080475,-0.08433419466018677,0.09792632609605789,0.12319198995828629,0.024013694375753403,0.1767355501651764,0.1535056084394455,-0.03507938235998154,0.013482955284416676,0.04047837853431702,-0.0603337362408638,0.03519802540540695,-0.08638843148946762,0.1195293441414833,-0.14898169040679932,0.010749266482889652,-0.17636677622795105,-0.06741722673177719,-0.17982707917690277,-0.07341897487640381,0.056134216487407684,0.166570246219635,0.10019209235906601,-0.17593170702457428,0.030039357021450996,-0.30735716223716736,0.040090594440698624,-0.2569848299026489,-0.1197802945971489,-0.1901276558637619,0.016298554837703705,0.015367504209280014,-0.014969540759921074,0.3301931321620941,0.22750148177146912,0.07278595119714737,0.1414353847503662,-0.08153589069843292,0.10772767663002014,-0.18821081519126892,-0.1444627195596695,0.021597841754555702,-0.03989348188042641,-0.027669508010149002,-0.029453586786985397,0.051976222544908524,0.09608463943004608,-0.282720685005188,0.02288251742720604,0.009605289436876774,-0.12858720123767853,0.09339958429336548,0.08302457630634308,-0.0593743659555912,-0.012924141250550747,-0.25182172656059265,-0.007512282580137253,0.0151113485917449,-0.05169720947742462,-0.08190575242042542,0.1309720277786255,-0.04398445785045624,-0.049370840191841125,-0.03596210479736328,0.13324689865112305,0.09299911558628082,0.007429951336234808,0.21485161781311035,0.15406137704849243,-0.03420940786600113,-0.059465616941452026,0.011890112422406673,0.15929703414440155,0.002515097614377737,0.1252150982618332,-0.3146934509277344,-0.05474426597356796,-0.004309778567403555,-0.3006051480770111,-0.24107399582862854,0.03243115544319153,0.019768625497817993,-0.12268076837062836,0.043026164174079895,0.19325809180736542,-0.0973316952586174,-0.40713369846343994,-0.005854065530002117,-0.0805547907948494,0.06026043742895126,-0.20034241676330566,0.07202031463384628,0.12691886723041534,-0.09533929824829102,-0.09068939834833145,-0.02592744119465351,0.022750305011868477,0.03292537108063698,-0.0728372111916542,0.06655389815568924,-0.16346119344234467,0.015383148565888405,-0.025322631001472473,-0.2685345411300659,-0.13124613463878632,-0.04300449416041374,-0.010464337654411793,0.0339677669107914,0.30689480900764465,-0.10130868852138519,-0.10329148918390274,-0.2003626525402069,-0.1738346666097641,0.10932272672653198,0.3761294186115265,0.03629223629832268,-0.022989271208643913,-0.04490378871560097,-0.15118947625160217,-0.06254493445158005,0.1685670167207718,0.13241516053676605
-0.20235568284988403,0.12465789914131165,0.008672470226883888,-0.03466107323765755,-0.4540046751499176,0.1362297534942627,-0.10355208814144135,0.15294259786605835,-0.3754408359527588,-0.42901960015296936,-0.08540164679288864,0.24253660440444946,-0.20208168029785156,0.004886421840637922,0.15954235196113586,-0.004295440390706062,0.39528313279151917,0.16192851960659027,-0.08287560939788818,-0.17756350338459015,-0.019289808347821236,-0.020740656182169914,-0.028062665835022926,0.10169607400894165,0.02429201826453209,0.2927335798740387,0.029883835464715958,-0.06342725455760956,0.09693735837936401,-0.2925157845020294,0.14941607415676117,-0.1388895958662033,-0.05467594787478447,0.12624114751815796,0.07789408415555954,-0.08563484251499176,-0.39632731676101685,0.05197136104106903,-0.1527499407529831,0.03747089207172394,0.14352160692214966,0.09861132502555847,-0.07665802538394928,-0.015292225405573845,0.27235132455825806,-0.12666212022304535,0.15044929087162018,0.052621182054281235,-0.10961797088384628,0.05338435620069504,0.3008565902709961,-0.10188286006450653,-0.07950126379728317,-0.5091665387153625,0.03324708342552185,-0.12764860689640045,-0.07912932336330414,-0.03457450121641159,-0.515162467956543,0.17455631494522095,0.10618779063224792,-0.017900651320815086,0.03007667325437069,-0.09744428843259811,-0.1869586557149887,0.010330529883503914,-0.4490734934806824,0.05971565842628479,0.06102427840232849,0.09090451151132584,0.08648214489221573,0.039522141218185425,0.11233130097389221,0.05903419479727745,-0.031930383294820786,0.11919105798006058,0.03464571014046669,-0.060855165123939514,0.18465439975261688,0.10649384558200836,0.007131077349185944,0.09137652814388275,0.08298362046480179,0.20139184594154358,-0.062483109533786774,0.2903246283531189,-0.17339864373207092,-0.5729216933250427,-0.26251840591430664,-0.09116197377443314,0.15912261605262756,-0.040659550577402115,-0.06862036883831024,-0.24110154807567596,-0.01682765781879425,0.06722982972860336,0.16991403698921204,0.0693560391664505,0.07057487219572067,0.01766820251941681,0.07818318158388138,0.2881026566028595,0.042664237320423126,0.07466182112693787,-0.25474971532821655,0.10636340826749802,0.08535269647836685,0.009393829852342606,-0.18140359222888947,0.0962008684873581,-0.03884652629494667,-0.02279750443994999,0.03640368953347206,-0.0697280615568161,0.6010796427726746,-0.17875856161117554,0.002401699312031269,0.22314515709877014,0.09788205474615097,-0.02970130182802677,-0.21377047896385193,-0.085447758436203,-0.2886972725391388,-0.2284306436777115,0.02883192151784897,0.2252628207206726,-0.2750139832496643,0.03796517848968506,0.056084953248500824,0.15878510475158691,-0.15423983335494995,0.032154034823179245,0.18078485131263733,-0.18272066116333008,-0.0071576498448848724,0.1540995091199875,-0.13336732983589172,-0.2793981432914734,-0.08513521403074265,0.004687287844717503,-0.07990574836730957,0.046897273510694504,0.057613033801317215,-0.33730432391166687,0.17681866884231567,0.09903327375650406,0.10558035969734192,0.20136302709579468,0.10607761144638062,-0.0448489785194397,-0.07143966853618622,-0.07706350833177567,0.050190072506666183,-0.11550629138946533,-0.07848194986581802,0.09661348164081573,-0.04263220727443695,-0.06708349287509918,0.3267360329627991,0.019224848598241806,-0.26306283473968506,-0.15898431837558746,-0.1927052140235901,0.08774589002132416,0.3005472719669342,0.12400782108306885,0.14779257774353027,-0.017637018114328384,-0.20589718222618103,-0.015403525903820992,0.1221921518445015,0.1631915420293808,0.12301567941904068,-0.3358713388442993,0.038173068314790726,0.05585447698831558,0.23282331228256226,-0.19075122475624084,-1.020185112953186,0.286773145198822,-0.11595854163169861,-0.008864260278642178,0.216103658080101,-0.04163426160812378,-0.032425109297037125,0.19123871624469757,-0.009590393863618374,-0.09225566685199738,-0.19875773787498474,0.030915435403585434,-0.06865935027599335,-0.07123290747404099,0.07327086478471756,-0.05019378289580345,0.0032961091492325068,0.09696406126022339,0.07219219952821732,0.21133539080619812,0.09637100249528885,-0.5243824124336243,0.10586094111204147,0.25692716240882874,0.49334436655044556,-0.06543217599391937,0.07999919354915619,-0.30455440282821655,-0.09371746331453323,0.021660026162862778,0.21569229662418365,0.13877037167549133,-0.49404624104499817,-0.11151085793972015,-0.14001628756523132,-0.09746818989515305,0.06904818117618561,0.02323482185602188,0.2993660569190979,-0.009657086804509163,-0.2536470890045166,-0.2429921180009842,0.1427597999572754,0.16289928555488586,0.07939496636390686,-0.03503427281975746,-0.08267462253570557,-0.23587897419929504,-0.2274356484413147,-0.29204216599464417,0.33749890327453613,-0.29949817061424255,0.11121547222137451,-0.06808219105005264,-0.05577020347118378,0.07384997606277466,0.1045110747218132,-0.5230246186256409,-0.07390895485877991,0.07956868410110474,0.12713924050331116,0.24845468997955322,-0.00936764944344759,-0.11001856625080109,0.04190436005592346,-0.059267278760671616,-0.176022469997406,0.19153454899787903,-0.05939469486474991,0.1530131995677948,0.06033846363425255,-0.3859836161136627,-0.024746641516685486,0.10070373862981796,0.01877104677259922,-0.009941169060766697,-0.10896714776754379,0.08015041053295135
-0.0802517905831337,0.10527421534061432,0.09596236795186996,-0.0011306405067443848,0.09343130886554718,0.056905098259449005,0.1248587891459465,0.03290250897407532,-0.06569592654705048,-0.05706119164824486,-0.23117248713970184,-0.007378879934549332,-0.10938133299350739,0.03921175003051758,-0.06944537162780762,0.11679217964410782,-0.34495851397514343,-0.15233765542507172,-0.05420559644699097,-0.035504162311553955,-0.02826417051255703,-0.0041726925410330296,0.05261090770363808,0.03322155028581619,-0.036203596740961075,-0.001200883649289608,0.015402080491185188,0.1520513892173767,-0.14417672157287598,-0.07724428921937943,-0.11049409955739975,0.005062322597950697,-0.0021800631657242775,0.15363331139087677,-0.2051050364971161,-0.026996437460184097,0.2719908654689789,-0.15766401588916779,0.052733615040779114,0.16769519448280334,0.2796662151813507,0.12996064126491547,0.1563214808702469,-0.20064985752105713,0.0005374079337343574,-0.010553702712059021,-0.05754288285970688,0.08690038323402405,0.07805698364973068,0.05921825021505356,0.06863917410373688,-0.07724057883024216,-0.2341204285621643,0.023056071251630783,0.15411514043807983,0.10828783363103867,0.15819872915744781,-0.041768498718738556,-0.0356840044260025,-0.056925952434539795,0.10877923667430878,-0.024752262979745865,0.1342395842075348,0.0597708523273468,-0.06146090105175972,-0.26902124285697937,-0.09193043410778046,-0.24866825342178345,0.2189296931028366,0.01531456783413887,-0.1668337732553482,0.027046384289860725,-0.04378761723637581,-0.1603158414363861,-0.1262044757604599,-0.06592269986867905,0.2374836653470993,-0.014674413949251175,0.025591064244508743,-0.06761889159679413,0.07213514298200607,0.23563198745250702,-0.2035020887851715,0.03527253493666649,-0.0186103917658329,-0.17247602343559265,0.1035352349281311,0.0930432602763176,-0.18061445653438568,0.013462859205901623,-0.10555090010166168,0.02958432398736477,-0.09601879119873047,0.08344444632530212,0.09238974004983902,-0.10112783312797546,0.31362614035606384,0.08300399035215378,0.00909612700343132,-0.015723686665296555,-0.15079163014888763,-0.25086939334869385,0.23384083807468414,0.01500259805470705,0.11090437322854996,-0.23243100941181183,-0.11642371863126755,0.13705171644687653,0.0006773999775759876,-0.0026944256387650967,-0.007239074911922216,0.16866855323314667,0.10345413535833359,-0.1001688539981842,0.09487465769052505,-0.010454850271344185,0.018866783007979393,-0.2285241037607193,-0.03753894567489624,0.23321828246116638,-0.05217091366648674,-0.16466514766216278,0.005441580433398485,0.08234182000160217,-0.053912680596113205,-0.15621893107891083,0.06730534881353378,0.04492224007844925,0.18170572817325592,0.11493082344532013,-0.26923516392707825,-0.021636439487338066,0.03440633416175842,-0.3113694190979004,-0.16242170333862305,0.11723615974187851,0.06185260787606239,0.07386108487844467,0.11632001399993896,-0.004088665824383497,-0.195474311709404,0.015135956928133965,0.26849228143692017,0.17536050081253052,-0.036956485360860825,0.14319074153900146,0.03853059187531471,0.014464333653450012,0.1711181104183197,0.20031964778900146,-0.19406315684318542,0.12048421800136566,0.05689471960067749,-0.011406049132347107,0.27227982878685,-0.5084414482116699,-0.3557465672492981,-0.14672771096229553,-0.03558170050382614,0.05594184994697571,-0.06968232244253159,-0.030651254579424858,0.016508201137185097,0.11138927936553955,-0.17886561155319214,0.053105488419532776,0.008315224200487137,0.1278105527162552,-0.12215016782283783,0.29356658458709717,0.14284230768680573,0.07418101280927658,0.18159152567386627,-0.16556179523468018,-0.03382781147956848,0.25608569383621216,-0.1402043253183365,-0.03312103822827339,-0.015513445250689983,-0.04113742336630821,-6.698836659779772e-05,0.06508827954530716,0.024201689288020134,-0.02225402183830738,0.13703952729701996,0.10356990993022919,0.3551815450191498,0.06704886257648468,0.15248602628707886,0.13199660181999207,-0.033912111073732376,0.0419425331056118,0.01311580277979374,0.00914725661277771,0.22507476806640625,0.014389310032129288,-0.11532898992300034,-0.06521080434322357,-0.22978658974170685,-0.06756669282913208,0.1563929319381714,-0.002051166258752346,0.080237478017807,-0.038785647600889206,0.03988707438111305,-0.05783810839056969,-0.14225980639457703,-0.04845498129725456,0.021655123680830002,-0.09524627774953842,-0.2064199298620224,0.04910548776388168,-0.0014121911954134703,-0.10748698562383652,0.23234200477600098,0.21601372957229614,-0.3602864444255829,0.11659404635429382,0.0075265816412866116,-0.10127429664134979,-0.056889310479164124,-0.12039756774902344,-0.05598282814025879,0.036278121173381805,-0.14230464398860931,-0.07902126759290695,0.07110344618558884,0.03728964924812317,-0.1082223430275917,0.07559682428836823,0.002655901713296771,-0.1712297648191452,0.2247665673494339,0.11677026748657227,-0.04994656518101692,0.034927982836961746,-0.03540422394871712,-0.08845755457878113,0.03492257371544838,0.035064566880464554,-0.05416343733668327,0.10900190472602844,0.11328049749135971,-0.026164118200540543,-0.15661118924617767,-0.12087319046258926,-0.032172515988349915,0.11609885841608047,0.0712888240814209,-0.018631527200341225,-0.15961474180221558,0.02284839004278183,0.03078155405819416,0.2322060912847519,-0.05411146208643913,-0.19590988755226135
0.1466040015220642,-0.19379539787769318,0.169205442070961,-0.00983624067157507,0.04521089047193527,0.014004758559167385,0.10369192808866501,-0.0754014179110527,0.020742516964673996,-0.11615883558988571,-0.06902648508548737,-0.11286836862564087,0.036142803728580475,-0.3477073311805725,0.09981174767017365,-0.032172925770282745,-0.014905288815498352,0.0619487538933754,0.04455527290701866,0.14733852446079254,0.12705738842487335,-0.16366498172283173,0.14617392420768738,-0.10209807008504868,-0.24167144298553467,0.06309975683689117,0.004690967500209808,0.036200687289237976,-0.05618356540799141,-0.01265724003314972,0.16950565576553345,0.13838711380958557,-0.21088455617427826,0.11463752388954163,-0.18519805371761322,0.2998967468738556,-0.015666808933019638,-0.1034802570939064,0.055013351142406464,0.09186206012964249,0.005985690280795097,-0.014899087138473988,0.09283962100744247,0.25351482629776,-0.009946742095053196,-0.19370228052139282,-0.016963889822363853,-0.24094605445861816,0.07383772730827332,-0.1905047595500946,-0.04655851051211357,0.06133585050702095,-0.09109920263290405,0.05208685249090195,0.20104877650737762,-0.18877318501472473,0.09702268987894058,0.20236651599407196,-0.09177734702825546,-0.1911906749010086,0.13405823707580566,-2.0100249457755126e-05,-0.026073243468999863,0.06100444495677948,-0.01926262676715851,0.07412295043468475,-0.2889253497123718,-0.13677234947681427,0.25968295335769653,0.2035379558801651,-0.11275012046098709,0.06759445369243622,-0.040018822997808456,-0.05992967262864113,-0.0576678067445755,-0.08113833516836166,0.0997130423784256,-0.05505566671490669,-0.0028796400874853134,-0.06117731332778931,0.7720453143119812,0.11055891960859299,-0.024738864973187447,0.17883579432964325,0.07078073173761368,-0.07524397224187851,-0.39844775199890137,-0.0049322680570185184,-0.18756236135959625,0.03767859563231468,0.07976444810628891,-0.0302580539137125,-0.19246092438697815,-0.1750120371580124,0.004210303537547588,0.024715213105082512,-0.11135409027338028,-0.09979148954153061,0.0027076026890426874,0.0776119977235794,0.09586633741855621,0.0002872166223824024,-0.06250737607479095,0.0037959483452141285,-0.014409724622964859,0.058947961777448654,0.1267036646604538,0.0451013557612896,-0.08361373096704483,-0.027740806341171265,-0.24921707808971405,-0.1468837857246399,-0.07215892523527145,0.10912436991930008,0.23180542886257172,0.17098942399024963,0.15464232861995697,-0.025320498272776604,-0.003575460985302925,-0.021754175424575806,-0.09012802690267563,0.2953672409057617,-0.0016922903014346957,-0.07709909975528717,0.10282465815544128,-0.07296715676784515,-0.011930432170629501,0.3132210969924927,0.04477625712752342,0.037368517369031906,-0.05362420156598091,0.24097472429275513,0.1422930657863617,0.1458827406167984,0.045060619711875916,0.00040279835229739547,-0.07819823920726776,0.0661061629652977,-0.020161423832178116,0.0811629593372345,-0.021714454516768456,0.13497623801231384,0.02489287219941616,-0.0024239851627498865,0.014785761013627052,-0.009671109728515148,-0.09215546399354935,0.1747513860464096,-0.004433615133166313,0.3934062719345093,0.3945994973182678,0.04393285885453224,-0.09570483863353729,-0.18045909702777863,-0.07630176097154617,0.20346225798130035,0.048053134232759476,-0.1261025220155716,0.07997351139783859,-0.03687429800629616,0.06874952465295792,-0.09737439453601837,0.1323370784521103,-0.11496193706989288,0.007608885411173105,-0.2876129448413849,-0.39597755670547485,0.035052236169576645,0.0205010287463665,-0.026905834674835205,-0.1344083547592163,-0.17848587036132812,0.053324054926633835,0.30508336424827576,0.15921737253665924,-0.1195349469780922,-0.0979146733880043,-0.23012138903141022,-0.27102959156036377,0.19488003849983215,-0.18357190489768982,-0.08900418877601624,0.06573759019374847,-0.2661239206790924,0.18855981528759003,-0.10568755865097046,0.053838301450014114,0.05341927334666252,-0.14415740966796875,-0.1045001894235611,-0.1403840184211731,0.008581316098570824,-0.023989956825971603,-0.0845172107219696,-0.014973653480410576,-0.1947144865989685,0.04861997812986374,0.05021896958351135,0.12233754247426987,0.04287237673997879,0.06760988384485245,-0.1126398891210556,-0.03399527817964554,0.29486680030822754,-0.17058277130126953,-0.11885446310043335,0.09769532829523087,0.004574765916913748,0.11284453421831131,-0.015225582756102085,0.10258233547210693,-0.06565751880407333,-0.009294131770730019,0.07889429479837418,0.034793298691511154,-0.06918583810329437,-0.0741676539182663,0.07414941489696503,0.16270649433135986,-0.07992452383041382,-0.08255838602781296,-0.386101096868515,0.15682226419448853,0.04141087457537651,-0.22326676547527313,-0.0603955015540123,0.08843901753425598,0.1873592883348465,-0.20310208201408386,0.10518532246351242,0.00604247534647584,0.05979481711983681,0.049262307584285736,-0.24240310490131378,-0.1581946611404419,-0.10032521933317184,0.21969719231128693,-0.08565342426300049,-0.16239479184150696,-0.049396809190511703,0.28950807452201843,0.02156561054289341,-0.0330248586833477,0.140839621424675,0.07635292410850525,-0.004656643141061068,0.1668398678302765,0.18490152060985565,-0.03476346284151077,0.05282866582274437,-0.07071835547685623,-0.14577557146549225,0.013778292573988438,0.12047533690929413,-0.26766055822372437,0.01992270164191723
